3039 100
사업 -0.023479706 0.033285715 0.013630095 0.0059761936 0.0063521173 -0.072532244 0.021237992 0.095736116 -0.042185977 -0.020561876 -0.011983147 -0.056199893 -0.015775358 0.021578996 0.007873955 -0.039525088 0.0169893 -0.04408904 -0.014000643 -0.089899145 0.032769326 0.018920051 0.02396509 -0.007971084 -0.0013623952 0.00031482006 -0.021991814 -0.030106502 -0.040538 0.012654928 0.04871249 0.0067775026 0.014648248 -0.036861997 -0.015270745 0.04854128 0.007840664 -0.041099276 -0.01931127 -0.07871693 -0.005133136 -0.014987755 -0.021375388 0.0005949219 0.036453865 -0.018871162 -0.03900474 0.018612558 0.025177566 0.03326937 0.005295694 -0.022897929 -0.0066089067 -0.0014157125 -0.024589343 0.011343989 0.028277464 0.005066312 -0.047830198 0.017862728 0.011438223 0.013310251 -0.020886904 -0.020060454 -0.06312436 0.027616022 0.010268621 0.034487613 -0.055093285 0.058225304 -0.018344156 0.026786748 0.037162572 -0.018393092 0.03948178 0.020828187 0.013881485 -0.0029606177 -0.044356175 0.010807331 -0.020458793 -0.005648823 -0.024159528 0.057058476 -0.013241458 0.009395016 0.003981459 0.04425398 0.053066146 0.014221033 0.04848536 0.01945497 0.012695914 0.0069855126 0.07234712 0.05329577 0.017373936 -0.06972001 0.021584049 -0.00011258522
지역 -0.03063434 0.033986844 0.012938155 0.002291963 0.020821707 -0.06555848 0.013605211 0.08296324 -0.037303194 -0.021468384 -0.018685665 -0.05714798 -0.015763666 0.01934892 0.015107014 -0.028454496 0.020112023 -0.032451577 -0.009598821 -0.07144154 0.026628643 0.007644205 0.024005553 -0.017190604 8.739812e-05 0.008188379 -0.022593554 -0.027973108 -0.032224335 0.020055039 0.061131176 0.0034934098 0.002463401 -0.030428953 -0.008013209 0.04859203 0.007283948 -0.025908733 -0.008084556 -0.056677815 0.0145903975 -0.0254216 -0.01910096 0.0046605836 0.028167527 -0.009668839 -0.020306602 0.0055641653 0.01871275 0.023572862 0.019469894 -0.03229438 -0.0020773239 6.721235e-05 -0.03149076 0.021632263 0.030099913 0.016672548 -0.039921336 0.015363344 0.0053783674 0.014744449 -0.019550597 -0.01596089 -0.049158953 0.02689077 0.017790163 0.019683154 -0.040510356 0.054819368 -0.026642345 0.004986087 0.03995848 0.00014746579 0.029524164 0.011727392 -0.0007835301 -0.004105791 -0.031874754 0.014441439 -0.02687597 -0.005072559 -0.02088471 0.03645721 -0.0065217996 0.002600524 -0.0024205032 0.03346197 0.05312868 -0.0021145807 0.04282545 0.015634261 0.010768905 -0.0013983473 0.055149443 0.043681007 0.029356137 -0.05901606 0.00806405 -0.001896553
광 -0.014687414 0.025904566 -0.0014920993 -0.0018181959 0.0195634 -0.037953854 0.002926545 0.06152079 -0.040139414 -0.0035649256 -0.020521482 -0.04157594 0.005392708 0.0120672695 0.018207438 -0.03207213 0.013547285 -0.018463343 -0.016405303 -0.061889026 0.008909435 0.0038114314 0.008134625 -0.016725559 0.0047889757 -0.0013079755 -0.0017613367 -0.01642744 -0.029996235 0.01825559 0.048313547 -0.003251536 -0.009090183 -0.021706844 -0.019780602 0.033814654 -0.0007130998 -0.021512931 -0.014389957 -0.055489536 -0.0013684907 -0.013275753 -0.009074841 0.012474156 0.030796494 -0.0066616647 -0.019050723 0.0010892235 0.0098352935 0.012882473 0.009909644 -0.022736412 -0.009528737 -0.0118693 -0.036563903 0.0030069796 0.010155742 0.0021542972 -0.037418388 0.0041084155 0.017754244 0.0032899184 -0.00069655216 -0.008870643 -0.050249185 0.029630765 0.019197986 0.026929952 -0.047168743 0.043904457 -0.01448702 0.01925557 0.03344067 -0.0019922003 0.019437645 0.02712353 0.016910272 0.002272836 -0.031752057 0.012228905 -0.011073616 -0.018443197 -0.031132668 0.03248891 -0.002735008 -0.0007160658 -0.008024925 0.023644798 0.050182316 0.0025003136 0.026230717 0.01945547 0.019944232 0.00026049025 0.053059198 0.03797396 0.026042588 -0.04255584 0.02316139 -0.013883512
전 -0.029485608 0.038460046 0.0069932374 -0.0061461795 0.019183531 -0.06016777 0.014293173 0.08186964 -0.026390303 -0.023006242 -0.007919821 -0.04340682 -0.004995331 0.0039197113 0.021390012 -0.0356209 0.022037335 -0.043179873 -0.016273646 -0.058860023 0.023709737 0.009234097 0.026720053 0.00492084 -0.018786225 0.008451689 -0.010406788 -0.024277 -0.027194131 0.015237491 0.04842063 0.0030517487 -0.004435178 -0.025995122 -0.0071799047 0.054720864 0.011693771 -0.037089154 -0.028254475 -0.051865686 0.009620513 -0.011063546 -0.0031289272 0.0013859286 0.03764573 -0.012782167 -0.021153707 0.0053205416 0.011144371 0.018271398 0.015010462 -0.023249622 -0.00974586 -0.013148887 -0.03572986 0.012582514 0.02023306 0.01876604 -0.029865475 0.0023310718 0.012664595 0.015188769 -0.0056266873 -0.009579885 -0.0463899 0.015494295 0.008485855 0.03225854 -0.049333315 0.035929643 -0.01603561 0.009827209 0.032589655 0.004326592 0.024666298 0.014184585 2.0589203e-05 0.0067572827 -0.042085785 0.017488172 -0.021455355 -0.0007611359 -0.021053744 0.042238973 -0.01071051 0.0016457313 0.008493754 0.048174303 0.045469653 -0.007312674 0.03348472 0.0147937955 0.0064519695 0.0021853067 0.06504669 0.03572671 0.029834986 -0.06189964 0.013590635 -0.0128339315
광주 -0.028439473 0.031233877 0.00017626915 -0.006197571 0.016169004 -0.053284205 0.013052366 0.0822485 -0.037369184 -0.008498774 -0.025700973 -0.04486991 -0.019866345 0.013764716 0.00612296 -0.037784338 0.008609366 -0.034819562 0.0011780441 -0.07705093 0.023218706 0.0043752077 0.025170464 0.003145945 -0.008816341 0.0065821465 -0.018546779 -0.027698152 -0.039804097 0.016043056 0.059192 0.009650057 0.0057406034 -0.035410475 -0.0046348413 0.041313466 -0.0033120282 -0.027701292 -0.021027232 -0.06610044 0.007282646 -0.023771187 -0.022289649 0.013524877 0.037592918 -0.024980288 -0.022990769 0.0077813207 0.021656021 0.014222313 0.015954534 -0.020055361 0.009887265 -0.008308833 -0.032980867 0.0057658358 0.009483676 0.0007162494 -0.04051816 0.00065250305 0.017047366 0.0047874036 -0.011709544 -0.008679822 -0.057551555 0.021840155 0.021766262 0.034764092 -0.05467956 0.058005318 -0.028477317 0.021812309 0.030546632 -0.004626384 0.034596108 0.025925718 0.0026157731 0.007360356 -0.030616347 0.0071582156 -0.02586189 -0.015820807 -0.023310639 0.041185733 -0.0143300975 -0.004478611 0.006195347 0.047617722 0.039852683 0.00010674226 0.04730235 0.014043515 0.013314474 0.0014689426 0.061476227 0.032953426 0.029978907 -0.05243217 0.018378321 -0.0025075478
지원 -0.026588462 0.02929754 0.005787393 -0.012145484 0.0012212695 -0.05484242 0.015060893 0.076001294 -0.039318725 -0.0212309 -0.023163209 -0.047568366 -0.0186463 0.0023133934 0.0074007967 -0.04024981 0.0030457026 -0.0441443 -0.006998955 -0.066871405 0.011070458 0.010994728 0.024088034 0.0017301744 -0.012665635 5.0071285e-06 -0.014127361 -0.038858213 -0.026771655 0.021555688 0.053725123 -0.005280694 -0.0005029606 -0.032507196 -0.012562218 0.05211423 0.0065170475 -0.023268228 -0.012373504 -0.06576161 0.014435337 -0.023608519 -0.019103587 0.0040706056 0.029070139 -0.018820623 -0.026826046 0.015750922 0.01528242 0.018259583 0.013708819 -0.031964347 0.006786973 0.00682983 -0.03834769 0.015296718 0.027923834 0.00082898274 -0.04385658 -0.0021722277 0.021255244 0.00998994 -0.0050008544 -0.0190187 -0.044517994 0.02292836 0.011761269 0.026617607 -0.05233418 0.03497561 -0.018554207 0.02202802 0.040347356 -0.0012599601 0.027592165 0.027051402 -0.0051165 0.0007821089 -0.034098115 0.018815635 -0.007931895 -0.014268678 -0.019652842 0.031571418 -0.007035233 -0.0027257146 -0.0076422244 0.04914768 0.04442592 0.0076283924 0.047206234 0.025842672 -0.0006428339 0.0026575758 0.06266834 0.04490066 0.019619256 -0.061718907 0.020679338 -0.013745221
양 -0.0046629678 0.017409995 0.00347065 0.00015566203 0.011807577 -0.042873167 0.015022212 0.055490658 -0.032489702 -0.013700078 -0.008633505 -0.03354754 -0.0071187187 0.022010269 0.002376892 -0.028096369 0.018961577 -0.02226097 -0.0044174404 -0.06447604 0.02104306 0.004283621 0.024847789 -0.0064713093 -0.0027613076 0.0080745015 -0.013114546 -0.032005202 -0.022377182 0.0068187625 0.048344847 0.016007598 -0.0016170396 -0.015215084 -0.017156865 0.03943593 -0.009438041 -0.03386733 -0.02232882 -0.06155401 0.013957312 -0.022916082 -0.000103122686 -0.0034173129 0.02853616 -0.0011776097 -0.0296996 -0.0063210707 0.007511699 0.013620857 0.008793583 -0.029808262 -0.012193348 -0.001966698 -0.03317753 -0.0016952804 0.010981881 -0.004135535 -0.038721133 -0.0030559245 0.010391917 0.0045675733 -0.0008506559 -0.009667301 -0.04552489 0.024448939 0.0017095888 0.013759041 -0.044635966 0.03106477 -0.019521538 0.01913439 0.024704723 0.0010184366 0.0309936 0.0063277213 0.010970313 0.004258018 -0.033009812 0.022398813 -0.0052864505 -0.016724657 -0.031221427 0.033481292 -0.00690467 -0.002850612 0.0069578593 0.025260318 0.03025472 0.0038728837 0.025864022 0.013785324 0.0051919613 0.004372161 0.04043418 0.031130457 0.031212019 -0.050629366 0.011130889 0.0007736403
월 -0.009984586 0.021364005 0.015147932 0.004458281 0.0068415124 -0.052013714 0.013999212 0.063952 -0.034786332 -0.020930752 -0.016000438 -0.043234363 -0.00489127 0.008956303 0.009777879 -0.028042393 0.016328169 -0.034527697 -0.010885687 -0.07164491 0.020507488 0.017519375 0.014253063 -0.015892819 -0.0147510795 0.010778701 -0.020400222 -0.020676566 -0.033028875 0.022600867 0.037354533 0.01029721 0.0016917781 -0.02865204 -0.013539794 0.039238803 -0.005425041 -0.028621316 -0.02298596 -0.0536706 0.014626419 -0.017652893 -0.009953566 0.00715123 0.03566235 -0.020012842 -0.029966684 0.0033577357 0.025301855 0.019104177 0.0011682323 -0.021956136 0.0088559445 -0.009498624 -0.031559277 0.02064097 0.008579582 0.012730104 -0.03317991 0.012892382 0.02028437 0.007125241 -0.016331227 1.5962765e-05 -0.045345534 0.024946326 -0.00039841284 0.0315025 -0.043538965 0.036616486 -0.016324867 0.012462131 0.034473434 -0.009031536 0.022770096 0.01911495 0.014504118 -0.0060485494 -0.031162804 0.00593418 -0.022401137 -0.007248183 -0.032024693 0.040344447 -0.0048352983 0.0030364676 0.0029794222 0.048971478 0.05221809 0.0024206475 0.039866615 0.01054591 -0.00082907296 0.011767959 0.04727298 0.03411115 0.018334234 -0.054046415 0.019863805 -0.009616117
김 -0.025251824 0.03242077 0.010209924 0.0072525158 0.0199276 -0.043754023 0.018458903 0.055518605 -0.034959976 -0.00766794 -0.011388105 -0.043104168 0.0029785812 0.0081788935 0.018507317 -0.025838248 0.0021511784 -0.031809058 -0.013123532 -0.057942234 0.018248344 0.018556146 0.023526277 -0.013445246 -0.0017749949 0.008390307 -0.016087864 -0.03375247 -0.02255568 0.0035016125 0.04797337 0.00032674806 0.008703949 -0.009064338 -0.0102644 0.040720712 -0.0017762171 -0.015937403 -0.010562385 -0.061796833 0.0016886779 -0.009600319 -0.007985181 0.0034479536 0.021996267 -0.015099693 -0.019095179 0.008893147 0.009233643 0.012269465 0.009362429 -0.019054608 -0.0016052753 -0.0082375035 -0.020113716 0.0070694312 0.016826408 0.007632797 -0.024864763 -0.001779582 0.0050070425 0.0048352587 -0.0009199042 -0.009751556 -0.0512115 0.01674983 0.0043395106 0.025507864 -0.04804851 0.039524026 -0.027629439 0.015037692 0.03403116 0.0028579105 0.015939737 0.009099666 -0.0020189427 -0.009173576 -0.038102258 0.011498124 -0.013553201 -0.0141819045 -0.014036541 0.034379 -0.0005227163 0.0041871616 -0.0004410242 0.025445722 0.03676537 0.0075252047 0.027959326 0.016049217 0.01088153 0.0030271176 0.054556865 0.039617572 0.02264429 -0.03728639 0.019602321 -0.009650114
억 -0.020574268 0.016440138 -0.0024435788 0.0049329037 0.008864517 -0.054317087 0.004011233 0.06646628 -0.029260645 -0.016238805 -0.012653096 -0.041021932 -0.009553088 0.01117807 0.0063485773 -0.017858297 0.013960568 -0.041352645 0.0027716071 -0.06281918 0.019050341 0.013272937 0.007786229 -0.008842663 0.0033372415 -0.0010471714 -0.022159612 -0.014849347 -0.02536062 0.007351721 0.048169408 0.009945017 0.0057878247 -0.009606386 -0.018476184 0.041351706 0.0023945784 -0.019222196 -0.013820658 -0.047246594 0.008526899 -0.008189512 -0.012791458 -0.0012242312 0.023103457 -0.010576456 -0.024344591 0.012455654 0.018030941 0.024243187 0.0118383905 -0.010991688 -0.0023763094 0.006296076 -0.02068922 0.0021939962 0.011023626 0.0050602397 -0.025880568 0.0043090177 0.008551956 0.017677523 -0.0010836147 -0.009541098 -0.04666195 0.013340605 0.004451735 0.009506255 -0.036922336 0.0330607 -0.01584757 0.018156318 0.022684634 -0.01591817 0.02486823 0.008263466 0.007741941 -0.005477615 -0.022159172 0.013328202 -0.009455061 -0.010009498 -0.022119936 0.04112564 -0.0042656604 -0.0024529502 -0.009173635 0.034489166 0.046797365 0.00852419 0.023410419 0.022212153 0.011779151 0.012211921 0.054999903 0.023967873 0.009402001 -0.037536524 0.023508897 -0.0015849555
및 -0.0059096324 0.017348472 0.0125011895 -0.011736955 0.00022389952 -0.044369612 0.0038574198 0.054611765 -0.025848128 -0.019097175 -0.002579914 -0.035202388 0.0020947412 0.003370958 0.0111012915 -0.017158037 0.009288557 -0.027600523 -0.0008525329 -0.05406983 0.012425447 0.0046464866 0.017997492 -0.008700223 -0.011338736 0.0073147137 -0.012104333 -0.024194624 -0.012308053 0.014440106 0.028531762 0.005413581 0.012342287 -0.007507762 -0.00076867506 0.034128133 0.0025610523 -0.020803466 -0.018486697 -0.042604696 0.0016234964 -0.011463411 -0.013520791 0.010572403 0.0134493 -0.019289393 -0.020175183 0.0029154005 0.004122046 0.01371226 0.0024778796 -0.017159663 -0.008622681 0.00039238296 -0.015903693 0.00908587 0.008031895 0.0054175826 -0.017509703 0.007997315 -0.00038415886 0.0033452325 -0.006791829 -0.0043415683 -0.04376746 0.018614985 -0.0020370914 0.008709647 -0.027339913 0.02748881 -0.0104817385 0.018381558 0.017002044 0.005507448 0.020828608 0.022411523 0.009383997 -0.010653023 -0.026958786 0.017411148 -0.0045640124 0.0038897395 -0.009914382 0.03581599 -0.014482766 0.007851192 -0.00549053 0.031226344 0.038520634 0.007928731 0.034943126 0.012591357 0.0047068447 0.009300892 0.029822359 0.026357407 0.025068188 -0.04163261 0.015397039 -0.012651214
광양시 -0.003425398 0.029589035 0.0062381336 0.0028231777 0.0112129375 -0.04852508 0.007076983 0.060470283 -0.028699849 -0.015031369 -0.008693254 -0.032903925 -0.008798205 0.0069360044 0.014866591 -0.029984366 0.0052089086 -0.033495113 -0.007932519 -0.05985315 0.010428082 0.00020239872 0.013409941 -0.014703676 -0.015093957 -0.005365084 -0.020284967 -0.014878161 -0.015838118 0.0116036385 0.034227487 -0.0028348486 0.0040487126 -0.01696978 -0.008525011 0.033416063 -0.00012763609 -0.020334715 -0.02124197 -0.0528801 -0.0058706375 -0.01315583 -0.006424192 0.011486621 0.019648606 -0.014372653 -0.010266332 0.004413745 0.00996267 0.024538668 0.010554277 -0.022983974 0.00579036 0.003860374 -0.030201733 0.009436254 0.015479639 0.01302354 -0.030434545 0.0023614918 0.011664182 0.009387195 -0.009132071 -0.011234877 -0.043870423 0.02328656 0.016165756 0.02631994 -0.0424261 0.03627073 -0.01943253 0.022615774 0.028159196 -0.00041743118 0.024505481 0.021231173 -0.0031513404 0.0061785257 -0.02831845 0.00628841 -0.013449117 0.00436309 -0.026206253 0.027372343 0.0031041824 0.0035601316 -0.008204463 0.0232473 0.044553015 0.010609662 0.03261639 0.009538063 -0.0030267143 0.008677186 0.046977356 0.024386305 0.007817533 -0.042733047 0.008474895 -0.0073818467
추진 -0.01614212 0.013245028 0.014613482 -0.012065971 0.013470229 -0.03415941 0.0067377733 0.06190345 -0.012120627 -0.0149788475 -0.019718686 -0.03966204 -0.015818398 0.006067561 0.00058500003 -0.031145304 0.00830573 -0.024732703 0.0036515798 -0.052207284 0.011573222 0.009926179 0.010600376 0.00250292 -0.0037962913 0.0110999625 -0.02148104 -0.013191583 -0.022500278 0.018758345 0.027729457 0.0070095197 0.0032869321 -0.018210797 -0.013384505 0.02146163 -0.008111569 -0.028829964 -0.010434462 -0.044908512 0.0019161861 -0.0044259108 -0.010139973 0.0011626654 0.011691338 -0.021531196 -0.008632189 -0.000192772 0.0060667726 0.020078672 0.014723703 -0.02298575 0.0005776476 -0.007885268 -0.019185528 0.0044003343 0.010238066 0.009004821 -0.017757542 0.01216457 -0.0008831624 0.0015973356 -0.0021567426 -0.0049207006 -0.041111663 0.016122459 0.017925028 0.016065 -0.04121429 0.03498689 -0.008918246 0.016538318 0.027382106 -0.011199361 0.021113753 0.01246767 0.008741976 -0.009407653 -0.03412502 0.012350359 -0.020247396 0.00030196147 -0.018999802 0.039505746 -0.010705263 0.0027936876 0.0064625726 0.024818769 0.02888688 0.005470549 0.03160669 0.009125251 0.013926096 -0.0036117588 0.04140602 0.028103232 0.025281264 -0.032180734 0.018235208 0.004720306
시민 -0.02279553 0.028896654 -0.003392696 -0.005575212 0.003758433 -0.0410281 -0.0016468443 0.041916 -0.025820179 -0.011100827 -0.017054172 -0.025234697 -0.015772691 0.0022998604 0.0171462 -0.013972359 0.014238266 -0.020307248 -0.002701714 -0.050976533 0.019754346 0.009750073 0.016984116 0.0019263406 0.0041129338 0.01212019 -0.020666862 -0.026385272 -0.017827546 0.016442785 0.039555795 0.009405792 0.01085295 -0.020879157 -0.0005510202 0.023996385 -0.009669817 -0.009381686 -0.010021182 -0.044619557 -0.00037853437 -0.014197952 -0.0017540072 0.0071995594 0.016956989 -0.0188592 -0.01947235 0.0050070365 0.017286222 0.0105535835 0.006987215 -0.013991521 -0.0074984417 0.00064208056 -0.020886485 0.010575144 0.017806845 0.0047266018 -0.026418071 0.012396687 0.013185692 0.013679949 -0.0039508217 0.0027770665 -0.026692554 0.012958744 0.016005307 0.020396512 -0.023915946 0.027966112 -0.015817026 0.005630603 0.013162269 -0.0012870248 0.027513921 0.021583157 0.0017097853 0.00495857 -0.019027945 0.0060234917 -0.0079159485 -0.009505468 -0.00791742 0.031133536 -0.0011507432 0.007485485 0.0072629596 0.034469858 0.031151533 -0.0035747662 0.034463942 0.018427022 0.007938609 0.002339301 0.028799774 0.022271855 0.024100838 -0.038339067 0.003990806 0.006502081
천 -0.008820141 0.034168273 0.007828414 -0.01191515 0.019631581 -0.052398864 0.015565928 0.068740964 -0.01701605 -0.022769526 -0.0052213217 -0.048846137 -0.0154662095 0.00039344153 0.0042295153 -0.020161249 0.018136319 -0.035035357 -0.0005707267 -0.06267799 0.02808252 0.015415167 0.012546969 -0.0097118495 -0.012887932 0.008413902 -0.01423112 -0.028001893 -0.015414529 0.0069172843 0.031141158 0.00406062 0.0045178873 -0.026676869 -0.015353668 0.028976634 0.010504176 -0.017798148 -0.015721278 -0.045621447 0.013047314 -0.014712039 -0.0034452865 0.007989409 0.030535005 -0.007021925 -0.02678329 0.0043993504 0.01644517 0.021189569 0.014258584 -0.013084436 0.0050059585 -0.011072791 -0.028132727 0.0040681893 0.026507221 0.014229322 -0.031674255 0.010446847 0.003799702 0.0031107871 -0.008404824 -0.0025623331 -0.0398742 0.022343604 0.0054478757 0.017390413 -0.038738277 0.036552563 -0.024704857 0.003690177 0.034049068 -0.0073746936 0.023179896 0.0066420888 0.014798076 -0.0014576514 -0.02913245 0.017763926 -0.020805215 -0.005741461 -0.017798554 0.026185688 -0.0007020892 0.007426383 0.004803524 0.04204987 0.038879678 -0.0029564293 0.042872265 0.015952602 0.013693018 0.01123157 0.048758548 0.026609033 0.019200515 -0.038039718 0.00882553 0.005035402
개 -0.021746326 0.02607874 0.007923554 0.0048286077 0.0042324886 -0.046786007 0.0023052266 0.058948338 -0.028366914 -0.0020377785 -0.017047664 -0.04427458 -0.012822066 0.014319948 0.0023273544 -0.030624192 0.00026708623 -0.02251612 -4.5985613e-05 -0.048256703 0.013101071 0.014757944 0.0060616154 -0.0069394233 -0.011383182 0.0016097096 -0.01570367 -0.013591926 -0.021322444 0.002523745 0.030796776 -0.003057163 0.005980092 -0.0077816304 -0.014455299 0.041053485 0.010197511 -0.02963472 -0.022431387 -0.037866488 0.0122195035 -0.016718958 -0.015906235 0.011035893 0.025132993 -0.0040637953 -0.027110264 -0.0040307753 0.015136968 0.0051928973 0.0037186742 -0.021300185 0.0098797465 0.007299754 -0.024758073 0.017015047 0.023966525 0.005287598 -0.017301993 0.012608682 0.012008379 0.0037324186 -0.016109543 -0.012222387 -0.029857725 0.01002076 0.0048236023 0.027040659 -0.030487385 0.041933116 -0.025710436 0.009372011 0.030130502 -0.009834444 0.028703166 0.023211103 0.0027472996 -0.002897015 -0.028040336 0.0063437345 -0.020926395 -0.0067049484 -0.021182654 0.036545843 -0.013415245 0.00925087 -0.007647311 0.022967579 0.04409196 0.012315897 0.027014215 0.016658911 -0.00039727575 -0.005067021 0.036081783 0.036876705 0.023631614 -0.030968565 0.019863714 0.0017386286
시장 -0.012595322 0.01040493 0.01021757 -0.0029773137 0.017074198 -0.03833253 0.004297236 0.059721313 -0.022022558 -0.011397847 -0.018397003 -0.042785343 -0.014424936 0.018219078 -0.0011120983 -0.014639378 -0.0015007479 -0.026432354 -0.0068161944 -0.057628695 0.023802072 0.014710211 0.013991156 -0.000533594 -0.004898839 0.0139124775 -0.0041962513 -0.031580478 -0.02435305 0.008667051 0.03830416 0.00030772877 0.0033554956 -0.02490622 -0.0056366287 0.03555395 0.0032104845 -0.02375403 -0.020766 -0.055016574 0.00297028 -0.019855376 -0.013583675 0.009231928 0.028544232 -0.008977836 -0.025235813 -0.0016303024 0.020441888 0.017929103 0.0020588015 -0.023581361 -0.0004406691 0.0013919594 -0.0188383 0.011685827 0.008230429 -0.0031423816 -0.034510463 0.0059582205 0.014725254 0.012267223 -0.00788532 -0.0016745637 -0.0363278 0.01913578 -0.0014690828 0.02383928 -0.026633583 0.038877882 -0.0082164705 0.020364331 0.025393978 -0.006763592 0.021686507 0.0047019105 0.012561214 -0.007854699 -0.016046263 0.0075870138 -0.01087305 -0.015471435 -0.028173756 0.020349652 -0.012426669 0.0035544883 -0.009442586 0.024246138 0.02936761 -0.0018768335 0.03629873 0.016429419 0.0152556095 0.011457334 0.031932455 0.035172246 0.006837633 -0.04152562 0.0034248922 0.0006382032
계획 -0.012746418 0.026831977 0.00743359 -0.009127664 0.016472554 -0.044347096 0.016453477 0.05328415 -0.024732733 -0.015409103 -0.016401242 -0.03900497 0.0026398154 0.0045824572 0.0160786 -0.032541536 0.009675974 -0.028711181 0.0052787117 -0.056974508 0.02229662 0.0039540567 0.001970595 -0.010095496 -0.008537682 -0.0012082964 -0.015082966 -0.028933274 -0.019121436 0.009822615 0.032314133 0.008533534 -0.0058080107 -0.020349585 -0.0032408782 0.03914303 -0.009072409 -0.013417994 -0.006827158 -0.04737653 0.0120147625 -0.021161433 -0.00049555994 0.008126841 0.021806674 -0.016752567 -0.020979261 0.0025969644 0.012812364 0.015709775 0.014767642 -0.0053349882 0.009267253 -0.0058985767 -0.010334406 0.009088964 0.01887464 0.010156388 -0.02624961 0.0098644085 0.0030743997 0.0011243721 -0.01671025 -0.004618484 -0.027899124 0.014793527 0.008984236 0.019204158 -0.022609772 0.025241999 -0.011343289 0.0015365416 0.025632696 0.005351138 0.02684773 0.01899254 0.012172438 0.00621267 -0.016441403 0.019285174 -0.01565864 0.0054649897 -0.012187545 0.025684362 0.0040559284 0.00863277 0.008794363 0.031210475 0.043884553 0.004581874 0.037867974 0.015308657 0.011930596 0.0014574704 0.04383989 0.034640294 0.013221259 -0.04021905 0.015736427 -0.011854063
주민 -0.0012912956 0.0063090078 -0.0022509685 0.00074381765 0.014463645 -0.038621485 0.010613937 0.053620193 -0.025360398 -0.014902714 -0.015732465 -0.032700382 -0.0034928813 0.017757433 0.013255263 -0.019179204 0.009713928 -0.0152373025 0.0070703966 -0.03582952 0.019756237 -0.0005299188 0.004476596 -0.010104941 0.0025504667 0.0013917323 -0.019926624 -0.010829076 -0.009139984 0.0054031955 0.038462218 0.0039306544 -0.0014694822 -0.015491446 -0.0068622176 0.023946166 0.0018990394 -0.01268061 -0.003906735 -0.047700558 0.0009112815 -0.016033137 0.000836371 0.0095011005 0.013540121 -0.0077954284 -0.021912934 0.0045492267 0.019035097 0.010103215 0.0015273533 -0.02136923 -0.0044319713 -0.002223411 -0.014172619 0.017666698 0.0078806635 0.007927505 -0.013804992 0.0062346947 0.0076288586 0.016643481 0.00024104468 0.0014437234 -0.03803478 0.022443315 0.012902457 0.023398645 -0.029106136 0.03258548 -0.0058694975 0.004778594 0.025604181 -0.002846314 0.027458021 0.008238509 -0.00035124435 0.004840185 -0.030708654 0.003027038 -0.016737089 -0.004876214 -0.01809634 0.032021184 0.0046482603 0.0014262245 0.0006487076 0.026682619 0.026082518 -0.006753882 0.032036483 0.0057755667 0.009624686 0.01223984 0.03542187 0.02621893 0.0177471 -0.03494379 0.014389772 -0.0027361866
운영 -0.0065401276 0.02395467 0.007079437 0.0035992772 -0.0022967213 -0.03051129 0.017298672 0.044606093 -0.01954417 -0.01530529 -0.011908616 -0.028180772 0.0010358202 0.009351188 0.009013155 -0.020480683 0.014822296 -0.030928563 -0.009581874 -0.05035627 0.011339509 0.013430559 0.0009069313 -0.0061427495 -0.013441365 0.00854863 -0.014170123 -0.029563515 -0.014104421 0.020289596 0.03023067 -0.0024493486 0.00690276 -0.016605094 -0.018795494 0.038815822 -0.008187385 -0.025410654 -0.0145821 -0.048043054 0.0045393324 -0.0007280038 -0.0034517276 0.009945579 0.019999316 -0.009901017 -0.019617656 -0.0036341138 0.0152527485 0.015492871 -0.0014667857 -0.020813705 -0.010496822 -0.007879097 -0.015572393 0.01756007 0.0170545 0.008355282 -0.016444426 0.0041840514 0.007208941 -0.0027357757 -0.009200383 -0.009733122 -0.0326939 0.021586543 0.00029591925 0.011573971 -0.037807338 0.028183457 -0.017768418 0.012251611 0.025435332 -0.010343321 0.015811248 0.013372371 0.008999825 0.0040033394 -0.027214793 0.00643505 -0.016317157 -0.0067971065 -0.015269125 0.028371511 0.0036635902 0.0003373672 -0.0022863466 0.021329803 0.03163241 -0.004169624 0.025965754 0.012721753 -0.0027158682 0.012408226 0.026625086 0.015408384 0.005930252 -0.02801237 0.016649928 0.005788441
기업 -0.008430706 0.018002164 0.0019995938 0.008494605 0.010129417 -0.029083356 0.005284404 0.045454655 -0.013143605 -0.009490308 -0.007312172 -0.029252429 0.00033778872 0.01163786 0.009314694 -0.025268326 0.002078918 -0.018682182 -0.009234356 -0.042611293 0.012909871 0.010498729 0.00035979954 0.004425563 -0.0054641725 -0.0029036447 -0.0064401603 -0.02076792 -0.02528018 0.0047866395 0.029605424 -0.005030518 0.002920636 -0.0113635175 -0.010164178 0.029407816 0.0022874642 -0.007498815 -0.009733397 -0.03682973 0.005794366 -0.013147288 -0.016238444 0.011664694 0.015846867 -0.01984927 -0.022496706 0.0004153633 0.014614324 0.01812116 0.01325013 -0.020723838 0.00027273805 -0.0039707148 -0.022595853 0.015324261 0.014945175 0.002823838 -0.032908063 -0.0007131628 0.00733316 0.014785548 -0.0012992852 -0.0156402 -0.040166114 0.019699652 0.0039661615 0.010962539 -0.022950705 0.022122858 -0.0075474945 0.008812172 0.013376904 -0.0053378455 0.024138086 0.020268623 0.0064109177 0.0040069716 -0.026622681 0.009224223 -0.016459504 -0.0042417236 -0.017628828 0.021599105 -0.011603641 0.012833499 0.0010441008 0.022633458 0.025072353 0.011328309 0.018495103 0.013878891 0.0057715247 0.012304754 0.039717928 0.020760754 0.016913284 -0.034656618 0.0015079163 -0.0068726186
중 -0.013210838 0.028469099 0.015599921 0.0062035727 0.0020397576 -0.03758245 0.001985856 0.056369085 -0.024608893 -0.00468374 -0.009089338 -0.031582054 0.0028851908 0.010193756 0.0022936016 -0.032556523 0.015271215 -0.03576472 -0.0062647024 -0.04892515 0.01443004 0.0028126405 0.008321097 -0.004306831 -0.0020257547 0.009729782 -0.01891404 -0.020586424 -0.013996894 0.014053893 0.04384999 -0.00012918792 0.009662535 -0.026745386 -0.0051456327 0.024750624 -0.0029719714 -0.03209902 -0.0148295425 -0.054928377 -0.00072062464 -0.012253705 -0.004931514 0.0027662888 0.015180257 -0.01837705 -0.018574476 0.0015834245 0.0049091526 0.015200084 0.015681872 -0.011256267 -0.011535728 0.00080071384 -0.028827336 0.00045877637 0.014722217 0.0079238145 -0.037104987 0.00033030368 0.0075418693 0.015835458 -0.018485056 -0.000184415 -0.040323418 0.017463738 0.017839717 0.023817644 -0.039314892 0.041721866 -0.012455184 0.017663978 0.026061486 -0.010637842 0.024518633 0.00823153 0.0063637393 0.0032287114 -0.022790158 0.022405425 -0.02046788 -0.012023267 -0.013808722 0.033257805 -0.011773161 0.005132054 -0.00048202017 0.029415362 0.03321704 0.009527656 0.041834168 0.006181569 0.007513652 0.002321602 0.03487502 0.02799665 0.012861802 -0.032520287 0.0078178765 -0.0013928683
남 -0.013771177 0.022932585 0.0068914606 0.0075440146 0.010623557 -0.046152003 0.006832017 0.05501176 -0.022239622 -0.018119052 -0.018906215 -0.03976707 -0.001590299 0.011371399 0.014615097 -0.014769359 0.0021854518 -0.02284377 0.0059828903 -0.044599913 0.018920943 0.014178748 0.0032387888 0.0060686315 0.0038105578 0.012943599 -0.021209178 -0.016111821 -0.0139179835 0.008136137 0.027033577 0.012243937 -0.004438651 -0.023438368 -0.0036006628 0.038346432 0.008929549 -0.0267312 -0.021728097 -0.033446476 0.011590121 -0.01567313 -0.016743997 -0.0030555408 0.015509607 -0.017773116 -0.015649326 0.006241528 0.006639255 0.0075887404 0.01830639 -0.020883353 -0.008907972 0.0073452517 -0.018580336 0.01814199 0.0076805865 -0.001173398 -0.024336196 0.0028761332 -0.0010910976 0.005928215 -0.0064518102 0.00016291706 -0.027538734 0.019493097 0.0027436581 0.013944107 -0.0378083 0.037286706 -0.023680767 0.011753126 0.02038833 -0.011461025 0.011955151 0.020199917 -0.0040516625 0.00039636478 -0.023493769 0.019933065 -0.0186273 0.0004157672 -0.005747209 0.022745611 -0.011695635 0.0068182247 0.0047134478 0.030358292 0.039580468 0.0021945764 0.03076855 0.009916952 -0.004616418 0.006661257 0.04264723 0.01586228 0.013200073 -0.037817985 0.010651768 0.0058983085
도시 -0.014161402 0.010499674 0.011488512 -0.009190259 -0.0024957012 -0.035564948 -0.0016449449 0.04560995 -0.016313525 -0.011089565 -0.017219065 -0.02923178 -0.006593944 0.0102686975 0.014381047 -0.013359862 0.016544439 -0.032851607 0.0070815557 -0.043692585 0.021851486 0.009476195 0.011418125 -0.015669433 -0.013311311 0.012283369 -0.01406572 -0.016338767 -0.010726411 0.008009094 0.040207732 0.0036649304 -0.007940088 -0.022075262 -0.008512675 0.016580291 0.0072232494 -0.013684326 -0.020061854 -0.028602222 0.012296121 -0.0041275877 0.0005856417 -0.0075211083 0.018746924 -0.019474518 -0.019242186 0.004122984 0.010122728 0.014460735 0.01024543 -0.012090808 0.0048669325 0.005860908 -0.023859337 0.016097918 0.018506715 0.01578522 -0.01883718 0.0010958809 0.0025038226 0.0053504505 -0.009688994 0.004348677 -0.028789502 0.017305009 0.010428017 0.0044434867 -0.019472215 0.03629577 -0.014311844 0.011781776 0.011810394 -0.0120057305 0.027745068 0.0073614484 0.010240539 0.00067154487 -0.023146596 0.012358304 -0.014265825 -0.005951237 -0.014153763 0.03039716 -0.005067557 0.0040703975 -0.010258906 0.0344999 0.01896904 0.011146504 0.028695943 0.0021000083 -0.00027738363 -0.005178622 0.027051017 0.030817455 0.02338622 -0.029728347 0.010444146 0.007233714
아 -0.021015577 0.017109292 0.008237026 -0.01111625 -0.003217554 -0.05092798 0.01762942 0.057627253 -0.02489424 -0.022056993 -0.009424146 -0.026011558 -0.0075937156 0.010620697 0.0009419848 -0.015459684 0.008365169 -0.012441403 -0.017617676 -0.05283344 0.0045892554 0.005533343 -0.0032883284 0.0026535632 -0.012931851 -0.0025329965 -0.0059984927 -0.030631296 -0.015598914 -0.0018509888 0.042985093 0.017500484 0.0051695127 -0.007471191 -0.0011382581 0.020163951 0.012123193 -0.034287818 -0.0006048893 -0.03900585 0.0010037334 -0.015958777 0.0049099564 -0.0065798876 0.03259338 -0.01904196 -0.0047115423 0.00023016744 0.0228678 0.009976466 0.015810879 -0.0009650455 0.00054576487 -0.00018987853 -0.010829876 0.019070957 0.024483297 0.02119886 -0.014053601 0.017258238 0.02254814 0.0045446805 -0.010179804 -0.006842399 -0.034335338 0.01347505 -0.0052252878 0.00048303657 -0.032792598 0.047118098 -0.01863339 -0.0030740253 0.028590506 -0.0023245928 0.022700062 0.01495016 0.01106126 0.005347362 -0.022691317 0.013181315 0.002753902 -0.0010533844 -0.02467485 0.033478092 0.00062619295 0.007984093 -0.005362155 0.032230165 0.042445187 0.011345657 0.029794173 -0.0036603299 0.00817272 0.0055713747 0.03877505 0.013126575 0.028819107 -0.046410173 0.016734308 -0.013806148
문화 -0.0062657045 0.02913777 0.0070755277 -0.0060249604 0.009011663 -0.04310632 0.001802504 0.06349938 -0.022558758 -0.0075837155 -0.022465877 -0.027304465 -0.007854367 0.008831916 -0.0009443458 -0.020865396 0.015409953 -0.021824583 -0.00978957 -0.061801523 0.011170317 0.009263441 0.0030467547 -0.014437387 -0.0062406356 0.0051424894 -0.02371635 -0.02782038 -0.022331558 0.01845022 0.040585928 0.0030598405 -0.0050493586 -0.02583409 -0.009933758 0.041396815 0.0050373375 -0.024174832 -0.012251126 -0.05946901 0.0021594416 -0.017385412 -0.0033113146 0.00035371183 0.019025218 -0.022180261 -0.020772396 -0.0011830799 0.01098674 0.011491002 0.006923654 -0.02134137 -0.008514608 -0.003881589 -0.021084718 0.006324526 0.006896394 0.0030850982 -0.03771706 0.0046422975 0.016302016 0.0052002384 -0.007710079 -0.0022646817 -0.030881437 0.02251221 0.01844385 0.008379237 -0.043631893 0.028038692 -0.024876568 0.004297216 0.017662773 -0.00832446 0.024479872 0.011892186 -0.00428345 0.0036282756 -0.02718273 0.017403116 -0.00495271 0.0018313843 -0.020064551 0.035224043 -0.0095337825 0.004891981 0.0030717195 0.04191074 0.03470674 0.0063843834 0.025639303 0.010790012 0.014933379 -0.00012369678 0.04048886 0.021161942 0.00843399 -0.03269372 0.0071295467 0.0018096582
교육 -0.017376954 0.014188985 -0.0046107564 0.0072251977 0.014369851 -0.026116442 0.016183697 0.04102607 -0.027325172 0.0009230094 -0.014598979 -0.018575834 0.0010886058 0.0060820654 -0.00109945 -0.020692794 0.012881108 -0.028510714 -0.0018653898 -0.04636237 0.021829689 0.0042410623 0.017421104 -0.009465363 -0.013192739 -0.008352306 -0.014065037 -0.012932129 -0.016295215 0.01771272 0.031321276 0.007923348 0.0051153614 -0.0048024785 -0.008530839 0.032585643 -0.0099602295 -0.0131350625 -0.010573559 -0.035123747 0.009786638 -0.012424417 -0.009398424 0.0029992885 0.016269743 -0.012429618 -0.008309603 -0.002275027 0.018070037 0.01175201 0.009387489 -0.009054332 -0.0008152784 -2.5009454e-05 -0.019816596 0.012419144 0.011767792 0.0022940468 -0.030307496 -0.006632863 0.0079779485 0.0007118609 -0.008861453 -0.010288844 -0.03853398 0.012940809 0.01141263 0.011479006 -0.03317036 0.029721566 -0.011699481 0.0019266705 0.018147705 -0.0047243075 0.012642538 0.00036942936 0.012174173 0.003346747 -0.02328899 0.01625015 -0.008875071 0.0028872213 -0.01563787 0.03125767 -0.004430406 -0.0032961236 -0.0057599475 0.032613426 0.027647506 0.004025902 0.03137368 0.0026408848 0.0024162314 -0.003981837 0.023974897 0.014090827 0.016198808 -0.027889716 0.015232409 -0.00077028153
센터 -0.009834771 0.022779847 0.0021626523 0.0028505516 0.01692786 -0.032670066 0.014121613 0.03579991 -0.011641424 -0.0035200207 -0.0049917903 -0.038337648 -0.006088485 0.01129814 2.4287125e-05 -0.026450535 0.013286493 -0.030441882 -0.008004481 -0.032364078 0.006105398 0.0155229755 0.009941326 -0.00041730615 -0.0063214535 -0.0030705368 -0.019521382 -0.018904613 -0.023216054 0.0051559634 0.03700065 -0.0033130732 -0.004666256 -0.01947466 -0.014085079 0.016392468 -0.0023922424 -0.006986467 -0.0020207833 -0.044396102 -0.0049275574 -0.01224849 -0.016381925 -0.003136881 0.011250698 -0.0063597015 -0.024106875 0.0055363164 0.011862082 0.017775284 0.0046151592 -0.023655053 0.004337456 -0.0073092934 -0.011933999 0.009434317 0.020622306 0.007353928 -0.024503255 0.009530351 -0.0006953603 -0.0021243263 -0.0049852002 -0.008899847 -0.03557669 0.00955066 -0.0032656377 0.014876853 -0.028648565 0.025104094 -0.009857697 0.013643115 0.025628071 -0.013022115 0.012367722 0.0013446391 -0.0055927453 -0.0041498123 -0.022946185 0.0014796326 -0.015936451 -0.006744026 -0.008102459 0.027606202 0.003975811 -0.005729971 -0.005651356 0.024183324 0.036667548 0.003720716 0.02496477 0.012038893 0.008258176 -0.006532452 0.035192758 0.030372549 0.018195614 -0.026388815 0.0013099817 -0.00725927
시설 -0.0020546757 0.015579841 -0.0060591227 0.0032093402 0.000709205 -0.023919128 0.01249232 0.036341563 -0.014559748 -0.003925545 -0.013262974 -0.027922878 0.0039697154 0.016304078 -0.0039609214 -0.010088515 0.015980532 -0.02369631 -0.00029075696 -0.041042928 0.021098576 0.0058632293 0.013600556 0.005356207 -0.00042155036 -0.004211902 -0.011553007 -0.01676853 -0.013784259 0.010772988 0.036773983 0.0095760515 0.012182689 -0.02247394 -0.012236514 0.027294843 0.0041951365 -0.018183123 -0.01677307 -0.03785397 -0.0066829454 0.00037905906 -0.0017457028 -0.005900115 0.020836247 -0.0050609624 -0.019131085 -0.0017878262 0.010608756 0.020963803 -0.0032422221 -0.011557676 -0.007720514 -0.0018869378 -0.012460415 0.002615234 0.0083108535 0.006153588 -0.02746468 0.011407165 0.010961215 -0.0029057518 -0.009168103 -0.001874351 -0.036702964 0.0033373698 -0.00343889 0.006054579 -0.015229866 0.033090603 -0.008528935 -0.0015253128 0.023706984 0.00066006277 0.01720459 0.0005275163 0.0016063077 -0.0005557409 -0.027882863 0.012171878 -0.008938957 -0.011618467 -0.022054093 0.028529914 -0.01293175 -0.003938572 0.004626209 0.022725573 0.022802453 -0.0029848157 0.021512043 0.014888917 -0.00150262 -0.0012907311 0.02455072 0.016102156 0.0040953755 -0.04036909 0.016865207 0.005856919
대하 -0.020974625 0.013720813 0.0032231575 -0.0070714117 0.020069445 -0.043738212 0.0020094851 0.059245735 -0.037987843 -0.00981222 -0.019120645 -0.042480852 -0.0012432324 0.017606044 0.013406192 -0.034302875 0.016585002 -0.04124593 -0.011600052 -0.064765975 0.015891641 0.01031553 0.009433231 -0.0043969974 0.0052897017 0.0117654065 -0.015079001 -0.015618011 -0.022075823 0.010063177 0.034972567 0.011624844 -0.0057482827 -0.022650847 -0.0011993782 0.033707548 0.0018290159 -0.03239276 -0.009316547 -0.045503084 -0.005507654 -0.016534712 0.0005060088 0.007178523 0.026057124 -0.012374555 -0.031215325 0.01665924 0.01207841 0.0114256935 0.011820927 -0.01771823 -0.00798931 0.002995556 -0.026932841 0.0047657182 0.022966012 0.016264148 -0.021909246 0.0074554253 0.012502155 0.0015745156 -0.0066748587 0.001588347 -0.043681614 0.016540125 0.004113656 0.019730426 -0.046567302 0.044295147 -0.01766404 0.02183186 0.02032559 -0.010903357 0.018717727 0.008542119 0.008388988 0.0031905042 -0.028824303 0.018487127 -0.022751486 -0.0077959923 -0.030069754 0.03723692 -0.00857919 0.012947475 -0.005028353 0.042181145 0.04443395 0.004708566 0.032914303 0.02162024 0.009981693 0.012332393 0.04837475 0.038117226 0.024364458 -0.052858196 0.0068506463 -0.003579418
산업 -0.012709572 0.02206252 0.006450078 0.005925962 0.005116554 -0.0393958 0.015534686 0.05452215 -0.01803626 -0.00590297 -0.013022322 -0.04277948 -0.0035935359 -0.0013420818 0.0049188556 -0.0327231 0.007455136 -0.034565616 0.0046412745 -0.0536641 0.026028795 -0.00189272 0.005844755 -0.0027485413 -0.0067655933 0.004241406 -0.016038323 -0.023323245 -0.026338607 -0.0012210996 0.041151494 0.0067833667 0.010015121 -0.024835747 -0.0043354835 0.021142453 0.007916328 -0.01537436 -0.01867695 -0.037431322 -0.0015121703 -0.022050876 -0.0066889874 0.006014805 0.012805327 -0.02181104 -0.008476582 0.0072466605 0.012552905 0.01742913 0.0048611914 -0.013777181 0.0012841648 0.009179161 -0.024777086 0.0112829385 0.020300724 0.00048645795 -0.036195714 0.015455899 0.01635613 0.004031553 -0.0040276526 -0.00741933 -0.04130568 0.012750296 0.0024847018 0.022089392 -0.03098216 0.02463019 -0.015922459 0.0065407734 0.029183188 -0.0062374664 0.028859356 0.014591536 -7.253975e-05 0.0060541057 -0.022200331 0.007707891 -0.015612042 -0.008298116 -0.022949599 0.0339071 -0.015801048 -0.0026102634 0.0009857593 0.029244281 0.039832015 -0.0012261275 0.029725365 0.014951257 0.011164531 0.0054716356 0.047606196 0.03157256 0.008239847 -0.041097324 0.0037895397 -0.010179446
환경 -0.016617566 0.010538573 0.014768031 0.00014686763 0.008654343 -0.045962386 -0.0012811928 0.04350823 -0.015458574 -0.012241025 -0.008283275 -0.03932203 0.004468834 0.013040173 0.008102193 -0.027721731 0.009267356 -0.030132163 0.0041218437 -0.045510385 0.016915223 0.011203805 0.0154598495 -0.012810754 0.0060076937 0.004582457 -0.018017765 -0.013157903 -0.02172938 0.019544443 0.035031375 0.012375919 0.0050680563 -0.022369212 -0.012590513 0.041080642 0.0023296017 -0.027527122 -0.01279607 -0.04765557 0.004420879 -0.019892715 -0.0007592893 0.0045953426 0.029937541 -0.0067080366 -0.023069974 0.009512285 0.012051914 0.0046868124 0.017878301 -0.0056814887 0.00838498 -0.005532719 -0.030124197 0.014986636 0.0052773105 0.01622509 -0.025106277 0.011889792 0.015790232 0.008404109 -0.012018013 -0.0072806543 -0.027509946 0.0071022487 0.006374668 0.013827957 -0.029198246 0.039476287 -0.020123579 0.015747018 0.020084849 -0.0021855074 0.03062405 0.017258959 -0.00090485223 -0.006239582 -0.01761679 0.022821695 -0.0059553534 -0.00979356 -0.020467611 0.023926932 -0.008572244 0.0067926403 -0.00992331 0.023691846 0.04405861 0.012132363 0.03712445 0.014450045 -0.00070863846 -0.0043863063 0.041044552 0.019430535 0.00903078 -0.037995167 0.00895471 -0.013838925
대 -0.0043590297 0.0062152483 -0.0034002464 -0.0035718945 0.009098258 -0.033269588 -0.0009135349 0.048144776 -0.009155365 -0.015461971 0.00028466567 -0.018621989 -0.013806973 0.0054328577 0.01089093 -0.01140217 0.0023421433 -0.02770946 0.0029791822 -0.04740696 0.0056662164 0.0044774585 0.014184127 -0.010367013 0.0019936522 0.0025767167 -0.0063797184 -0.009939409 -0.013872438 0.016314855 0.027210822 -0.0043000397 0.011693808 -0.018213237 -0.0019028409 0.020441743 -0.0084110815 -0.021537233 -0.004768432 -0.03637118 0.0039252006 -0.018480944 -0.012048125 -0.0030995226 0.02485264 -0.017832218 -0.008672222 0.0034182176 0.0095748175 0.019683614 0.002365364 -0.019666597 0.0002854204 0.006355889 -0.007557282 0.0029456194 0.012973814 0.010688981 -0.027313408 0.011297241 0.0010782935 0.009208298 -0.0030109014 -0.0010960823 -0.033869054 0.014118565 0.013103112 0.021842064 -0.035901062 0.032195747 -0.0063211713 0.0064233947 0.028049732 -0.008551371 0.014237469 0.0035793486 -0.0013646702 -0.00112077 -0.02309882 0.0035426742 -0.0016505312 -0.0107752085 -0.019810209 0.030424878 0.006915656 0.007311351 -0.0017790359 0.02418545 0.0256497 0.009556984 0.01642354 0.0100888405 0.0095219 0.0015149211 0.030888904 0.025378367 0.021786261 -0.028259754 0.019499214 -0.009669371
조성 -0.007978284 0.014246196 -0.0004216502 -0.00072384585 0.0030181801 -0.039880116 0.010336536 0.05773365 -0.027416455 -0.019379549 -0.015471173 -0.022989674 -0.017030297 0.016665643 0.0062328163 -0.018746093 0.004875328 -0.031211246 0.0013982443 -0.037271544 0.006879086 0.0057872566 0.009719053 -3.169158e-05 0.003762031 -0.001841514 -0.0032485332 -0.026470456 -0.020922739 0.019339351 0.03654452 -0.005000975 0.0016421031 -0.025759596 -0.0077326493 0.034742266 -0.007203339 -0.013642226 -0.0036980999 -0.046089564 -0.006832352 -0.013171088 -0.010469128 0.006205322 0.028885106 -0.008885347 -0.018754542 0.0089016175 0.0034298159 0.011276926 0.0063388227 -0.004560805 -0.0064675407 -0.0093021365 -0.0158336 0.011919305 0.0040246034 0.0004917282 -0.02534812 0.0013674828 -0.001284461 0.0030303516 -0.012415195 0.00073706073 -0.031952575 0.014967785 0.0076750107 0.011112469 -0.026082901 0.030224465 -0.0073548555 0.009197389 0.011488776 -0.0037122294 0.029435685 0.006462222 -0.0017655544 -0.0040325103 -0.013874991 0.010300269 -0.0012764661 -0.012952317 -0.0061403434 0.01590921 0.0054375664 0.0034855863 0.0015011865 0.02077215 0.03957905 0.008955365 0.020429365 0.0010307906 0.012451029 -0.0024800561 0.02577473 0.028241294 0.008361428 -0.042352095 0.021287864 -0.004513974
어 -0.016511932 0.016339969 -0.00072682445 -0.008168503 0.004051677 -0.05012324 -0.0007658914 0.06998891 -0.016579157 -0.014449969 -0.01042311 -0.047470022 0.0011976877 0.020370148 0.010703231 -0.033111818 0.0038649763 -0.024608908 -0.007945252 -0.049099144 0.028003326 0.01553108 0.004795711 0.0014915172 -0.0068307957 -0.0025109663 -0.004980241 -0.03397628 -0.021926947 0.0076740384 0.02878181 0.005892403 0.0093899695 -0.026916288 -0.017677782 0.04281969 -0.003152161 -0.03456855 -0.01387687 -0.0498675 0.013236016 -0.012360158 0.002762584 -0.0072454754 0.031022357 -0.004114751 -0.01909167 0.0026293637 0.015507966 0.01471708 -0.00052787684 -0.025785815 -0.0016182566 -0.0048450874 -0.012841798 0.006912651 0.022766199 0.010982746 -0.019225953 -0.00453378 0.01334913 0.0065957136 -0.008071292 -0.0066064517 -0.051208712 0.027644238 0.0042043463 0.021865288 -0.04608261 0.041760046 -0.0037324808 0.00970785 0.032148033 -0.0050632483 0.033911336 0.026755573 0.004986156 -0.005663958 -0.040115304 0.025981415 -0.015096471 -0.0038041552 -0.023357388 0.041980315 0.004175682 0.0061651026 0.0010609383 0.039951973 0.03987998 0.010960813 0.03128903 0.010658785 0.0137467515 -0.0013109085 0.039260637 0.042945858 0.006935232 -0.047868334 0.008126273 0.003516392
차 -0.0059324303 0.01259445 0.0121519305 -0.0021468832 -0.00019115674 -0.042117015 0.0052817757 0.047602065 -0.024036625 -0.015287178 -0.006814897 -0.022740526 -0.00802465 0.0118306745 0.006282544 -0.023039313 -0.0006600001 -0.024753703 0.0008197604 -0.042089134 0.02273944 0.011274312 0.015972394 -0.013295231 -0.0043423534 -0.0023264391 -0.0047383485 -0.013514221 -0.02476857 0.011263503 0.040259145 0.007858201 0.0026009579 -0.023772823 0.0010947547 0.023575814 -0.0058008055 -0.026395617 -0.019445617 -0.04921372 -0.006183157 -0.010871848 -0.011286681 0.0006751073 0.027289258 -0.00683637 -0.01663946 0.001771217 0.023239577 0.014293565 0.01371023 -0.006787783 -0.011330281 -0.012650136 -0.010733573 0.011940605 0.010447387 0.012095049 -0.031403534 -0.0015843493 0.0012578882 0.015525214 -0.011024561 -0.015390474 -0.043215852 0.02060406 0.00412058 0.009520913 -0.034122273 0.030482838 -0.01996087 0.008471842 0.027320001 -0.003642606 0.017132875 0.015434943 0.009239405 -0.011053797 -0.0324621 0.018468251 -0.01941542 -0.0057644546 -0.027798876 0.037517678 -0.008740872 -0.0034241837 -0.004657906 0.027574984 0.04170753 0.013575771 0.02824173 0.014297537 0.011982162 0.0035581347 0.032222256 0.026534026 0.019036928 -0.03011846 0.006626144 -0.013745682
공사 -0.006154827 0.029219681 -0.0030717428 -0.0019273479 0.0022447363 -0.02912649 0.018745046 0.048653852 -0.01615135 -0.0016733648 -0.0066942186 -0.039658755 -0.0031344453 0.0065473123 0.003880598 -0.015139315 0.00591178 -0.014758465 -0.0032467812 -0.044039056 0.011497558 -0.0017463486 -0.0018047076 0.0005086172 -0.01037384 0.005602182 -0.0073643387 -0.02771846 -0.022491155 0.0034899742 0.021969475 0.0050259987 0.012763839 -0.023359539 -0.012304149 0.038363766 0.009328629 -0.008788935 -0.021903848 -0.037216235 -0.0037595027 -0.0039424845 -0.0016714386 -0.00020579042 0.027023595 -0.01865653 -0.012659464 0.011207586 0.01734906 0.0199854 0.0042731627 -0.010292525 -0.0071075554 -0.00960672 -0.016229847 -0.0022076757 0.012195455 0.00828 -0.016436044 -0.002596291 0.0048119444 0.0030036885 -0.014165765 -0.008449899 -0.028985368 0.0075754877 0.0057497774 0.02641522 -0.031667195 0.026552144 -0.005139071 0.012116998 0.022127528 0.0049424935 0.028349472 0.015860885 0.0073483214 -0.0038854547 -0.014564257 0.015962042 -0.017428461 -0.011563643 -0.016726341 0.018848984 -0.00096315856 -0.0067454367 -0.0035814529 0.030551659 0.034048773 0.006698345 0.016168356 0.015145663 0.012560497 0.007938961 0.043623585 0.027497916 0.022465229 -0.026732108 0.0111021735 -0.0034195615
의원 -0.008767467 0.00849992 0.010952172 -0.006596992 0.0058392705 -0.037205957 0.014990972 0.04752897 -0.021436336 -0.012314621 -0.013913483 -0.03082735 -0.011187994 0.003515454 0.0063580144 -0.01449862 0.008782082 -0.016167995 -0.0019240376 -0.044590466 0.00566731 0.012909564 0.018324723 -0.012081825 0.00070275925 0.013555926 -0.017019171 -0.020796109 -0.026377989 0.012300969 0.027052123 0.007054031 0.012884195 -0.023358729 -0.016741648 0.02855792 -0.009540856 -0.027516527 -0.019451076 -0.03918168 0.0021691597 -0.008865318 -0.007299801 0.012687154 0.02784105 -0.016765025 -0.00649854 -0.0050976486 0.007788163 0.015208487 0.0071977135 -0.017820194 -0.00030994057 -0.0013692565 -0.028155243 0.0027955044 0.0032106482 0.00940167 -0.022722753 -0.0038834515 0.012504407 0.007529682 -0.005668085 0.00037637324 -0.036379445 0.020394439 -0.0016914809 0.010320681 -0.035018437 0.02772475 -0.02230901 0.01939572 0.025944265 -0.010482039 0.024877563 0.018362029 -0.0036102433 0.0030288866 -0.02947958 0.019402271 -0.004862474 -0.0042469404 -0.024598751 0.023513965 -0.0049425787 0.00252894 0.007869046 0.021560356 0.0199568 -0.008204482 0.022812836 0.010659867 0.0044802334 0.00042497693 0.042483717 0.023747133 0.020120421 -0.02921328 0.002062498 -0.0041605956
씨 -0.018002348 0.007236328 0.00021164247 0.004832926 0.006105662 -0.018560348 0.0029103812 0.03202593 -0.011622506 -0.0045374623 -0.010058221 -0.026792452 -0.010511038 0.010409916 -0.0025485596 -0.024793005 -0.004420281 -0.009656496 0.001490582 -0.026773917 0.020864295 -0.0012704327 0.011101075 -0.00068775495 0.0036149102 -0.0012641745 0.0011272116 -0.021701619 -0.0058769295 0.014625915 0.024325266 0.009340576 0.009707347 -0.009805013 0.0024955375 0.024613636 -0.0023812272 -0.007108958 -0.0029874463 -0.03516635 0.003814161 -0.008075924 0.00012621304 -0.003430804 0.010254206 -0.009795963 -0.009478954 -0.0019875653 0.016525077 0.0065152273 0.011494969 -0.0079639945 0.006114535 -0.005763669 -0.018072192 0.009283537 0.006981863 0.011197866 -0.02548082 0.00670152 0.005998795 0.0041612447 -0.0041199042 -0.0067052385 -0.030779498 0.0010353373 0.008437466 0.016997274 -0.028095393 0.03336546 -0.007226475 0.0017895835 0.015032372 0.000103752274 0.0077320663 0.011722086 0.009863241 0.0046459753 -0.011650506 0.012224147 -0.011071336 -0.010095838 -0.002457729 0.012790954 -0.0054581193 -0.00082882395 0.0051260404 0.014513443 0.028861234 0.003611196 0.015659256 -0.0011208863 -0.0035423215 0.006442102 0.016968857 0.02535834 0.0078090676 -0.037071593 0.0026068727 0.0060323314
활동 -0.012283049 0.022181535 -0.0055507957 -0.011878895 0.002068959 -0.031159772 -0.0013220941 0.031297263 -0.02831642 -0.009574918 -0.0008026246 -0.034691382 -0.011265619 0.0077340095 0.009459833 -0.027834946 0.014932588 -0.030564845 0.0022246253 -0.02782486 0.01849783 0.01358814 0.017484223 -0.0006592296 -0.011876762 0.007600179 -0.018653614 -0.022145305 -0.008358765 0.00024153834 0.021005217 -0.00046481026 0.006432492 -0.008223527 -0.003917602 0.031446442 -0.0026318857 -0.010969788 -0.017456563 -0.0363673 -0.0055130655 -0.009591954 -0.0016353873 0.008313196 0.011914435 -0.0069873864 -0.0067957216 -0.0010516864 0.0056113433 0.010842351 0.0013901884 -0.0041862847 0.006995591 0.008526777 -0.0070553552 -0.0013692144 0.009876993 -0.0031928632 -0.0265836 -0.0061225947 0.011474261 0.0063050897 -0.014744739 0.0027230904 -0.026909474 0.012038503 0.0025391462 0.010274973 -0.028333306 0.034252614 -0.009450588 0.0033499403 0.023783565 -0.0021865878 0.013617629 0.019416953 -0.0008166646 0.0060842275 -0.023468303 0.002271434 -0.0133311115 -0.008026189 -0.015422047 0.020680312 0.0022253357 0.009087421 -0.0035169008 0.02660598 0.02417103 0.0040611476 0.020499965 0.0068350844 6.242288e-06 -0.00041114292 0.029778598 0.024062548 0.002709789 -0.023985986 0.008083784 -0.0070042014
안전 -0.016792772 0.014078197 -0.0007755519 -0.012896595 0.0064772684 -0.04298726 0.0016576897 0.039123144 -0.010209732 -0.011070867 -0.019671425 -0.023985775 -0.013872906 0.0057221376 0.0092681395 -0.026927061 -0.0025719777 -0.029845748 0.004446911 -0.033262454 0.018075833 0.009619117 0.013453329 -0.009779068 0.0063376874 0.010040928 -0.005940638 -0.010191114 -0.026177404 0.0096249655 0.04032868 0.003432688 -0.0047990545 -0.016980752 -0.01033149 0.024471838 -0.001305357 -0.011516789 -0.01219042 -0.035245705 -0.00085948675 -0.0014294637 -0.0140056405 -0.006904735 0.015398325 -0.01753742 -0.020823894 0.004831565 0.01222742 0.014512327 0.011699252 -0.014949598 0.0006396906 -0.0011026053 -0.010359611 0.015740367 0.010303601 0.007602752 -0.029006071 0.00048373168 0.0021663473 0.006900272 -0.012647245 -0.011763575 -0.030082138 0.015192523 -0.003409469 0.016401289 -0.0240736 0.033320513 -0.017317403 0.01863579 0.030153876 -0.003900641 0.018753711 0.0019205457 -0.0018454202 -0.0013604843 -0.01848968 0.010494722 -0.018269101 0.00086064363 -0.023921078 0.03375219 0.001850016 -0.00451916 0.0013197892 0.034328874 0.024265043 -0.004292204 0.03455587 0.012137006 0.015745454 -0.0065765562 0.03176177 0.031498276 0.013577852 -0.0361327 0.003251054 -0.009411722
않 -0.017448902 0.02482609 0.002313985 -0.012073348 0.015379883 -0.034493905 0.004957146 0.041285567 -0.014408756 -0.013809495 -0.010599592 -0.029806897 0.0038486174 0.013889634 0.0069049196 -0.024987107 0.00901004 -0.019766072 -0.009014829 -0.04393649 0.010241839 0.00825781 -0.00086321874 -0.008264149 0.0059566437 -0.00056459877 -0.0012825234 -0.016239887 -0.02215134 0.0025958072 0.027290907 0.0084801745 -0.0035703452 -0.019747864 -0.01343934 0.031392235 -0.0030115074 -0.011575402 -0.011702643 -0.042471714 0.0011751341 -0.008954674 -0.0025371758 -0.007231409 0.009722086 -0.016412277 -0.010524106 0.00068920164 0.011184605 0.015327912 0.01054644 -0.010275643 -0.0032740387 -0.00022787922 -0.021561695 8.8063214e-05 0.01971098 0.0014052363 -0.030533412 0.008463551 0.015484115 0.00588809 -0.005056666 -0.009198283 -0.032830138 0.002039409 -0.0028066046 0.0035014458 -0.031523127 0.034738295 -0.0028029329 0.007073371 0.018428765 0.0041973703 0.017183961 0.0049969936 0.0056253984 0.00026968223 -0.023451421 0.004810323 0.001658682 0.0036268553 -0.023488933 0.016506035 -0.0023262156 0.0037168092 -0.0096510155 0.033457845 0.02155303 0.0070266277 0.03284491 0.010306261 0.009218747 4.169861e-05 0.020059437 0.022567663 0.011467379 -0.04125109 0.01686257 -0.010562451
남도 -0.006042915 0.010002809 -0.005593229 -0.010713816 0.016190747 -0.03760902 0.011943523 0.04009378 -0.0073818145 0.00029530108 -0.00074710924 -0.018049574 -0.014180144 -0.0041195704 6.6206434e-05 -0.018231735 0.012012265 -0.01645733 -0.004441948 -0.03148439 0.00938681 -0.0011597021 0.013797573 -0.013784524 -0.00045824423 -0.0027625898 -0.00257967 -0.020973375 -0.01388484 -0.00069284916 0.03758337 -0.0003410151 0.0053847427 -0.011208385 0.0037182346 0.017634746 -0.005179177 -0.02319256 -0.0029387984 -0.040308204 0.009750856 -0.010516993 0.0017633664 -0.00515369 0.015441613 -0.010218872 -0.021729853 0.013919381 0.005648613 0.01731379 0.0074495072 -0.007623004 0.0020082423 0.007475855 -0.024784522 0.015257339 0.017480548 0.0055294703 -0.016929924 0.008566365 0.010534093 0.0029054189 -0.0048421007 -0.005317773 -0.023050517 0.021622239 -0.0013768418 0.012305426 -0.034442075 0.022648603 -0.022697987 0.01120209 0.015432999 -0.0046047326 0.022254076 0.0027213038 0.005514992 -0.0027074593 -0.024187716 0.002047089 -0.017333085 0.0045969114 -0.019640563 0.027426202 -0.010166071 -0.00037088126 0.0022901243 0.012581021 0.019617967 -0.0074433265 0.012183456 0.004063 0.0011142449 0.002554611 0.031240439 0.012131683 0.007147668 -0.032023508 0.0018657332 -0.00897585
지난해 -0.01604466 0.01254315 -0.0038069906 -0.011159183 0.012839568 -0.048053585 0.002127845 0.062430147 -0.013517853 -0.0178585 -0.0053072073 -0.040052146 -0.0060888156 0.015779976 0.0062977797 -0.013304563 0.006305209 -0.021519002 0.0032858332 -0.05675976 0.0088441735 0.0009629328 0.008258493 -0.01180568 -0.003557968 -0.004265014 -0.012206334 -0.02063654 -0.012967454 0.0011339829 0.030263204 0.010880873 0.012618474 -0.01776294 -0.007106864 0.02356995 0.0018754823 -0.029506804 -0.02004686 -0.04179232 0.0028111693 -0.0049277022 -0.017435621 0.004794093 0.02221299 -0.016889777 -0.017209899 0.01095219 0.005304479 0.0146346055 0.01211829 -0.013311139 0.0011428696 0.006757323 -0.012404668 0.011734753 0.022009067 -0.0002439383 -0.017693121 0.009364563 0.002661892 0.001809793 -0.0027944506 -0.0013051708 -0.046802867 0.016012806 0.007778043 0.01694725 -0.02526817 0.026857937 -0.0059700315 -0.0017866461 0.02805455 0.00495475 0.016618276 0.0027812135 0.011130636 -0.010455601 -0.034701895 0.010919051 -0.018269738 0.0033410504 -0.009452587 0.029759018 0.0041053826 0.013994604 0.0034575076 0.034564223 0.040246386 0.009054555 0.03387274 0.017048812 -0.00065758923 0.014071988 0.047464065 0.03659416 0.006742175 -0.04151807 0.010826042 -0.00037028786
주 -0.019746803 0.016361332 0.009512132 0.007119131 0.0049811453 -0.031845253 0.012755152 0.042555306 -0.01645381 -0.017745012 -0.010059317 -0.022442956 -0.00066501886 -0.0028695308 0.0007283809 -0.015621861 0.0079996465 -0.027042635 0.0023198498 -0.036480833 0.0048740385 0.016627096 0.00073491596 -0.008033108 0.007281452 0.003816964 -0.015789825 -0.016462676 -0.021213124 0.0019363295 0.021563161 0.009711172 -0.006786217 -0.010382669 -0.01207439 0.03103099 -0.0054599405 -0.023477053 -0.0036483037 -0.046569254 0.0042698733 -0.012006358 -0.013768193 -0.006272056 0.02457078 -0.015173143 -0.010006775 -0.005799958 0.012437186 0.010027997 0.0011601605 -0.016111532 -0.009763077 -0.005223833 -0.020079216 0.0054570246 0.0059189876 -0.0030542929 -0.01718463 0.0032358186 0.014153426 0.008645695 0.00063361536 -0.009168432 -0.04021131 0.013623517 -0.0026039025 0.020059584 -0.018346975 0.028714418 -0.005252164 0.017631475 0.023093984 0.0013258612 0.026065527 0.012150387 -0.0047084345 -0.009324252 -0.023382798 0.009457542 -0.00064250873 -0.013818603 -0.018246433 0.033821285 -0.0055145184 -0.0065926793 0.00036697532 0.01834284 0.022796035 -0.003869382 0.024086922 0.016610377 0.009390365 0.011459183 0.041702647 0.027790615 0.0072499234 -0.024774022 -0.00018050062 -0.0078049214
만원 -0.003958167 0.024936615 -0.0012298747 -0.010399976 0.016325612 -0.037898 0.0022192392 0.0517662 -0.011510077 -0.005689774 -0.011202071 -0.019359497 0.0018532221 0.014394582 0.01630202 -0.024890468 0.0075997096 -0.024441356 0.004875023 -0.031156007 0.018127743 0.011038593 0.014782932 0.0019575192 -0.003955891 -0.004659124 -0.013087364 -0.008910621 -0.022522574 0.009848515 0.03379597 -0.0025033893 0.009900809 -0.013018772 -0.0041741165 0.034463 0.0008438275 -0.015708895 -0.019348472 -0.026562324 -0.008271945 -0.0015991348 -0.0014470093 0.0021382524 0.008481566 -0.0012637224 -0.016495926 0.01070509 0.0070191026 0.00787512 0.006206233 -0.022629647 -0.008117645 -0.010604239 -0.010947765 0.0081423065 0.010628181 0.011770343 -0.024680404 -0.003441588 0.010000851 0.0010493106 -0.008103715 0.0038503057 -0.031258687 0.018611833 0.010648412 0.011156819 -0.032255758 0.038028758 -0.010013776 0.009170783 0.019369554 -0.010565508 0.021315617 0.008025927 0.0076407064 -0.0052416846 -0.022018049 0.013567502 -0.017261088 -0.0071884464 -0.023049846 0.025943082 -0.0013843178 0.004620526 0.00084121455 0.026675161 0.030957485 0.0016171221 0.030954404 0.007467129 -0.0009369225 -0.00123377 0.022293614 0.015234905 0.015301046 -0.028035074 0.005002326 -0.0134243565
개발 -0.017409662 0.0197453 -0.0058266274 0.003885688 0.013314613 -0.023935497 -0.001399487 0.044846795 -0.023106854 0.0008713803 -0.014311801 -0.02982065 -0.0010245224 0.0055769137 0.011088695 -0.023150915 0.012410265 -0.03230874 0.0038337177 -0.039310314 0.0059876535 0.006663046 0.007157336 -0.0040474418 -0.0056666397 -0.007050084 -0.01772896 -0.024563812 -0.025868572 0.002876472 0.036905184 0.002253498 -0.0056900377 -0.020305876 -0.002212998 0.021171318 -0.00088214315 -0.02206419 -0.0028730936 -0.04365068 -0.005595865 -0.0011349311 -0.01309085 0.0044776024 0.01847933 0.0020092325 -0.009148834 0.0071025975 0.011521516 0.0144609865 0.008870352 -0.015716685 0.0033298177 0.0047095786 -0.0063505624 0.0068917153 0.010094673 0.011368382 -0.029086435 0.0029563012 -0.0013750566 0.011335895 -0.017128766 -0.0013371921 -0.019497095 0.0094082765 -0.0040288377 0.0047303163 -0.022523956 0.020306313 -0.005029181 0.0062641096 0.02688056 -0.005690714 0.010295509 0.0038270312 0.0038780235 -0.005777041 -0.013682154 0.00487151 -0.0153467655 -0.00262664 -0.018224327 0.015147518 -0.009239914 0.00059690705 -0.00052548555 0.026749989 0.033116292 0.009289357 0.027595311 0.00960382 -0.0009537378 0.012661367 0.029454995 0.02631645 0.011157348 -0.024049878 0.015042739 -0.011191903
광주시 -0.016353326 0.018482389 0.0064141997 -0.01136471 0.013540038 -0.034546796 0.0068728332 0.045029663 -0.028961923 -0.0018780036 -0.02138658 -0.0394868 -0.0028201398 -0.0009594973 0.003482136 -0.023917805 0.005672297 -0.03233146 0.0012128269 -0.044031665 0.017668778 0.005554211 0.016708834 -0.014660554 0.0011211898 -0.0010241914 -0.010402629 -0.027673768 -0.02122907 0.0026919434 0.02907278 0.01414382 0.0049774135 -0.013344405 -0.013789633 0.033660114 -0.0079682665 -0.02209199 -0.017315593 -0.04817885 0.006240168 -0.014069624 -0.004343893 0.0063523683 0.013591003 -0.01246074 -0.01915573 -0.0057671005 0.0011461972 0.014080645 0.011989608 -0.015514576 -0.006175623 0.0020390798 -0.017963396 -0.0013521484 0.020406265 0.0144672915 -0.032646466 0.0041843047 0.014914212 0.0044214735 -0.009308655 -0.011017045 -0.0271627 0.020968096 0.008349418 0.0105443755 -0.032574132 0.02710668 -0.02402813 0.017699994 0.021510676 -0.0050258324 0.027770149 0.003394858 0.010499447 -0.0092827 -0.029383296 0.015469566 -0.014874748 -0.007836067 -0.0234971 0.023798423 -0.006822449 -0.0021314435 0.009291911 0.038094126 0.03160468 0.0018616122 0.021077944 0.019472169 -0.00019852002 0.010543188 0.045109887 0.030703744 0.014011399 -0.029682385 0.018585712 -0.0074281255
참여 -0.00829797 0.020499809 0.009877637 -0.0025385565 0.0087737935 -0.035095196 -0.0047496236 0.0312556 -0.022831239 -0.0065291487 -0.012901793 -0.023100153 0.0034481536 0.016285636 0.013560672 -0.014335903 0.0019355512 -0.015919121 -0.006100337 -0.04267144 0.017863618 -0.0030270356 0.011939406 -0.008470433 -0.008049241 0.00024166657 -0.014367315 -0.005851481 -0.021361576 -0.0016182363 0.030324869 0.0074154865 0.0059866654 -0.009227091 -0.010268531 0.01777408 0.0010642871 -0.0060549714 -0.01489204 -0.034021422 0.0051116506 -0.0015707382 -0.012318538 -0.0015209436 0.011952561 -0.0060312715 -0.0071314317 0.009693346 -0.0010429958 0.017383961 0.003046935 -0.014788374 -0.009159639 -0.0070702746 -0.0060080187 0.009658369 0.0012332047 0.0067323055 -0.025458332 -0.00617925 0.010460208 0.007914989 -0.005620722 0.0029909497 -0.018426916 0.005252468 0.009290156 0.0143923005 -0.020016827 0.03056354 -0.018737689 0.005172607 0.017781984 0.0034976832 0.0128817605 0.018201096 -0.002184006 -0.010872354 -0.025152704 0.003987753 0.0024927754 -0.010605502 -0.018023284 0.028317235 -0.011092511 0.0050908364 0.0036820893 0.012211617 0.022822196 -0.00014670995 0.024311302 0.004647219 -0.0029033332 0.012535793 0.02266322 0.026825035 0.0021126007 -0.019596053 0.0053390115 -0.01157239
일자리 -0.009152874 0.010866516 0.0007076727 -0.002122042 -0.0016206652 -0.028377732 0.0031259183 0.040060442 -0.0068067363 -0.009013389 -0.013131401 -0.015285778 -0.014963367 0.0047619166 0.008894124 -0.017470501 -5.830921e-05 -0.026962882 -0.0101914285 -0.02365344 0.013750553 0.005610965 0.01753634 -0.011087235 -0.0025233207 -0.0006188521 -0.016844545 -0.02426334 -0.0047732857 0.0012617963 0.013830317 0.01142606 -0.0051315487 -0.015078271 -0.0037918019 0.017015416 -0.008313325 -0.018207762 -0.018563475 -0.026470786 -0.0015100979 -0.00849736 -0.0030347998 -0.0005486493 0.02332548 -0.001048221 -0.011951473 0.0019299937 0.007918241 0.016945958 0.014745191 -0.011758466 -0.0009262344 -0.002560015 -0.011147642 -0.001410519 0.006614187 -0.0048104995 -0.01521429 0.0038864303 0.0097675305 0.0020394817 0.0011199058 -0.012391235 -0.012187716 0.00965176 0.007196313 0.015357483 -0.021336589 0.024028359 -0.007344572 -0.003536639 0.0116295535 -0.0054942365 0.0038176565 0.011653728 0.007171144 -0.0027697415 -0.007924534 0.0063738897 -0.008117461 0.0024311852 -0.021216061 0.012064651 0.0054450408 -0.005634615 0.007859733 0.024196185 0.011369712 0.0110607445 0.024702301 0.001410665 -0.006119185 -0.0061419713 0.029453563 0.024999887 0.007637038 -0.022517318 0.00012328138 -0.009012073
관광 -0.0066149393 0.006738334 -0.005846704 -0.00081895344 -0.0018001017 -0.040336963 0.011253813 0.050920837 -0.027012788 0.00017804535 -0.0014306972 -0.022230513 -0.008634751 0.017485313 -0.0020446773 -0.023786379 0.008490339 -0.029364856 -0.013630809 -0.037098534 0.021464908 0.0014410848 0.0039046705 8.271372e-05 -0.0023535595 -0.006059633 -0.0028981718 -0.021079356 -0.013847145 0.011617095 0.037984706 0.013076517 0.008069613 -0.022541642 -0.0054744836 0.025118304 0.00047741254 -0.008941671 -0.0055917474 -0.04681899 0.012978886 -0.011098609 -0.0062980754 0.0071724323 0.011730356 -0.010167466 -0.013561671 0.011168948 0.01468251 0.009213395 -0.0024037552 -0.017735025 0.008922912 -0.01189467 -0.0074730203 0.0063408217 0.009669486 0.015748477 -0.011353853 0.01380866 0.017036382 -0.0049511883 0.0005909567 -0.015896697 -0.038200855 0.004079889 0.00882797 0.021284914 -0.033376276 0.02472296 -0.015300601 0.0038395023 0.018049775 0.0010336076 0.020276468 0.007570492 -0.00010052319 -0.0038498507 -0.024805864 0.013901964 9.176212e-06 0.0028306937 -0.023772052 0.016923461 -0.012471625 -0.0031457238 0.0024889042 0.017269311 0.02954821 0.011725321 0.027221495 0.01128514 0.014687803 0.009475924 0.030110812 0.016288366 0.012870796 -0.023634534 0.017201677 -0.007326416
기관 0.00024609437 0.018684348 0.009700292 -0.0072404514 0.012717495 -0.032366946 -0.0040032486 0.04770049 -0.028134305 -0.014715326 -0.006442701 -0.01595529 -0.007682395 0.015282882 0.011526221 -0.014663309 -0.000610355 -0.01623617 -0.011739117 -0.043976165 0.01811473 -0.0025087437 0.014048063 -0.007861633 -0.003425006 -0.0047222143 -0.016134586 -0.019876448 -0.0071065915 0.014148786 0.017550517 -0.0026716501 0.0053254724 -0.022365784 0.00052436057 0.031512536 -0.010459721 -0.007816319 -0.0021944053 -0.03757697 0.004302544 -0.0160427 -0.001299016 0.010307265 0.021289164 -0.018355152 -0.009703744 0.0008240977 0.0078645935 0.017917043 0.009201048 -0.008165852 -0.007790843 0.0042876634 -0.019526994 0.0070950384 0.016572466 0.010317887 -0.013616027 -0.00084861886 0.010921126 0.0139109 -0.010885017 -0.00057072734 -0.039928682 0.020504493 0.009727261 0.01957497 -0.019943899 0.031760104 -0.016615294 0.002766017 0.015876826 -0.0027995561 0.012408939 0.0012429453 -0.003373869 0.00740373 -0.010602204 0.016780756 -0.014140623 -0.0038887323 -0.023979962 0.030968543 -0.0033814944 0.011760828 -0.0074218083 0.020281311 0.030815229 0.0068922676 0.014807042 0.0019523215 0.0073656947 -0.0047256094 0.036930222 0.029130375 0.008767668 -0.036190175 0.0012868927 -0.0053850277
경제 -0.0019044891 0.012684925 -0.0059308363 0.0077592595 -0.0027077124 -0.021561151 0.011648453 0.036729656 -0.02494369 -0.0013238597 -0.018410627 -0.028766876 0.0053744907 -0.0024120435 -0.003667281 -0.021334622 0.009664987 -0.017180435 -0.007982491 -0.036367092 0.019640453 0.016028134 0.017663978 -0.0032021329 0.0012395866 0.0047685476 -0.007285213 -0.00986279 -0.012029282 0.0077465903 0.021644961 -0.0035125853 0.010343273 -0.018334826 -0.0027840836 0.020049201 -0.005248676 -0.019963555 -0.0042002345 -0.037357733 -0.005896075 -0.010278148 -0.000591737 0.008988819 0.012476058 -4.755409e-05 -0.020132296 -0.0012625728 -0.00047466348 0.003088792 0.013161901 -0.020956375 -0.010130862 -0.011741049 -0.005169144 0.0042453716 0.010427989 -0.0019664057 -0.02098835 0.003027355 0.0036940926 -0.003645407 -0.013422936 -0.0021712962 -0.035241935 0.011929503 0.0029637571 0.019963067 -0.022415593 0.029327009 -0.018577186 -0.00054361176 0.022014976 -0.0025017778 0.008717379 0.006054619 0.012039164 -0.010757651 -0.020972483 0.009965695 -0.008451754 0.0063348124 -0.014381399 0.01318694 -0.011519135 -0.0090388665 -0.007977117 0.013578637 0.017077541 0.0011521337 0.018577732 0.0035741264 0.0067062653 0.0068400064 0.036432393 0.014294902 0.016807813 -0.01819151 0.0038986497 -0.010142489
청년 -0.011333092 0.005307442 0.01021145 0.008058458 0.014382979 -0.03311432 0.010120065 0.0372221 -0.008448058 -0.01517877 -0.007883713 -0.028353246 -0.01438117 0.006251885 0.0152606815 -0.007762302 -0.002125736 -0.014111555 -0.005676483 -0.018919986 -9.958196e-06 0.016054342 0.00042145318 -0.0104788635 -0.0014299877 0.0003425497 -0.01657496 -0.012869325 -0.012331799 8.3185194e-05 0.027838225 0.0048410865 0.009743061 -0.0032673543 -0.0115898065 0.023021735 0.005766596 -0.0069292327 -0.002000181 -0.03179501 0.0060747764 -0.005846991 -0.0032760145 -0.004531477 0.01432813 -0.0017617911 -0.020274574 0.011855668 0.009699419 0.008618011 0.001127237 -0.01020337 0.005947126 0.0045729163 -0.01938156 0.013835575 0.00744924 -0.0043755975 -0.007601182 0.00884369 0.010558149 0.012932309 -0.013584203 -0.010197043 -0.022823967 0.00448881 0.0025223985 0.010064664 -0.028499559 0.021342207 -0.0067304466 0.005831926 0.019374076 -0.00042476915 0.018983215 0.0068911244 0.0119146565 -0.0026553185 -0.012575614 0.0030720278 -0.00014805829 0.0012024451 -0.010254284 0.0273133 -0.011011711 0.012448778 3.6233287e-06 0.015296203 0.01591037 -0.008065258 0.015468606 0.010097512 0.009369355 0.011532074 0.014603215 0.024859454 -0.0005970545 -0.019736102 0.016901596 -0.0064935973
건 -0.017160201 0.004588509 0.0044537354 -0.0026595024 -0.0044210004 -0.021883395 0.0071375137 0.038481764 -0.009451299 -0.0039136955 -0.018222997 -0.015316069 -0.00042288663 -0.0024318346 0.0017987533 -0.014251748 0.004159797 -0.017166 -0.007366503 -0.030491985 0.014779958 0.003786499 0.007864994 -0.0013969418 -0.006570557 -0.0056740586 0.0014608504 -0.023400217 -0.015093894 0.005746956 0.013124587 0.0052717277 0.0106383925 -0.012379472 0.0032813214 0.019609315 -0.006355614 -0.015398228 -0.008197386 -0.022118257 0.009442236 -0.00086173584 -0.01143091 -0.0057430267 0.018777985 -0.0048017567 -0.0056036985 0.0040983316 0.01649605 -0.00061662594 0.015451308 -0.018510941 -0.0018796412 0.005671299 -0.022693265 0.009864442 0.0017952111 -0.0021771987 -0.014711612 0.005973132 0.0027211704 0.012798063 -0.012912653 -0.0040339073 -0.013837681 0.010946643 -0.0028337706 0.013985158 -0.025404878 0.02194729 -0.0069502816 0.014361844 0.022270832 -0.008585132 0.022901328 0.0014106183 0.010367576 -0.009896968 -0.02413338 0.0059959204 -0.016140293 -0.00713518 -0.010796546 0.018376462 -0.013355952 -0.004783306 -0.008907442 0.017568313 0.026257392 0.0023964867 0.028800106 0.0035153797 0.012487671 0.008698267 0.032348786 0.017150307 0.0093442 -0.022336412 -0.0032328956 0.008093595
당 -0.013228883 0.02367955 0.0064354446 0.0009501237 0.0075877584 -0.043890532 0.008052799 0.04614948 -0.028232755 -0.013858371 -0.013589095 -0.03160332 -0.003024139 0.009499381 0.010046848 -0.025589792 -0.0014544668 -0.01645329 0.004076891 -0.03236468 0.01699388 -0.002045689 0.018365176 -0.011395432 -0.012781937 0.013302074 -0.012867812 -0.026960788 -0.01846796 0.014121467 0.024923263 0.009400189 0.003437202 -0.009274984 -0.0044800164 0.014429634 -0.004299866 -0.006752927 -0.0071997517 -0.041320395 0.010574037 -0.0011710565 0.0021436042 0.0030105186 0.006755849 -0.012372038 -0.007980908 -0.004266105 0.0189155 0.0017286194 -0.0026784402 -0.018294064 0.0059519936 -0.010454759 -0.0071807355 -0.0029700438 0.0139446715 0.007876957 -0.021268034 0.01363634 0.012706367 0.0065398104 -0.0024897894 0.0009834206 -0.025027473 0.021310044 0.0047763167 0.004615563 -0.030819692 0.024509834 -0.020178836 0.0065923017 0.02712267 -0.009635793 0.022281807 0.013158966 0.0021279508 -0.00015720096 -0.01402435 0.0023602194 -0.0047483724 0.005515874 -0.019087937 0.01402986 -0.013429752 -0.008143242 0.003987087 0.029253472 0.034423392 -0.0008149838 0.023896074 0.011389208 -0.005685073 -0.00663617 0.034622777 0.011821642 0.009552889 -0.035511896 0.015373947 -0.0053157215
설치 0.0007394445 0.015175502 -0.0016820969 -0.005725856 0.007801043 -0.03337147 0.013442241 0.046672 -0.012846918 -0.0146147255 -0.015422514 -0.024543902 -0.0052472097 0.00061788305 0.013323216 -0.009949349 0.0015769189 -0.018230077 0.0027885642 -0.033068754 0.0204148 0.003819254 0.00023388217 -0.0052567096 -0.01149368 0.0122060105 -0.017955242 -0.017155783 -0.01700175 0.010310307 0.030713454 -0.0044486355 -0.003500871 -0.011348783 -0.002791732 0.027824165 -0.0013036543 -0.016090887 -0.016826464 -0.02800246 -0.005294703 -0.005109618 -0.008587796 -0.0059456266 0.023540776 -0.008335539 -0.023297805 -0.005993369 0.00983824 0.0019866189 0.009248329 -0.0077163614 0.002472544 -0.007392484 -0.006949115 -0.0028826261 0.01735542 0.0044049793 -0.021119349 0.008059143 0.0042647654 0.0011051055 -0.009656234 -0.0114740785 -0.026282558 0.0049492796 0.010736926 0.0016277229 -0.027453152 0.014608875 -0.02104466 0.006763989 0.007963505 -0.009191623 0.018522605 0.0079142945 0.006538361 0.0072680274 -0.028056405 0.0150069 -0.016186545 0.0021800462 -0.005975349 0.030189645 -0.011627935 0.005722241 -0.009591046 0.020053923 0.019171482 -0.0059339292 0.02637763 0.013890405 0.00019580706 -0.005249651 0.031837024 0.015534169 0.002730127 -0.03265491 0.006612085 0.0063694306
선정 -0.01561027 0.021225542 0.009769327 -0.0063297367 0.0045601605 -0.027975038 0.008820963 0.032724697 -0.017854793 -0.016006468 -0.0011404145 -0.03158942 -0.01259294 0.007058189 0.0082814675 -0.015142985 0.004539172 -0.014593941 -0.00019424137 -0.022848723 0.0058475407 -0.002127629 -0.0019072081 0.005545174 -0.0015914965 -0.0049336473 -0.0014125801 -0.005491902 -0.0047114333 -0.00030457551 0.017404065 0.000106833446 -0.0048082736 -0.0053249416 0.000663146 0.014523977 0.008187905 -0.019625261 -0.0025170932 -0.03298656 0.0041301595 -0.011104757 -0.0021214318 0.009757585 0.011826018 -0.013088402 -0.020651838 0.0077860635 0.012369769 0.01647057 0.0010177037 -0.020434128 0.007679602 -0.0052064364 -0.009022631 0.014289413 0.0047396487 0.0064834193 -0.021438682 -0.0038595935 0.00028598617 0.004945609 -0.014597749 -0.0070770727 -0.02572365 0.01536359 0.007340138 0.017075153 -0.017427528 0.017880471 -0.01395577 0.017333291 0.023335751 -0.013337163 0.017942863 0.016830394 0.0123514915 -0.009751008 -0.017975982 0.008430378 -0.0046977256 -0.0063540614 -0.016933724 0.025432067 0.0040915194 0.0019868428 -0.007507077 0.0147734005 0.017758109 0.006295384 0.018311083 0.0062077027 -0.004757849 0.002162652 0.031330787 0.024573486 0.014143099 -0.02738747 0.01825616 -0.0028342295
기자 -0.0076779835 0.02084304 -0.003142393 0.0047788196 0.016655607 -0.02309458 0.009151142 0.0402133 -0.018036528 -0.016002078 -0.0064832536 -0.02104285 -0.012223894 0.007644741 0.011233451 -0.02304897 0.008220915 -0.011086935 -0.010542333 -0.03024534 0.001966502 -0.0024342453 0.014346739 -0.011986154 -0.005273928 -0.005907049 -0.016082292 -0.021993686 -0.01337047 0.0087179635 0.0150780035 -0.0048260964 -0.0003114119 -0.013591053 -0.011274991 0.016844837 0.0038519218 -0.0103428615 -0.000761467 -0.026543178 0.0012382624 -0.005293581 0.003692962 0.004779209 0.015943455 -0.0075069736 -0.021582102 0.009205579 0.013120847 0.009643918 0.015481523 -0.016593842 0.0022537634 -0.009269549 -0.022933897 0.00886794 0.014421789 0.011113387 -0.027183576 0.00781828 0.008423149 0.010547576 -0.0076122046 0.00093321485 -0.01729309 0.0009499054 -0.004909512 0.019356675 -0.022401225 0.01281238 -0.014258477 0.008604568 0.024539882 -0.004643044 0.013631495 0.0011115406 -0.005581531 0.00093659386 -0.01664951 -0.0001543579 -0.0068888715 -0.012182092 -0.013945473 0.024564194 -0.0014252497 0.010435259 0.005796698 0.019363143 0.028505038 0.008354264 0.02849492 0.01725999 0.008865617 0.007860403 0.033913177 0.0175426 0.005943708 -0.017937385 0.0098865805 -0.007863629
코 -0.011327566 0.0049886825 0.017890882 0.002934722 0.013012189 -0.01796882 0.017199744 0.027162293 -0.026905276 -0.010883806 -0.013177887 -0.03674019 -0.0049657687 -0.0068938476 0.018778622 -0.01992492 -0.0055049686 -0.029069064 -0.010051502 -0.049636975 0.009389084 0.011753885 0.004333146 0.0061008306 -0.0039185784 -0.008347844 -0.013148309 -0.018468255 -0.02516626 -0.0083091045 0.021561727 -0.0009926074 0.007736432 -0.022730391 -0.014097018 0.024333838 -0.0006653184 -0.010561729 -0.011182274 -0.02596773 0.014231189 -0.020016618 0.0013779461 0.011706749 0.0160573 0.004258284 -0.02122777 -0.003301004 -0.0023713629 0.024517396 -0.0072470964 -0.017253755 -0.004769971 -0.008846816 -0.0034500435 -0.0042786417 -0.0023903497 0.018991664 -0.03186698 0.017815016 0.00017961416 0.013693907 -0.005600429 -0.011232037 -0.037092794 0.0026073079 0.015256534 0.020139655 -0.024959955 0.0315147 -0.0057668253 0.014402348 0.020974424 -0.016744902 0.028995201 -0.0020216962 -0.0023574447 0.003100898 -0.008875007 -0.0053604906 -0.003772492 0.0025702615 -0.026127925 0.036495425 -0.007873509 0.015352895 -0.009538173 0.030901134 0.03532723 -0.010668579 0.018418565 -0.0006295735 0.016855601 0.015189223 0.015802814 0.022450317 0.009854778 -0.040080793 0.010612626 -0.017825278
단체 -0.007173819 0.0071688793 0.009903507 0.0062346132 0.0041149673 -0.03454219 -0.0036971874 0.044496853 -0.014161816 0.0011225902 -0.005444028 -0.028571459 -0.0008263098 0.015112213 0.015427304 -0.010321335 -0.0023134754 -0.027222348 0.0055827983 -0.045076583 0.015321246 0.014051788 0.0043187407 0.0029787186 -0.011749025 0.00950574 -0.00368243 -0.012658898 -0.023076883 0.017499939 0.034369845 0.0019894107 0.0063219788 -0.0059879087 -0.008187643 0.029169742 -0.0037487359 -0.017395778 -0.010088034 -0.038608257 0.0014292336 -0.017022368 -0.0017608891 0.0118744895 0.020568216 -0.0026348801 -0.018028336 0.008412902 0.0019364747 0.0056916694 0.016022127 -0.006138665 -0.006575584 -0.007325042 -0.0077663385 0.009774066 0.015822567 -0.001160915 -0.022108484 0.0034577665 0.006903033 0.00853095 -0.014642543 -0.00067615276 -0.029439352 0.019211179 0.004546687 0.02159544 -0.02615831 0.03008724 -0.019351628 -0.0012625689 0.017142078 -0.0066436273 0.026602354 0.015558291 -0.0026331793 0.007602119 -0.01872653 -0.0019434841 -0.0024501018 -0.005676824 -0.023835784 0.031755563 0.0040310915 0.011534692 -0.00024509596 0.030467495 0.031563073 -0.004780859 0.03171514 0.0054951273 -0.005566535 0.012068455 0.023346636 0.028672902 0.0038549528 -0.019647095 0.0031468142 -0.00011523142
교통 0.0014466681 0.017107408 0.0008471381 -0.0069107004 -0.0038493597 -0.020936197 0.012502397 0.02803056 -0.008661699 0.00040795436 -0.016626507 -0.01965202 -0.011218132 0.00095582416 0.0060069277 -0.021967191 0.0001284855 -0.024694068 -0.0093593905 -0.03887239 0.01976103 0.013835835 0.0065222452 -0.0057996335 0.0030135377 0.0034602382 -0.017149793 -0.021301353 -0.012744425 0.014824272 0.025790485 0.012739398 0.008285308 -0.0111866845 0.003753154 0.02967154 0.00843457 -0.00415415 -0.018763635 -0.024896473 -0.00651382 -0.014914718 -0.014433271 0.0058315396 0.013790303 -0.013186347 -0.00692289 0.012134611 0.0118417945 0.01709986 6.451122e-05 -0.017575085 0.0039636903 -0.004256417 -0.020576818 0.009290598 0.0048962855 -0.0010443307 -0.014216846 0.010949091 0.012400431 0.0055101924 0.0031970625 -0.002451122 -0.015948076 0.008621282 0.006537895 0.017887471 -0.031133203 0.0269309 -0.007871358 0.012820817 0.0137854135 -0.0067728497 0.0074523343 0.005742337 -0.0004453751 -0.0063491 -0.015507143 0.015305533 -0.0018131572 -0.011562818 -0.019601654 0.016146772 0.0004643098 -0.007626061 0.005530094 0.0218067 0.019211248 0.0118761575 0.02751542 0.0098134745 0.009267315 -0.006582704 0.015230859 0.015119406 0.020309098 -0.022419237 0.014179195 -0.010302581
후보 -0.004549795 0.013153734 0.0021752769 -0.0055470094 0.01220459 -0.03695282 0.010355393 0.04014929 -0.018242331 -0.012253178 -0.017797738 -0.028806124 -0.010041661 0.009758419 -0.00020545191 -0.01695916 -0.005540365 -0.02058442 -0.0039499532 -0.040461056 0.013754671 0.015652524 0.0116830245 -0.0018225734 -0.009025213 0.0023195355 -0.0058834627 -0.012055775 -0.0035487784 0.006272521 0.03030035 0.009820311 0.0056402646 -0.00295672 -0.011034293 0.016555738 0.006620577 -0.0038037992 -0.0040511247 -0.034399908 0.010928456 -0.0048812623 -0.0051719504 0.011736874 0.017380163 -0.0037754653 -0.011496831 -0.006456864 0.004757135 0.012280703 -0.001419271 -0.0031565828 0.0075528948 -0.011375679 -0.019777056 -0.0006126142 0.007988389 0.0022756804 -0.01976974 0.00050847034 0.010229016 0.015134523 -0.011236473 -0.013289579 -0.019746559 0.0030196765 0.012299858 0.013351525 -0.030098718 0.013818749 -0.02034408 0.009076383 0.018677574 -0.0006342735 0.013546043 0.008922859 0.0057894625 -0.0029529694 -0.024787348 0.006554433 -0.0027151892 -0.0070105805 -0.014706893 0.015297926 0.0053623226 -0.001388372 0.008881731 0.015085999 0.0121394135 -0.0067127505 0.013976131 0.007833506 0.009590617 0.0043781283 0.033764124 0.018822918 0.016067741 -0.025033869 0.0054029003 0.00445794
형 -0.009395536 0.023062298 -0.005095399 -0.011627962 0.0052753 -0.029590046 0.00335619 0.036714103 -0.020430764 -0.01693194 0.00034724435 -0.026935799 -0.008867115 0.0034932976 0.0036554588 -0.026194949 0.004570185 -0.021463763 0.006245444 -0.041184712 0.005973153 0.0042263456 0.011461756 -0.011133079 -0.010593701 -0.006992339 -0.0038412584 -0.024866886 -0.016956102 0.0074220696 0.025896901 -0.008427205 0.011556689 -0.014046189 -0.0053218375 0.013198826 -0.008265085 -0.011015438 -0.003682927 -0.027973326 0.008448846 -0.015106347 -0.006074333 -0.002714083 0.0145135345 -0.003718194 -0.011210469 -0.0041525424 0.0096225785 0.015806649 -0.0005638032 -0.0075613093 -0.005266304 0.008130314 -0.010609569 0.008988988 0.010715415 -0.0064563067 -0.00758951 0.0009669498 0.013441812 0.009169706 -0.015590604 -0.0049908077 -0.021236394 0.0063247858 0.014941578 0.0056913304 -0.030279925 0.02815928 -0.014938759 -0.0012694004 0.018223653 0.003598858 0.009762128 0.0031593195 -0.004825129 0.0010674577 -0.022754628 0.017508859 -0.0068684677 -0.0005526295 -0.015323607 0.028030438 -0.0039041168 -0.00718551 -0.009058476 0.019487424 0.031142544 0.005749299 0.015648184 0.0001491957 -0.006217852 0.007472034 0.017445737 0.02298433 0.012859515 -0.027276533 -0.0012459863 0.0027662637
한국 -0.007502674 0.0018268778 -0.004604128 0.007816713 0.007578949 -0.032036535 0.0036992074 0.035631005 -0.023367157 -0.013221736 -0.009555385 -0.029438267 -0.003070153 0.007398794 0.0128278015 -0.012148817 0.0056652264 -0.009886344 -0.0065290155 -0.020667864 0.008960035 0.0037318903 -0.0034772684 -0.003027883 0.0035398619 0.0046805893 -0.014263086 -0.015570256 -0.017323956 0.0125778215 0.014250657 0.00817883 -0.0038477888 -0.016247155 -0.013010565 0.021967383 -0.009222117 -0.017194675 -0.014310619 -0.031456888 -0.0014610753 -0.004843642 0.0029270952 0.0005444613 0.006000653 -0.005314131 -0.004184851 -0.002753868 0.0016473645 0.012854628 0.010876427 -0.017233437 0.008422447 -0.012385244 -0.019896468 -0.00095469423 0.009310352 0.0035136507 -0.012197757 0.010105047 0.009855797 0.00089518866 -0.012037921 -0.01285799 -0.021443838 0.017972413 -0.0034657419 0.012721389 -0.015413014 0.0148959225 -0.01612204 3.1125768e-05 0.008650451 -0.009926217 0.018036874 5.0953684e-05 0.00014924328 0.0033413148 -0.014529089 -0.0013024346 -0.011379459 -9.578991e-05 -0.008343885 0.014107636 -0.0033138765 0.003424265 0.00053547975 0.013716191 0.02499887 -0.006232497 0.023837708 -0.0034305279 0.0016375354 0.008716033 0.018760987 0.02148926 0.015213598 -0.030464204 0.0074022766 -0.006579968
올해 -0.016549196 0.013229686 0.010063633 0.006281137 0.0012312786 -0.031309903 -0.00047509145 0.038979173 -0.013072771 -0.017270776 -0.005994647 -0.032215044 -0.004733402 0.010649868 0.0007678392 -0.0157257 0.002515273 -0.027750988 -0.0035904858 -0.028571941 0.0019205852 -0.0001658201 0.005865371 0.0042566103 -0.0016893335 0.011216351 -0.017270312 -0.005542009 -0.01840777 -0.00031277695 0.014704704 0.0048815235 0.00015860435 -0.0038563285 -0.0069365283 0.024155086 0.006612033 -0.023549898 -0.0092525175 -0.035957925 -0.0064973836 -0.0037998823 -0.0023077542 -0.00022339476 0.012671282 -0.014339255 -0.015713643 0.005025921 0.016619999 0.017838389 0.0020482207 -0.007787082 -0.0043523703 -0.0054482264 -0.017523356 0.0005551081 0.013337175 -0.0030324545 -0.026803698 -0.0006704027 0.014154027 0.007736273 -0.0015088805 0.003339747 -0.031866405 0.0054121083 0.01351821 0.016591283 -0.018300809 0.032343056 -0.0015117786 0.0044107707 0.01777925 0.0017384626 0.024436468 0.019098286 -0.0054921596 -0.007238749 -0.013243506 0.009330537 -0.007890977 0.0037655425 -0.00625901 0.013491543 -0.0061491774 -0.0056715193 0.00499757 0.023499252 0.021794824 0.0040190225 0.027144032 0.016522218 0.010293008 0.0067383274 0.02841838 0.02761776 0.011931235 -0.025817584 -0.000935292 -0.0006588829
받 -0.017101537 0.017677987 -0.0032519174 -0.003766188 0.0065886932 -0.024001997 -0.005910849 0.03416002 -0.01870219 -0.014469068 -0.0036221019 -0.019996952 0.003262923 -0.0019548666 0.0043364107 -0.0134725 0.010033846 -0.024782026 0.0040977695 -0.035536837 0.0009790971 0.0051866816 0.0035377538 -0.0071405014 -0.0065572727 0.0061107124 -0.01667923 -0.0108687105 -0.0073806965 0.005226134 0.019355444 0.010596265 -0.007905656 -0.019176537 0.00070095406 0.026188748 -0.008838355 -0.019832112 -0.0074085398 -0.034135416 0.0032128892 0.0030024275 -0.009965566 -0.0058156173 0.021077093 -0.007570564 -0.013772889 0.00018925153 -0.0032550162 0.003501557 0.00012325494 -0.008278797 -6.106216e-05 0.0071082804 -0.004120579 0.0029691712 -0.0028470175 0.007130568 -0.021234145 0.012742774 0.008799763 0.0028941473 0.0018885799 -0.006270114 -0.024956487 0.0068858285 0.012380177 0.014305412 -0.016182551 0.022143906 -0.011759498 0.0148618305 0.0054051224 -0.0058416105 0.0053129047 0.016520709 -0.0005400838 -0.0041075605 -0.006247164 -0.0027611235 -0.009026017 -0.0001636659 -0.016478345 0.025162725 -0.0010604938 -0.0039403737 0.0044318694 0.024539297 0.019025965 0.008711881 0.009119645 0.0021527184 0.013375884 0.008354554 0.02271894 0.011952986 0.013176246 -0.018527493 0.0146805225 -0.0015020495
마을 -0.00034495155 0.007231423 -0.0046913507 -0.0032536977 0.009958273 -0.029516788 0.011811262 0.028383909 -0.025600987 0.0006879488 -0.0027009102 -0.028331002 -0.008529049 0.0018112689 0.0056162034 -0.0074071926 0.0067814845 -0.021721682 -0.006585996 -0.035706643 0.0021405413 0.012995351 -0.0018623525 -0.0063966513 -0.010967337 0.012051429 -0.002145888 -0.01502191 -0.010666272 0.0043015224 0.034640897 -0.00040558304 0.006880515 -0.016536593 0.003947073 0.031973716 0.006129897 -0.016001625 -0.010255048 -0.040652715 0.012608932 -0.016234104 -0.012628855 0.00796912 0.0128161395 -0.00013155985 -0.021015616 0.013489515 0.010052732 0.0020825039 0.009583036 -0.016465608 0.0057716183 0.004790856 -0.023175698 0.013196273 0.015258289 0.010920269 -0.025481153 -0.0032114324 -0.0033358126 0.010690165 -0.01132502 -8.627855e-05 -0.020632194 0.018699089 0.007610539 0.011020999 -0.021755787 0.026563404 -0.020205095 0.0011843635 0.01523532 0.0012627811 0.014318722 -0.0007976026 0.0016622229 0.0059752613 -0.011540722 0.011804038 -0.013563008 -0.0075699305 -0.015044968 0.01411833 -0.013229648 0.0018725399 0.00081727805 0.025440138 0.026963526 0.010165578 0.0131827 0.017394204 0.0011205811 0.002744494 0.022819493 0.015049362 0.01001274 -0.034788728 0.016997876 0.0024559256
교육청 -0.009510419 0.012004633 0.010653963 -0.007476511 0.008959178 -0.019252045 0.0069625545 0.024477018 -0.021469818 0.0012127378 -0.008282843 -0.024770191 -0.0031595272 -0.002358768 0.011213883 -0.017647067 0.0019059003 -0.014085156 -0.006410813 -0.02772413 0.01569515 0.00553623 -0.004428069 -0.0031708034 -0.011737655 -0.001501812 -0.0010683497 -0.007333373 -0.01647413 0.006673308 0.023300137 -0.004976854 -0.0022921714 -0.011244403 -0.012946407 0.018010408 0.0065990775 -0.008184854 -0.0035802498 -0.023156188 0.0015493181 -0.011696145 -0.0051233857 0.008051248 0.0133546125 -0.005972473 -0.0008256963 0.0058688265 -0.0016272926 0.013920802 0.013718978 -0.017039932 0.0068579875 -0.008405802 -0.010898598 0.009704903 0.000626632 -0.0049052723 -0.02112581 -0.0078079454 -0.0016813945 0.013766036 -0.0021153155 -0.013356704 -0.009236499 0.015020894 0.012066987 0.017745644 -0.024978144 0.013523566 -0.006086042 0.007650431 0.016386256 -0.010594326 0.015202961 0.016661923 -0.0074720327 0.0072455737 -0.0102715455 0.0016554279 -0.0072826194 -0.011878014 -0.016969694 0.020026086 -0.006085516 0.011678936 -0.009260919 0.0074829194 0.023534287 0.009225782 0.018760817 0.013618554 0.009455133 -0.004637782 0.028374515 0.0070689996 0.0049781827 -0.025335573 0.012018718 -0.0061533363
소 -0.0059619737 0.010917998 0.0014069852 -0.0068377485 -0.0002228734 -0.030583205 0.0050172526 0.035087753 -0.018783757 -0.0049586156 -0.014055748 -0.010557602 -0.005115071 -0.002033435 0.0031712956 -0.007046791 0.0032210085 -0.023101272 -0.010412987 -0.0377991 0.0069817635 0.013150747 -0.001257072 -0.0021714824 -0.0026262265 0.006580538 -0.016918194 -0.004560366 -0.016277533 0.011274724 0.01246972 0.00887631 -0.0073929573 -0.0144369695 -0.0069512357 0.015863596 -0.00040764248 -0.013701501 -0.0026018794 -0.031893454 -0.0017588678 -0.015191766 0.004681316 0.0068972907 0.02314036 -0.0006573644 -0.017502706 0.012109155 0.00034528895 0.013175337 0.0009162598 -0.009766189 0.0020933014 -0.004048937 -0.017782412 0.003878568 0.009320112 0.011360374 -0.025124008 0.00950942 0.0027240375 -0.002895866 -0.012479455 -0.003725469 -0.013974304 0.018069709 0.015040424 0.019284897 -0.023613796 0.019343939 -0.00016259664 0.013495945 0.022080876 0.005095719 0.015935188 0.010718348 -0.007151583 0.00732044 -0.0056399275 -0.0007143301 -0.0052959784 0.0059284037 -0.007692021 0.027452327 0.00676478 0.0012521415 0.009508513 0.02580491 0.020306729 0.0020893195 0.028034614 0.01373961 -0.0033612887 -0.0010840441 0.021009387 0.020872127 0.011667156 -0.034466084 0.010114413 0.0074915085
정책 -0.0058454326 0.017388113 0.0047463328 0.007239927 0.014358022 -0.020985942 0.001978786 0.035830323 -0.022069465 0.0013239642 -0.012207194 -0.009910971 -0.014347676 0.0025738063 0.014273341 -0.018596191 0.0034770085 -0.010988968 0.008541095 -0.030152513 0.0029423956 0.015677258 -0.003360306 -0.0016347147 0.0037105083 -0.0063171247 -0.014952453 -0.023013238 -0.011566799 0.012541339 0.011700022 4.214028e-05 0.009879709 -0.015460528 -0.001883524 0.02222467 -0.0038271893 -0.018392812 0.00068641506 -0.030415004 0.010833654 -0.009748417 -0.0006487319 0.007717072 0.013647303 -0.0019657174 -0.018538905 0.012761396 0.0048695416 0.004337733 0.010333521 5.9103142e-05 -0.007337042 -6.145814e-05 -0.008031066 0.0035015475 0.008755056 0.014032933 -0.0076466175 -0.004793661 0.0020813285 0.014733023 -0.0061138147 -0.014801658 -0.023229934 0.0022019327 0.005386325 0.012300383 -0.024951672 0.015310112 -0.0008389798 0.011392619 0.016359854 -0.001499249 0.021339063 0.0027540072 0.009330982 -0.0013814595 -0.022971015 -0.003510544 -0.008925959 0.0057639494 -0.008061465 0.008749428 -0.00090396823 -0.00087249913 -0.004642837 0.02641761 0.027629415 0.0018617231 0.01872528 0.0075246845 -0.0064733927 0.0063366327 0.030358683 0.021338155 0.0118021 -0.027492471 0.009474075 -0.010374531
사회 -0.0031661415 0.013887652 0.0024150922 -0.0016155094 0.008317985 -0.021361023 0.006475676 0.040459294 -0.009728684 -0.004896574 -0.010782645 -0.024831468 -0.014771084 0.0011232626 0.00907486 -0.0061478717 0.004105084 -0.021037191 0.0019371402 -0.03391623 0.0077583618 0.014486428 0.015859734 -0.0038403666 -0.009118646 0.0052041975 0.001987339 -0.0035646285 -0.013171261 0.012964366 0.030172557 -0.007232137 0.010810717 -0.009960447 -0.010626272 0.021974362 0.008574847 -0.0196628 -0.00011723397 -0.032208633 -0.005336009 -0.0013694549 -0.009611804 0.0070221894 0.020063482 0.0032733888 -0.0044653006 -0.0066380566 0.009993316 -0.0007170814 0.004136997 2.0831772e-05 -0.0066387653 0.0044162334 -0.018669523 -0.003188045 0.015811823 0.007779522 -0.007077911 0.005170636 0.0069146394 0.008056797 -0.014490066 0.0022785976 -0.02626396 0.013120631 -0.0005253743 0.011190199 -0.0154307345 0.01698614 -0.018060334 0.00074494473 0.0029304402 0.0071355016 0.0072772787 0.0053633843 -0.0078005046 -0.0050744344 -0.019530205 0.009922684 -0.00033127423 0.00063778064 -0.00078820105 0.019253008 0.007510687 0.009588361 0.002095537 0.01936258 0.012277362 -0.00023390636 0.022488818 -0.00087018433 0.005218 -0.0047153533 0.032872565 0.016781533 0.010557339 -0.027671492 0.0135405725 -0.010698586
관리 -0.014873703 0.01843345 -0.0006714581 -0.0022880435 0.011153458 -0.017880384 0.010605871 0.03650918 -0.007148016 -0.014950759 -0.0011265844 -0.009044032 -0.0081747975 0.0052872607 0.0017364258 -0.016286502 0.0139032 -0.014748889 0.0010739991 -0.032092806 0.015184057 0.0008633153 0.0013348078 -0.0008136086 0.008009717 -0.0042295875 -0.0032606246 -0.012947623 -0.01847806 0.0010262171 0.010098599 0.008920914 -0.0011698476 -0.01443607 -0.0034162202 0.021990476 0.00985246 -0.02228911 -0.0076777055 -0.02584381 -0.0004528703 -0.006803996 0.003628999 -4.368806e-05 0.020969164 -0.0068210564 -0.010924959 0.010018276 0.014016092 0.008779668 0.0041818977 -0.0029104718 -0.004478019 0.004078503 -0.011844979 -0.00096963614 0.013512866 -0.00044345853 -0.012371804 -0.0044519147 0.008329314 0.010164544 -0.0004552518 -0.012441072 -0.026671605 0.015815502 0.0073415576 0.01135285 -0.024705015 0.016476465 -0.017587353 0.0071932636 0.00840142 -0.0019168131 0.01639948 0.010467767 -0.005579561 -9.432429e-05 -0.02093261 0.0022652945 -0.0043936702 0.005182913 -0.016755836 0.018140392 0.0049225297 0.012308898 0.005712954 0.0081209745 0.02289424 0.010598473 0.019304799 0.009357982 0.0011659892 0.0050169597 0.025798423 0.024659337 0.004820097 -0.030404268 0.013758996 -0.008241779
포스 -0.00977213 0.01447931 -0.0011557788 -0.0075158295 0.008812131 -0.0429482 0.008997738 0.030985214 -0.025151858 0.00012433434 -0.006161479 -0.018110646 -0.0034272135 -0.008660289 0.019403381 -0.02008421 0.0031651512 -0.0073764147 -0.0031237572 -0.030892953 0.014084217 0.010020639 0.02064835 0.008581359 -0.0029551666 -0.0019010314 -0.0011104142 -0.026287628 -0.0028347427 0.00975599 0.03603139 0.0072574434 -0.0022987905 -0.009577823 -0.015059862 0.03710023 0.007921081 -0.011907985 -0.017366393 -0.04485808 0.014527254 -0.004124236 -0.011051984 -0.010456195 0.013024325 -0.0056393016 -0.029002741 0.003317963 0.011625583 -0.0045882794 0.005857678 -0.020234214 -0.0074753654 -0.0022063362 -0.0314926 0.0032420275 -0.00016888353 -0.0042986847 -0.0169069 0.008493148 0.021025237 0.017711356 -0.0135571975 -0.020964077 -0.014629902 0.01819929 0.013425239 0.0077482075 -0.032501444 0.014617389 -0.025166858 0.01576427 0.011260641 0.009600968 0.005242163 0.024937566 -0.004507833 0.012315664 -0.027191013 -0.0027239607 0.0045523373 -0.018970242 -0.026167108 0.028427051 -0.016122732 0.011473695 0.0046972763 0.009815826 0.029497815 0.004982018 0.033372402 0.015183434 -0.0028489572 -0.0009536778 0.036727488 0.01151237 0.024939174 -0.034161337 0.0036454862 -0.011167872
나 -0.005702719 0.0019457688 0.0053812694 -0.0068829013 0.015364586 -0.028539978 -0.004762433 0.034150295 -0.0026009271 -0.004139404 -0.009617528 -0.014455589 -0.01222455 0.0017678868 -0.00039066144 -0.01137395 -0.0031558992 -0.02308362 -0.009686295 -0.022634322 0.01219281 0.013194056 0.008052168 0.0018966447 0.0019484791 0.007402236 -0.012423154 -0.009923648 -0.010455983 0.010523374 0.012333857 0.002817144 0.0053011025 -0.0140215 -0.013104292 0.022989923 -0.0017716425 -0.012078643 -0.012223433 -0.016920606 0.0029492397 -0.005098987 -0.004619008 0.0015308706 0.018403145 -0.01568145 -0.007737303 -0.0029841342 0.016876955 0.013554254 -0.0014460888 -0.009123472 -0.0068696067 0.007448424 -0.0016959794 0.0074073477 0.017718734 -0.00039111267 -0.012326361 -0.0017187484 -0.00298825 -0.0015741846 -0.006826215 -0.01009137 -0.02556085 0.008896779 0.004073334 0.00057204516 -0.010504432 0.02135926 -0.018028965 0.0027706453 0.0058803414 0.005213306 0.00983186 0.014944271 0.0079709375 -0.0055112066 -0.023116756 0.0017061491 0.0029359506 -0.0053094914 -0.011363707 0.01515038 -0.010985044 0.006895187 -0.008941893 0.02583307 0.0119642 0.009615916 0.013180104 0.003000454 0.0022200523 0.0040352447 0.023300325 0.016980488 0.009309703 -0.013688787 -0.0007914924 -0.009196392
르 -0.019057786 0.02034992 0.0006215414 -0.008294633 0.010962683 -0.037239462 0.0071946913 0.04717941 -0.0044769854 -0.01248687 -0.0049239746 -0.013805459 0.0058998796 0.0051681297 0.005418103 -0.019365037 0.0006080464 -0.015470108 -0.0014710369 -0.038622104 0.015297535 -0.0018329615 -0.0009952874 -0.012001252 0.00594783 0.009250422 -0.011071371 -0.005127606 -0.010138185 -0.006201448 0.0125806965 0.0012466587 -0.00714539 -0.0020280431 0.001767592 0.020521339 -0.0005259247 -0.023615785 0.00069586345 -0.034875084 -0.0012126561 -0.01482574 -0.004956565 -0.010613244 0.020075304 -0.014649353 -0.0026252382 -0.006272494 0.003473385 0.011455742 -0.002424131 -0.001449519 -0.007226306 -0.0011615164 -0.0032005166 0.010447378 0.009047888 0.015399226 -0.016447777 0.010553788 0.015382625 -0.0062812176 -0.005305912 -0.01582647 -0.02622925 0.018657275 0.0008102154 0.003140947 -0.014808786 0.03391612 -0.000737848 -0.004612174 0.024296954 0.004935797 0.007870393 0.006001582 0.004111958 -0.012188125 -0.019086475 0.020957887 -0.008404322 -0.012138136 -0.017768076 0.0074849133 -0.0007878942 0.010584643 -1.5583142e-05 0.01614916 0.03516511 -0.007192381 0.012943737 -0.0077480883 0.016991407 0.002003167 0.01709077 0.008669218 0.021904027 -0.028993774 -0.0014852929 0.0029456578
ㄹ -0.017357096 0.024608765 0.01063056 -0.005141092 0.002942531 -0.027876811 -0.005652233 0.040955827 -0.011389198 -0.0013832249 -0.019482406 -0.024734218 -0.010799341 0.012381042 0.015180215 -0.017502975 -0.004214638 -0.015303357 -0.0028661657 -0.032324743 0.0039047312 0.005894326 0.0044804453 0.0044860034 -0.012261406 -0.0010906258 -0.011246853 -0.019173117 -0.008494945 0.007454101 0.0231709 -0.0055071367 -0.008888562 -0.009650029 -0.006611367 0.0129988175 0.0073199235 -0.007401548 -0.0021750673 -0.036373276 0.0022590158 -3.145579e-05 -0.013818474 -0.0043944796 0.0067418213 -0.0040155835 -0.022904495 0.0054903477 0.018118396 0.011281261 -0.004334112 -0.0039554155 0.0063365893 -0.009843692 -0.008356573 0.015868487 0.016082514 0.00027735275 -0.013263872 -0.0018541017 -0.0010013778 0.009181369 -0.012749887 -0.00657833 -0.031865653 0.0021311038 0.0032079176 0.013398334 -0.022746412 0.03193625 -0.00791174 -0.003393195 0.008334284 -0.006620227 0.01206216 0.0031571013 0.012012173 0.002372895 -0.027569134 0.014127231 -0.009580729 -0.012975582 -0.013170215 0.028867286 -0.008280043 -0.0023634275 -0.0034043426 0.027421325 0.03035631 -0.0048866607 0.011792399 0.008532551 0.007555461 0.006639359 0.031800363 0.020677365 0.009561451 -0.02409939 0.007591756 0.0025131141
대회 -0.010384026 0.025207784 -0.0013148796 0.00088215864 0.008479538 -0.036396928 0.017058231 0.045901425 -0.0115646 -0.011045797 0.0019971125 -0.020177659 -0.006726586 0.010903489 0.011026874 -0.009281924 0.008221532 -0.017408226 -0.005307875 -0.04365734 0.0025042177 0.0048607397 0.0044860924 -0.0015588325 -0.0040778066 0.0026173545 -0.002264242 -0.023295553 -0.007080508 0.014343041 0.03337047 0.006982963 0.0004565641 -0.010039037 -0.015797736 0.01556197 0.0020361536 -0.015953029 -0.005576817 -0.03799488 0.008713495 -0.011896847 0.0012920243 -0.0016093706 0.012871222 -0.00611317 -0.014296747 0.0011364933 0.0052714767 0.019695569 -0.0058656754 -0.006424026 -0.0040364303 0.010358588 -0.009897051 0.009465018 0.0055750706 0.0027184172 -0.026271448 0.0024854573 0.014204927 -0.005820146 -0.0037812956 -0.0025300232 -0.01777605 0.006272523 0.01083634 0.0011806482 -0.026305225 0.034745466 -0.007787255 0.0008944775 0.01371232 -0.012911832 0.015923772 0.014107694 -0.004360999 0.0061306134 -0.023785569 0.013951552 -0.001977173 -0.0016382133 -0.015422864 0.012268186 -0.010168575 0.0027105387 -0.012219571 0.033450477 0.028572878 0.0012263339 0.033255722 0.0040041404 0.004677305 0.0049088695 0.038101904 0.023359545 0.010558568 -0.03293275 0.0007278526 0.0037048627
