2881 100
사업 -0.019583147 0.02333359 0.016381204 0.0032994468 -0.008225234 -0.047141235 0.017730305 0.080208324 -0.022024034 -0.02440099 -0.0024137937 -0.05028278 -0.015549419 0.019833777 -0.0010322463 -0.026552893 0.008778254 -0.029718703 -0.0030769305 -0.06552175 0.026799971 0.0130160935 0.018607005 -0.011343463 -0.004153202 0.0056152004 -0.019027678 -0.011800286 -0.0346547 -0.0050270967 0.027713632 0.0038358902 0.01174999 -0.036039837 -0.0146572 0.03625276 0.024482805 -0.035820078 -0.026449682 -0.063029274 -0.007515771 -0.030848974 -0.023262434 -0.005030427 0.03723536 -0.015174846 -0.031635534 0.012972386 0.021094222 0.029797249 0.006688896 -0.016077692 -0.010716034 -0.0031283116 -0.013423228 0.017314559 0.017006572 -0.019272693 -0.029388191 0.009325593 0.003116083 0.018955296 -0.015121165 -0.0036479253 -0.040789764 0.026480973 0.008892324 0.030668817 -0.038912162 0.037489608 -0.016186856 0.026333405 0.036417697 -0.01546228 0.035136662 0.013708293 0.0057249395 -0.005088895 -0.033655114 0.006377131 -0.016113935 0.0025655825 -0.015489409 0.054261 -0.00716143 0.0004961477 0.011654789 0.019986147 0.03329527 0.023095284 0.039025277 0.01698395 0.004696217 0.0019421849 0.05690286 0.03816908 0.012697401 -0.04421805 0.008874539 0.012293872
지역 -0.026110822 0.024489908 0.015063014 -7.055728e-05 0.00823964 -0.043336384 0.011751727 0.07066096 -0.017648106 -0.024518762 -0.009473918 -0.05176242 -0.016585367 0.018767262 0.0074849087 -0.0147921145 0.0109097 -0.020481711 0.0006299675 -0.049944542 0.020040631 0.0030422974 0.019355444 -0.02010264 -0.003711692 0.011853329 -0.02184115 -0.012160939 -0.025513992 0.0069572167 0.041652005 0.0008189746 0.0018454883 -0.031741064 -0.0060232943 0.03600238 0.021060819 -0.0201984 -0.013832334 -0.043033745 0.0104401875 -0.04056628 -0.022942692 -0.00016240467 0.029395133 -0.004914849 -0.014529663 0.0003152783 0.017536435 0.02057119 0.02179317 -0.028628407 -0.0063933143 0.0005327695 -0.020830175 0.028866366 0.020193912 -0.004983782 -0.023966206 0.007689768 -0.004578061 0.020325141 -0.015533673 -0.00092937896 -0.032237817 0.02645891 0.016167803 0.01607593 -0.026222084 0.038797136 -0.023106365 0.007203238 0.0396754 0.0006429734 0.027335333 0.0060489206 -0.00993107 -0.0056738365 -0.023198439 0.010217862 -0.023998376 0.003442015 -0.014937626 0.03614887 0.0009935781 -0.003272553 0.0053139892 0.012439992 0.03490857 0.009678435 0.03413889 0.012866374 0.0029968515 -0.0072794366 0.039227754 0.03237201 0.025464386 -0.035839017 -0.003600092 0.0094096195
광주 -0.016388105 0.023925634 0.0031608928 -0.00754139 0.008744446 -0.028459482 0.00663763 0.06470935 -0.022436192 -0.011113477 -0.013082081 -0.04532379 9.952862e-05 0.01187176 0.011480296 -0.027391994 0.011028232 -0.016736422 -0.0048613762 -0.052610055 0.009707877 0.003114591 0.006823106 -0.018257 -0.0018672281 0.0016293988 -0.007031444 -0.011416687 -0.030132016 0.0027463783 0.036195483 -0.0029206756 -0.0067306454 -0.027015384 -0.018559033 0.03134786 0.0134348385 -0.021789841 -0.020035442 -0.052011658 -0.0034219744 -0.02903177 -0.015534874 0.0067943633 0.0357996 -0.008201157 -0.018752469 -0.0005331111 0.01175886 0.017813573 0.015076871 -0.02149203 -0.012789617 -0.0129971625 -0.027549468 0.013505985 0.009745851 -0.01617088 -0.028198937 -0.0036273298 0.007096127 0.013833612 -0.0022789706 0.004278929 -0.04333215 0.030148597 0.01660641 0.027687015 -0.039458685 0.036918733 -0.01335519 0.01944268 0.03855613 -0.0037740339 0.023245873 0.02133744 0.009777942 0.00030740717 -0.03086891 0.0135005405 -0.013122048 -0.008956581 -0.027837615 0.04168368 0.00023642683 -0.006764467 -0.00040504945 0.013470697 0.039938793 0.014493035 0.026037285 0.019904604 0.010823601 -0.0022894375 0.04910997 0.034635153 0.02576335 -0.030678263 0.014592795 -0.0038585262
전 -0.02542647 0.03169863 0.008465566 -0.008512066 0.0067501366 -0.04145729 0.012040209 0.06973569 -0.0073081553 -0.028002419 0.0020806687 -0.036833744 -0.0048530027 0.003963975 0.014531899 -0.02329979 0.015068262 -0.033096742 -0.0061931037 -0.039150134 0.018212285 0.0044043376 0.022268055 0.00078168686 -0.02209136 0.010162847 -0.009533726 -0.011833395 -0.022494955 0.00087448664 0.032460965 0.00019796896 -0.0069689406 -0.0270961 -0.0058758934 0.044631835 0.024201218 -0.032739393 -0.032275636 -0.040557917 0.0070066378 -0.025423042 -0.0065537645 -0.003867777 0.04011244 -0.008986627 -0.017103964 0.0005198271 0.011476574 0.016384736 0.019273369 -0.018625038 -0.017709067 -0.0151745 -0.025966147 0.01905863 0.012820283 -0.0017856128 -0.015779218 -0.005488567 0.0032098799 0.02410231 -0.0005171121 0.001591282 -0.030210083 0.0148619935 0.008441886 0.030902294 -0.035907187 0.020298935 -0.01217289 0.010842594 0.0317864 0.0058524897 0.024292648 0.007908288 -0.0073389434 0.0037920508 -0.034345813 0.015468234 -0.019509967 0.0072430996 -0.013014279 0.044383995 -0.0025319655 -0.0040776 0.014881897 0.027085543 0.028361794 0.0036463898 0.02272838 0.01442102 0.00029914067 -0.0021479088 0.05320484 0.026608976 0.024977464 -0.040382806 0.004122195 -0.002465929
광 -0.017832644 0.014861052 -0.0029276204 -0.008642644 0.0044592298 -0.018856358 0.007941149 0.044995442 -0.015924139 -0.003242933 -0.014125394 -0.022476358 -0.016918395 0.011103329 -0.0017352761 -0.018742235 -0.00010939769 -0.013793891 0.010646726 -0.040582437 0.01566 -0.00538359 0.015919855 0.0033235431 -0.011383222 0.0071111736 -0.010051011 -0.004571858 -0.025230622 0.0034580063 0.02930472 0.0077680773 0.0022187964 -0.02794144 0.002584672 0.014378779 0.004021654 -0.013960202 -0.016541565 -0.036178645 0.0050754696 -0.031195192 -0.019307043 0.010825591 0.028697936 -0.016952626 -0.011317691 0.0014448349 0.01571984 0.004071766 0.013302872 -0.0077969492 0.007553227 -0.008382049 -0.014225315 0.005389229 -0.00557038 -0.017397484 -0.016350416 -0.008345392 0.008472123 0.004010666 -0.004606387 0.003880041 -0.028187856 0.016326413 0.0165232 0.025437305 -0.027073067 0.032598943 -0.021411182 0.015133533 0.018120058 5.828576e-05 0.023789877 0.017722761 -0.004235299 0.009082063 -0.011805981 -0.0029816309 -0.016697004 -0.007695198 -0.010400559 0.025178531 -0.0056379824 -0.011141456 0.014835334 0.017787248 0.009567286 0.002488142 0.026626427 0.0031762344 0.005974722 -0.006164079 0.029615834 0.010399797 0.021836238 -0.017289171 0.0046494035 0.0057969233
지원 -0.025187474 0.02156031 0.0076726046 -0.015545807 -0.009463531 -0.03432408 0.014174595 0.0604654 -0.018740093 -0.023200162 -0.013215032 -0.042053692 -0.016345205 -0.00016304619 0.00080814114 -0.028196843 -0.0017654971 -0.029920608 0.0026986287 -0.045065466 0.006510614 0.0066687143 0.016631043 -0.0026167196 -0.015970021 0.0030151226 -0.010926322 -0.025826378 -0.018822094 0.005978519 0.034684703 -0.0044070957 -0.0032362675 -0.02980546 -0.008924212 0.039325602 0.019370366 -0.017558819 -0.014590442 -0.04959688 0.012378662 -0.036042906 -0.019342365 -0.0041329777 0.028384803 -0.015883718 -0.019551732 0.010626576 0.012780565 0.015508051 0.014322256 -0.025532873 0.00208279 0.0059984955 -0.027187044 0.020385627 0.01988814 -0.018209988 -0.027774885 -0.008266356 0.012704147 0.013898477 0.00014507178 -0.0057433955 -0.02690773 0.021659123 0.007671543 0.021708155 -0.03720631 0.018050909 -0.014769255 0.020304363 0.039061576 -0.0003761739 0.02366082 0.020156413 -0.0100735845 -0.0012134679 -0.024972606 0.015996674 -0.0057183383 -0.009186866 -0.011678624 0.028706195 -0.00056385156 -0.0089495685 -0.0013165826 0.029674605 0.02569578 0.015560682 0.038708236 0.02163146 -0.0068762987 -0.001968938 0.047426406 0.031773556 0.017226452 -0.038657457 0.010331947 -0.0026572046
양 -0.0014402217 0.008139845 0.005106105 -0.005168373 0.0009164473 -0.025575181 0.013634537 0.043011017 -0.013172857 -0.012475416 0.0011547027 -0.025486743 -0.007959132 0.018784383 -0.0024949913 -0.014583365 0.014988046 -0.011705921 0.004418543 -0.0438983 0.013542733 0.002074079 0.017335482 -0.0056752223 -0.006784444 0.008578441 -0.011802888 -0.017366264 -0.015164865 0.00036171064 0.029654063 0.016193572 -5.505847e-05 -0.014635489 -0.012857088 0.022616742 0.0010412346 -0.029696403 -0.021095047 -0.046904683 0.010157841 -0.031244325 -0.00041656432 -0.0076311966 0.02610446 0.002218795 -0.024505006 -0.009815549 0.005812824 0.009126774 0.010384206 -0.022411298 -0.014273152 0.0011333509 -0.021728406 0.0034270133 0.0038705023 -0.019186413 -0.023845542 -0.009989953 0.00215 0.0056671686 -0.0016866196 0.0057942523 -0.027228734 0.024372526 0.00066135376 0.0075677997 -0.029658778 0.018355574 -0.016265057 0.017129807 0.01876108 0.0016841454 0.028155724 0.0016117597 0.0032019534 0.006051639 -0.020966899 0.015376787 -0.00063403585 -0.0066390424 -0.021369899 0.031760562 -0.00034260208 -0.007696142 0.015021974 0.007782649 0.012506836 0.008596759 0.019864336 0.010251727 -0.0028984002 -0.0020801558 0.025325758 0.02059532 0.022947282 -0.027652944 0.0010936159 0.00997717
월 -0.0058647036 0.013667561 0.018237274 0.002781927 -0.0037906617 -0.030082189 0.013676245 0.049191073 -0.018552035 -0.02235891 -0.008319216 -0.037024852 -0.0036166 0.008520022 0.003948802 -0.015347214 0.00914464 -0.023593554 -0.0022720762 -0.051041294 0.0150136575 0.013379489 0.010352116 -0.017342368 -0.016614418 0.013758333 -0.016644586 -0.0072926874 -0.027323287 0.008319009 0.020465856 0.007116625 0.0010224094 -0.028057445 -0.012698177 0.027010335 0.006394936 -0.024515774 -0.027779398 -0.04195142 0.011625255 -0.029424272 -0.012283364 0.003670591 0.036051445 -0.016133212 -0.025803339 -0.0011873102 0.022234814 0.01597769 0.0023369608 -0.018109756 0.004669433 -0.01094622 -0.022204509 0.025942374 -0.00027860215 -0.005547031 -0.019070715 0.0062571615 0.011606598 0.011379812 -0.013062699 0.010660471 -0.028091576 0.023345944 -0.0014486514 0.0287942 -0.02978675 0.020024834 -0.012978283 0.012101471 0.03380537 -0.007531814 0.02024388 0.012479163 0.0076628914 -0.007871509 -0.022223104 0.0031553041 -0.018959073 -0.000980077 -0.024710555 0.038145397 0.0010525952 -0.0026435177 0.008503712 0.027450398 0.03606021 0.00922781 0.030368451 0.008051527 -0.006881417 0.0073387763 0.03408502 0.02436984 0.015096295 -0.032261208 0.011229931 -0.00029109186
억 -0.021224575 0.022959024 0.010939393 0.0046854746 0.00717986 -0.022588098 0.017218985 0.037831467 -0.016632643 -0.007773365 -0.0022313478 -0.03518784 0.0025356633 0.00527315 0.012438359 -0.013122789 -0.004051541 -0.021214904 -0.005184264 -0.03643441 0.012134129 0.015450753 0.01702966 -0.01451797 -0.0031796973 0.007473218 -0.013817302 -0.021310987 -0.014709171 -0.008770759 0.028613368 -0.0023080115 0.006509018 -0.007322575 -0.0073243342 0.027462365 0.0076293605 -0.010358731 -0.0112692 -0.045619044 0.000118673954 -0.018570567 -0.009446162 -0.0010715692 0.021625847 -0.010985961 -0.014209262 0.007264578 0.0067595392 0.008878327 0.008146868 -0.012378933 -0.0035397576 -0.0068126684 -0.008155485 0.011568378 0.009008783 -0.006838712 -0.009076375 -0.0070511317 -0.0049504316 0.0063350913 0.0022508763 0.0007801595 -0.03359215 0.012895485 0.002500359 0.02098083 -0.032266133 0.025068043 -0.023317555 0.012063783 0.029880745 0.003164089 0.012089397 0.0014728362 -0.008868278 -0.011179659 -0.028748661 0.00678137 -0.009997819 -0.008096585 -0.0058149076 0.030103233 0.006594598 0.001572096 0.0029955055 0.006498613 0.019598853 0.013843461 0.017199643 0.011723723 0.003508182 -0.00061210914 0.038073476 0.028687313 0.015622858 -0.014441305 0.0110687995 -0.0033502246
및 -0.019218614 0.010354626 0.0005854582 0.004019276 -0.00096946594 -0.037675142 0.003875686 0.056709196 -0.014828112 -0.019479847 -0.005240358 -0.03991468 -0.009968384 0.010544056 0.0010445038 -0.009299333 0.007927034 -0.03281798 0.009579603 -0.04720595 0.015769856 0.010677059 0.0044777794 -0.011176934 -0.0007415185 0.0022336552 -0.020802356 -0.0046294853 -0.02195849 -0.0044862395 0.03498286 0.007750531 0.0057670423 -0.011286029 -0.016707666 0.032943305 0.015016723 -0.017206384 -0.017021177 -0.038182456 0.0061996765 -0.020588407 -0.013827242 -0.0061901365 0.026200963 -0.008431655 -0.020637594 0.010028358 0.017476069 0.02344209 0.013928241 -0.0077771596 -0.005440728 0.0051909247 -0.012714196 0.008183558 0.00533426 -0.011649207 -0.013642115 -0.0010083208 -0.00042526034 0.022226952 0.0003063606 0.0007049443 -0.034584157 0.011927651 0.002068172 0.008966942 -0.02582029 0.020492868 -0.013355299 0.01937354 0.02452597 -0.015008238 0.02319862 0.0028890518 0.00048142904 -0.0072160107 -0.016190352 0.011470024 -0.008111772 -0.003174395 -0.017475411 0.04245407 0.0017166033 -0.005812034 -0.0051507265 0.019317318 0.033522666 0.017138477 0.018262854 0.021127583 0.0049949633 0.008803275 0.044326928 0.017281886 0.0068210247 -0.021271482 0.0172496 0.006973916
김 -0.0065527437 0.016380975 0.016107634 -0.016933782 -0.007392273 -0.03769353 0.004929313 0.057797045 -0.015279166 -0.023816226 0.0015291111 -0.03894628 0.0009556181 0.004410838 0.008456233 -0.011464931 0.006577177 -0.025557745 0.0077983644 -0.04924229 0.01194351 0.0033341649 0.016198287 -0.0123958355 -0.01559046 0.011014755 -0.013256181 -0.018102918 -0.0116265295 0.004603265 0.023627661 0.00589605 0.011159021 -0.01193878 -0.00059598923 0.033286817 0.013674188 -0.023010653 -0.025422163 -0.04338174 0.0017884547 -0.026057938 -0.018214874 0.008278567 0.019996587 -0.019286616 -0.019551735 0.0015548993 0.00524425 0.015568947 0.0057409336 -0.016908888 -0.013740801 -0.0015972804 -0.013224267 0.016042443 0.002663433 -0.010832119 -0.010789416 0.0025744995 -0.00709359 0.010332572 -0.0058780923 0.0059784004 -0.039003644 0.022500012 -0.0008229792 0.011341661 -0.024171183 0.022912422 -0.012088588 0.021211999 0.024068367 0.0066747414 0.02425066 0.021522745 0.0048728064 -0.013473304 -0.026757812 0.019289767 -0.005763571 0.007917227 -0.007339991 0.0426209 -0.009456114 0.0038910809 -0.00015471062 0.021949125 0.032336377 0.016461508 0.034174263 0.014384444 0.00052219414 0.0065949443 0.028828518 0.024320357 0.026583852 -0.032678258 0.00994375 -0.0030943737
천 -0.002796479 0.023878569 0.008505054 0.00045273453 0.001497086 -0.033191767 0.004416377 0.053635787 -0.015169382 -0.018271089 -0.0024198457 -0.029187992 -0.009355756 0.0062531843 0.00931921 -0.021401696 -0.00048113771 -0.027548382 -0.0010010431 -0.04568927 0.009014713 -0.0035798198 0.009895624 -0.016161414 -0.017912915 -0.0024860702 -0.019369537 -0.005561046 -0.012743809 0.00061952445 0.019593157 -0.0036825987 0.0017986443 -0.018281654 -0.0072453353 0.026191782 0.011533995 -0.018677337 -0.025858156 -0.0439698 -0.0062225517 -0.025093421 -0.007986058 0.007091985 0.022282 -0.012283231 -0.005378652 0.003361572 0.008797325 0.021950508 0.012327671 -0.019481706 0.003073324 0.0025647993 -0.021338077 0.01387924 0.008207043 -0.002868549 -0.018235197 -0.002463193 0.0049588755 0.012940635 -0.0073892665 0.00028433348 -0.031579558 0.02291596 0.014653746 0.025718128 -0.03328008 0.025110966 -0.018489756 0.020488098 0.027560834 8.686761e-05 0.022704624 0.015374405 -0.0074394844 0.0055127116 -0.023077818 0.0053640767 -0.012982678 0.009563994 -0.020219257 0.028100466 0.007111509 -0.00091937796 -0.0034445936 0.010312446 0.03285442 0.016378405 0.029193364 0.007043151 -0.008524821 0.00483955 0.03815894 0.015468363 0.006280899 -0.02687722 0.0012582229 0.0014988421
추진 -0.013032756 0.008645656 0.016577503 -0.01478512 0.005282606 -0.02033092 0.0046582823 0.053371493 0.00021094843 -0.018200517 -0.013010232 -0.037638035 -0.015095128 0.004969892 -0.0035656877 -0.022775402 0.005066364 -0.015582286 0.009682735 -0.037557773 0.0075374623 0.0065419753 0.0074810716 0.0010935923 -0.006480948 0.012502001 -0.01972296 -0.003046411 -0.01873825 0.009091495 0.014758614 0.0048513953 0.0030297616 -0.017296758 -0.011709337 0.013582373 0.0018064689 -0.02635187 -0.013218887 -0.036590137 5.805974e-05 -0.015007123 -0.011662531 -0.0011984991 0.013873165 -0.020289265 -0.0056143883 -0.0037132977 0.0043114685 0.01912614 0.0165953 -0.020083552 -0.0033786206 -0.008338274 -0.012885767 0.010264144 0.0036929715 -0.0052397605 -0.007665878 0.006916204 -0.0066694734 0.0060361745 0.0009012646 0.0051769344 -0.028838925 0.015197209 0.01585413 0.013863919 -0.03247837 0.023202574 -0.007657007 0.017535858 0.028439995 -0.01065891 0.019410107 0.008496798 0.0035089175 -0.011408887 -0.027487343 0.009631437 -0.018954381 0.004980055 -0.013663599 0.040430255 -0.005695519 -0.00057656027 0.011428048 0.011919092 0.016309645 0.012132664 0.025666406 0.008113 0.0077836914 -0.006681828 0.031993944 0.021755824 0.022774065 -0.016864983 0.011654105 0.011505581
광양시 -0.02112044 0.022982053 -0.00189447 -0.007861797 -0.0046989443 -0.029812302 -0.0010655577 0.034346763 -0.01383683 -0.013529356 -0.0114746075 -0.022918146 -0.016560553 0.0015605054 0.012743718 -0.0073254476 0.010949872 -0.014821894 0.0043964037 -0.039946027 0.01841556 0.008254975 0.015150028 -0.00042597437 0.0013022402 0.0141168265 -0.021955686 -0.018682675 -0.013934682 0.0071070413 0.028989097 0.009180064 0.009811932 -0.022278182 0.00044685978 0.017494678 -0.00083718105 -0.008831349 -0.014440189 -0.03894519 -0.00054062984 -0.026504045 -0.003773269 0.004260666 0.019144373 -0.017022267 -0.018828662 0.001949267 0.017867122 0.0088937655 0.008393242 -0.011585927 -0.010824659 -0.00011501979 -0.014501848 0.017351018 0.011227699 -0.009369854 -0.01776375 0.0076254155 0.0084445225 0.018173292 -0.0024240196 0.012162768 -0.015755337 0.013674736 0.014808693 0.019322349 -0.0164219 0.019363007 -0.015990445 0.0060374583 0.01414865 -0.00078277587 0.028480312 0.017781707 -0.0034105643 0.0037195142 -0.01543142 0.004512623 -0.007760348 -0.005008381 -0.0040845065 0.034493476 0.0043274662 0.0040875077 0.012145333 0.023104496 0.02059108 0.0018640603 0.031227462 0.016900616 0.0026162919 -0.0009081032 0.021907974 0.014847329 0.022814604 -0.02553535 -0.002123909 0.0134653635
계획 -0.0046265344 0.023662241 0.008253057 -0.013575831 0.009985662 -0.027905742 0.012099968 0.04783766 0.0008229655 -0.022292018 0.0030696609 -0.03911911 -0.013821913 -0.00091153494 -0.0017766689 -0.007565155 0.012312422 -0.021797122 0.0070407526 -0.03741878 0.020000683 0.011056001 0.0062195905 -0.010392051 -0.014521272 0.009758769 -0.009141654 -0.013317477 -0.008333427 -0.0046180226 0.01152323 0.0021730273 0.00096565933 -0.02356627 -0.011839538 0.01405097 0.019101521 -0.010498622 -0.016213149 -0.027331844 0.010466529 -0.022709709 -0.0034735221 0.003837602 0.027577953 -0.0009913336 -0.018455205 -0.00045657012 0.01187325 0.018049868 0.012918772 -0.0077073555 0.0010011839 -0.010935534 -0.016703675 0.0064096344 0.01711039 -0.0021940921 -0.0139544 0.0034400967 -0.0049565337 0.0049585346 -0.004030697 0.008476309 -0.019999627 0.020532288 0.003501964 0.012041804 -0.02251822 0.018211527 -0.019029116 0.0021109672 0.02991704 -0.0046482147 0.016566297 0.00071344577 0.008456146 -0.002759974 -0.016915513 0.011923922 -0.018087978 0.0018057136 -0.010955459 0.020408206 0.0052127764 0.0019942548 0.011707764 0.020138493 0.019071538 0.0018311276 0.029912896 0.012063823 0.006111749 0.007695394 0.031078298 0.014152953 0.013374694 -0.014563106 -0.0011355611 0.012187687
주민 -0.016832408 0.015929136 0.0076211095 0.0038900909 -0.0039041135 -0.025193762 -0.0010614372 0.037684042 -0.012560946 -0.0011656686 -0.009139691 -0.03397383 -0.010677555 0.013495339 -0.0036223696 -0.016392024 -0.0047778366 -0.009279993 0.006529763 -0.024516823 0.005227061 0.011693089 -0.00079459156 -0.008844596 -0.010899163 0.00334137 -0.011669484 -0.00083218474 -0.013207151 -0.009232857 0.011965723 -0.0045159967 0.004771126 -0.003973638 -0.0123339 0.026862027 0.016105287 -0.02140996 -0.022353943 -0.019547122 0.00988287 -0.022670856 -0.013775481 0.0081421 0.021566441 0.0009244389 -0.019998688 -0.008399473 0.0098365685 0.00075883756 0.0025499987 -0.013982853 0.0071650585 0.0072253416 -0.013457804 0.016844941 0.014191308 -0.008966973 -0.0037593485 0.007854766 0.004690017 0.0045886002 -0.01183073 -0.0014588541 -0.010424046 0.0046027894 0.0017642834 0.020868083 -0.014585245 0.02225667 -0.019001642 0.007421481 0.025203558 -0.008600027 0.023320993 0.015744481 -0.0013691958 -0.004675938 -0.015128172 0.0019866007 -0.015544071 -0.0026359283 -0.013926428 0.02774448 -0.007232892 0.0053591304 -0.0046716193 0.0038936147 0.026108703 0.016947463 0.0150148 0.011526946 -0.0055855364 -0.008201634 0.017095614 0.024266465 0.017710164 -0.007951942 0.011102248 0.009221138
개 -0.010101404 0.004430212 0.011135198 -0.005093073 0.0066150813 -0.024417011 0.004546284 0.051380076 -0.007787537 -0.012344 -0.010538389 -0.03899489 -0.0150186615 0.016165271 -0.006082954 -0.0055132937 -0.005220649 -0.019575201 0.0009304684 -0.043021273 0.02028828 0.01278865 0.011219225 -0.0020679461 -0.008070221 0.014698843 -0.0034786025 -0.02243388 -0.021000134 -0.001909727 0.026004301 -0.00070658734 0.0030479971 -0.025065243 -0.003531902 0.028149819 0.014757192 -0.021529155 -0.024156423 -0.046217278 0.00095128897 -0.030516447 -0.015834358 0.0060521425 0.029709589 -0.0066247694 -0.022412043 -0.0033821065 0.01917747 0.01695091 0.004638103 -0.02092162 -0.002455323 0.0013942491 -0.012271242 0.016562095 0.0018343645 -0.018506201 -0.022656683 0.00019230705 0.0074828966 0.016364912 -0.0062213917 0.008092533 -0.023508975 0.019061267 -0.004037581 0.023456262 -0.017238325 0.02666474 -0.006277572 0.020320762 0.026100472 -0.006354996 0.020325867 0.0008872054 0.0071448293 -0.0092797065 -0.011246614 0.0046483804 -0.00872147 -0.009908026 -0.022753999 0.021246813 -0.0075873355 0.0002518351 -0.004258259 0.010002995 0.01640859 0.004998321 0.02996133 0.015119078 0.009781743 0.008442209 0.022490168 0.027857766 0.004373762 -0.024916045 -0.002533062 0.006301683
시장 -0.0100204935 0.02215412 0.009897722 -0.012668686 0.008728671 -0.03400998 0.016416198 0.049795143 -0.014358376 -0.017798033 -0.011525635 -0.036802944 0.0035228506 0.006026059 0.011412587 -0.025156897 0.0046125115 -0.022858957 0.011624485 -0.04627665 0.021040004 -0.00055873994 0.0010375429 -0.014407288 -0.010847452 0.0016611766 -0.015098126 -0.01913571 -0.016480083 -0.00060059933 0.022263428 0.008961055 -0.005787528 -0.021178871 -0.001998586 0.03301019 -0.001081132 -0.0117631955 -0.011278597 -0.042834435 0.011417936 -0.03382528 -0.002702308 0.0060100975 0.025384799 -0.015249394 -0.020509547 -0.0005182341 0.013370088 0.01423807 0.018081088 -0.0038659626 0.005628985 -0.0072650467 -0.0039653243 0.014107322 0.012037515 -0.0057422556 -0.016535878 0.003670428 -0.0029032496 0.0068337726 -0.016056998 0.0057745143 -0.019624544 0.016741263 0.0076820888 0.019395003 -0.01665167 0.015643762 -0.012313211 0.0037766562 0.027681444 0.00559324 0.028272867 0.015081427 0.0069763036 0.0035271787 -0.01378751 0.018883293 -0.014969167 0.009957233 -0.009077299 0.028786093 0.008865552 0.004172271 0.013619106 0.019024359 0.034192305 0.011797113 0.033909973 0.01443536 0.0070513813 -0.002391926 0.038177967 0.028915295 0.012572097 -0.025968755 0.010358237 -0.0032026141
기업 -8.493315e-05 0.0024564874 -0.00019689488 -0.001299763 0.007143625 -0.028365476 0.009290628 0.04737859 -0.016003042 -0.016698612 -0.01059092 -0.03006393 -0.004753533 0.01720391 0.009456342 -0.012573638 0.005575003 -0.008942876 0.011732772 -0.024484029 0.017045988 -0.0025964743 0.0018662359 -0.012322378 0.0005452741 0.002786078 -0.018541064 -0.0022962196 -0.0067578186 -0.002831963 0.028845208 0.0021773796 -0.0025757581 -0.016129063 -0.005700737 0.016738765 0.011763234 -0.009245526 -0.006852626 -0.042138375 -0.000755817 -0.02510673 -0.0007776142 0.0071877483 0.014726773 -0.0055757007 -0.019421991 0.002329331 0.018996429 0.0089871865 0.0027794777 -0.01973456 -0.006428211 -0.0037689633 -0.008373543 0.0222188 0.003289365 -0.005205978 -0.0031456067 0.0011970772 0.0033151577 0.02021498 0.0024978607 0.010416399 -0.02759808 0.023051227 0.010773645 0.022605374 -0.021833215 0.022711186 -0.0042661848 0.0067311344 0.027154027 -0.00088880496 0.026538674 0.0046924553 -0.0047175814 0.0038314075 -0.026753671 0.00043423177 -0.014639274 -0.00092221657 -0.014045095 0.032926306 0.009145648 -0.0014193605 0.0044607967 0.015789436 0.01792023 0.00081176625 0.027494285 0.005124503 0.0058248052 0.009821388 0.02805439 0.021325888 0.016801657 -0.023304962 0.0085727675 0.0032475807
시민 -0.0058930935 0.02014778 0.009705326 -0.00027550693 -0.008413063 -0.020519406 0.016016869 0.04038596 -0.008427376 -0.01823101 -0.0049246047 -0.02756907 0.00010791502 0.008202811 0.006727943 -0.012690791 0.012351634 -0.025006855 -0.002123671 -0.039471284 0.009985938 0.0112785855 -0.0011994428 -0.0101746535 -0.01629671 0.010861496 -0.013579476 -0.02220027 -0.012129777 0.009553729 0.020078428 -0.0012309103 0.0053036963 -0.017776994 -0.017587498 0.03136649 0.0023213357 -0.02386693 -0.018599937 -0.043594614 0.0041364124 -0.013195829 -0.0051976996 0.008563786 0.022039475 -0.008399917 -0.01824473 -0.007393095 0.015588803 0.01569482 -0.0006658571 -0.018717242 -0.015154562 -0.007846036 -0.010157556 0.022843836 0.012236503 -0.0054867417 -0.006791194 -0.0011769738 0.002137631 0.0032332193 -0.008762086 -0.00031184137 -0.025272468 0.022369612 -0.00020550578 0.011192742 -0.030727379 0.019079065 -0.018015428 0.011763078 0.027086616 -0.009260588 0.015333765 0.010259484 0.004200012 0.002563916 -0.023694456 0.0056882952 -0.015004877 -0.0005271959 -0.012295273 0.03245358 0.008267273 -0.0030886151 0.0034148234 0.01000819 0.02149159 0.0028644504 0.022992145 0.011524384 -0.007969776 0.009968787 0.019850811 0.011480786 0.005695931 -0.015445626 0.010849461 0.01294361
남 -0.006813124 0.014079116 0.0034525543 0.006436058 0.00302356 -0.016338158 0.004069903 0.037404366 -0.0008675766 -0.012510312 -0.001169871 -0.025956921 -0.00078768807 0.009682188 0.00591818 -0.018292475 0.00022550729 -0.01021244 -0.0034579844 -0.027763642 0.009794299 0.006293597 -0.0037617367 0.0032287994 -0.0066234823 -0.002231856 -0.0048931884 -0.011332523 -0.022596577 -0.0054161777 0.018653568 -0.006075724 0.0016997688 -0.010729416 -0.008238145 0.020360997 0.009073995 -0.0032527237 -0.010123177 -0.028615566 0.00576759 -0.020050101 -0.019101735 0.009038171 0.016738536 -0.019301314 -0.016954241 -0.0036205216 0.0135403685 0.016235802 0.01553935 -0.01895351 -0.0038804119 -0.0061638 -0.01560882 0.020453874 0.010146416 -0.010706491 -0.020880213 -0.0067825513 0.0023822493 0.019184064 0.0022456818 -0.006744726 -0.032172684 0.019580476 0.0021447465 0.009225081 -0.013321107 0.011963747 -0.0042089666 0.009801834 0.012424997 -0.0021651017 0.022713067 0.017947486 0.0022548125 0.0027041186 -0.02396909 0.0069949366 -0.013831122 0.0001317368 -0.01321137 0.022743115 -0.0073328307 0.008591771 0.0069117234 0.01026688 0.012685452 0.017070713 0.010808302 0.012128203 0.0024368851 0.010604204 0.032470103 0.01378861 0.015062482 -0.019452833 -0.0077350945 0.00017910627
운영 -0.010444321 0.020838946 0.017276127 0.004337339 -0.007739887 -0.018281525 0.00074964314 0.041315664 -0.008327087 -0.005203976 -0.0012433705 -0.024458854 0.0032229263 0.0086093135 -0.0027170286 -0.02007772 0.010491411 -0.023385627 0.0010652309 -0.0278933 0.00888656 -0.00078991754 0.0044748588 -0.0049757077 -0.0041597215 0.011388882 -0.01583409 -0.007865668 -0.008522213 0.0029293464 0.026663965 -0.0016334415 0.008007448 -0.024411434 -0.0026243655 0.012582972 0.0070482115 -0.025973719 -0.016617116 -0.040285937 -0.0019672452 -0.020519678 -0.005486071 -0.0017098584 0.013527579 -0.015132653 -0.013572352 -0.0014575358 0.0006435993 0.011171908 0.016640015 -0.0068257777 -0.013745748 0.00073145406 -0.018777726 0.0034513134 0.008021728 -0.0074885706 -0.02263129 -0.0059920116 -3.8945254e-05 0.018999575 -0.014157265 0.010369288 -0.024317482 0.014491055 0.015833447 0.019345943 -0.02532216 0.024750562 -0.009155508 0.017098805 0.023003925 -0.008910989 0.019880611 0.0022814642 0.00060406764 0.0022956776 -0.013174375 0.01866418 -0.01710436 -0.0050526145 -0.004901112 0.02964896 -0.0065414663 0.00058987836 0.0053051175 0.012026704 0.015752817 0.015413446 0.03090694 0.0025064654 0.0006527481 -0.0024866164 0.021184893 0.019087201 0.007953491 -0.012196105 -0.00059788226 0.007728621
아 -0.018867668 0.02337396 0.011382099 0.0069685825 0.0019893015 -0.038425405 0.006601968 0.058616597 -0.018675117 -0.027324488 -0.015775314 -0.048304573 -0.0005637963 0.014689242 0.018970849 -0.009572971 -0.006798785 -0.02534483 0.013557849 -0.041972347 0.020552732 0.015319402 -0.00033575957 0.003406586 -0.0005947249 0.01705324 -0.02535463 -0.0064379424 -0.014328498 -0.0051448485 0.017313428 0.013281287 -0.0061725033 -0.02984385 -0.0058918246 0.041202333 0.024312867 -0.03182297 -0.03599265 -0.032966822 0.011257278 -0.03548107 -0.022066072 -0.0050498284 0.02602518 -0.016610242 -0.019015372 0.0015628984 0.009956686 0.0075496435 0.024448546 -0.02249662 -0.012696523 0.004993882 -0.013031738 0.029287143 0.0014048938 -0.017249353 -0.017860932 -8.22818e-05 -0.009102411 0.01684044 -0.0069702496 0.011194826 -0.021889213 0.022518132 0.001830419 0.020022076 -0.035952847 0.036938608 -0.026508385 0.016156983 0.028277466 -0.0123786 0.014678819 0.01836132 -0.0142181665 -0.0054230466 -0.020343658 0.02241483 -0.021900294 0.006429031 -0.004923536 0.02827301 -0.003897146 0.0055712955 0.011898068 0.023444323 0.041027598 0.011637777 0.032964326 0.012776746 -0.009066295 0.0064700046 0.042237487 0.015741127 0.016054858 -0.029461667 0.008935024 0.016142158
중 -0.015731381 0.009414307 0.014904896 -0.012370501 -0.009255326 -0.028567662 -0.0011956639 0.046229113 -0.008553278 -0.015877236 -0.013307939 -0.03290038 -0.008475371 0.012075899 0.010872466 -0.009002657 0.012084883 -0.02997308 0.013100809 -0.038691055 0.021802846 0.008004427 0.011710087 -0.01775958 -0.017591314 0.0154575715 -0.013892953 -0.008720024 -0.01006194 0.0006452294 0.033409324 0.0018783124 -0.0080162715 -0.025126697 -0.008583796 0.014915684 0.01757219 -0.01445743 -0.025159623 -0.029551 0.010989649 -0.01799461 -0.0022425505 -0.011161038 0.0249369 -0.019351913 -0.01872031 0.0027763173 0.012439337 0.01449103 0.011928788 -0.011462537 0.002361568 0.004720279 -0.02003498 0.021954106 0.013483789 0.002094462 -0.01206737 -0.0035849097 -0.00095547084 0.009744973 -0.009739671 0.012893537 -0.024736902 0.019634413 0.009983518 0.0074121263 -0.017358458 0.030993316 -0.016370662 0.013238114 0.018707106 -0.011340152 0.028660677 0.0061397413 0.005630972 -0.0010948963 -0.022639573 0.013350364 -0.014640987 -0.0031187045 -0.0116735445 0.035814606 -0.0009867415 0.00083345536 -0.005531159 0.025803687 0.013302218 0.017164301 0.027862268 0.0026797866 -0.0041269283 -0.008061144 0.024879746 0.02908183 0.02481096 -0.021386236 0.005647865 0.013723316
도시 -0.017561382 0.012279971 0.011109561 -0.010658787 -0.009281382 -0.034254517 0.015218693 0.0484844 -0.015418749 -0.021039408 -0.00429493 -0.02719028 -0.007983512 0.008950376 -0.0021876923 -0.008819942 0.004925807 -0.009396297 -0.007846265 -0.039357685 0.0006214769 0.0047968724 -0.00171191 -0.0016381972 -0.013855095 -0.0013408319 -0.0064229923 -0.018930113 -0.013777756 -0.006778558 0.031538367 0.012536208 0.004017028 -0.010037859 -0.0026979975 0.016730547 0.020057859 -0.028532 -0.006308845 -0.031507432 -0.003100744 -0.024120558 0.0014891521 -0.0063807513 0.030571215 -0.014905286 -0.0041095736 0.0016567708 0.019795686 0.009268286 0.01449796 -0.003444469 -0.00031338498 -0.0016445757 -0.0072312416 0.020660779 0.016995324 0.0018707318 -0.0073285233 0.0090218475 0.0116545465 0.0104619255 -0.007923999 0.003921783 -0.024217375 0.01432497 -0.003350545 0.0046236264 -0.025120683 0.030311901 -0.016731659 0.0030238929 0.029433005 -0.0035670423 0.021859081 0.011636471 0.0024451683 0.0014837007 -0.016476965 0.009087012 -0.00051509426 0.0025100894 -0.017133297 0.03633093 0.00513455 0.0029913906 -0.0014106805 0.01773788 0.028661966 0.01820897 0.022558205 0.0002244247 0.0017633825 0.001944682 0.031515423 0.010362886 0.024591612 -0.028960682 0.011964151 -0.0071793306
문화 -0.0021447751 0.022900673 0.008588239 -0.008009421 0.000605305 -0.02603667 0.00040192422 0.051426046 -0.008745121 -0.00901602 -0.013690004 -0.02280613 -0.0070347637 0.0084080035 -0.006233332 -0.011550037 0.010517811 -0.012698924 -0.003764168 -0.044408355 0.006911729 0.004723353 -0.00058672193 -0.015454643 -0.010163602 0.0068037417 -0.020481069 -0.01576597 -0.016658077 0.0066372617 0.025435925 0.0032237687 -0.0066515547 -0.025205616 -0.008253088 0.031830158 0.0157585 -0.020530954 -0.016779725 -0.047777988 0.0004135295 -0.027803995 -0.0043951767 -0.0020210836 0.019149015 -0.018434035 -0.016478295 -0.0055099665 0.0104379635 0.008633438 0.0069821286 -0.015989674 -0.012485279 -0.0045946753 -0.012543296 0.010853373 -0.000646716 -0.011352492 -0.025831843 -0.0015653626 0.008568988 0.008520266 -0.0047015445 0.00793644 -0.016316157 0.019876705 0.01676031 0.006280432 -0.03195676 0.01633943 -0.0223927 0.0011794659 0.015616938 -0.0073733367 0.02165268 0.0061763544 -0.0101217795 0.001864141 -0.019293435 0.014252093 -0.0026367237 0.008015105 -0.014995027 0.034303393 -0.0059280023 0.0027092714 0.0066482425 0.02566167 0.019830255 0.012216808 0.018333985 0.008545677 0.010276442 -0.0031368406 0.02784736 0.012026798 0.004966767 -0.01424832 -2.82115e-05 0.007925047
시설 -0.018405797 0.01115587 -0.0026222146 0.0026165487 0.0075248196 -0.019180708 0.0146020865 0.040698726 -0.018938657 -0.0022582663 -0.011360958 -0.020053595 -0.00057785225 0.0066477405 -0.0040759034 -0.015360585 0.009492529 -0.025789056 0.004014241 -0.0391556 0.020245183 0.002690681 0.016946323 -0.013359036 -0.01784317 -0.0039603687 -0.01495777 -0.004986906 -0.015162599 0.009165472 0.023506023 0.00636383 0.0037804332 -0.0081476 -0.0096706925 0.030152608 -0.0005093295 -0.014385273 -0.015636904 -0.03243103 0.008288096 -0.022938408 -0.011220334 -0.00033166914 0.019736692 -0.012366775 -0.0070858607 -0.004980047 0.018421113 0.011526858 0.011267401 -0.009510235 -0.0035679664 -0.0012976222 -0.016339133 0.017092068 0.0070041 -0.010477633 -0.023772677 -0.010583038 0.0026586885 0.0056160907 -0.0085545955 -0.0014956734 -0.0306294 0.015395966 0.01207328 0.012888558 -0.029903568 0.023402274 -0.0133115025 0.0037657984 0.020631222 -0.0048869816 0.015279875 -0.0022669265 0.006122895 0.0018221531 -0.020529427 0.015545501 -0.009448325 0.006590346 -0.0150924 0.03579831 -0.00078156416 -0.0065217777 -0.0026750201 0.024992922 0.021507049 0.009782636 0.030123945 0.0029891052 -0.0010169608 -0.007673193 0.020815087 0.010445407 0.01741824 -0.01858959 0.011843621 0.0054500997
센터 -0.008397346 0.019894594 0.00486329 -0.0007918023 0.009979173 -0.021988893 0.012796171 0.03208468 -0.002063945 -0.005740619 0.00026094494 -0.03738479 -0.0066173347 0.01059326 -0.0031459602 -0.020148352 0.009616968 -0.023661742 -0.002400144 -0.021831298 0.003169437 0.013148876 0.0067825676 -0.0011457157 -0.009154751 -0.0006919192 -0.019088967 -0.011172805 -0.020173723 -0.0036102205 0.027954146 -0.004654069 -0.0053959726 -0.021018727 -0.012053763 0.011755238 0.007523113 -0.0063962573 -0.0054293224 -0.036867134 -0.007070254 -0.022077272 -0.017276654 -0.005699272 0.013856785 -0.004388759 -0.021332463 0.0037497133 0.012739128 0.01687402 0.005769228 -0.021894645 0.0017636297 -0.0074127335 -0.007148553 0.0139569 0.015781935 -0.004410476 -0.016440995 0.0069530695 -0.0044738976 0.0014004416 -0.0015048806 -3.2075688e-05 -0.025398098 0.010460042 -0.005036747 0.014441827 -0.021877665 0.015671775 -0.009379657 0.014407327 0.027922329 -0.011484224 0.0114349285 -0.0007373465 -0.011065297 -0.006650449 -0.01826613 -0.0002260833 -0.012911889 -0.0027475448 -0.0040266896 0.027145425 0.008406852 -0.007908713 -0.0012996634 0.012614968 0.02848403 0.0096993195 0.021961171 0.0105763655 0.0033423805 -0.008977318 0.028719122 0.023267217 0.017032882 -0.015477024 -0.0037964922 -0.0015259617
환경 -0.0032468087 0.0135966875 -0.0035814152 -0.00025458258 -0.004674586 -0.016759126 0.0128625175 0.036439653 -0.0067336312 -0.0061073555 -0.01064892 -0.030415924 0.0038078001 0.016525496 -0.0071860333 -0.0068957354 0.012375047 -0.02139305 0.006670845 -0.03466029 0.021979364 0.003916807 0.012811444 0.0022106373 -0.0021430168 -0.0017385724 -0.01186262 -0.009248671 -0.013031709 0.0023124916 0.03078344 0.008359647 0.011385194 -0.025261892 -0.011074817 0.023410134 0.013110484 -0.0180008 -0.022132533 -0.037425794 -0.0075628483 -0.011544725 -0.005697168 -0.009179718 0.024921997 -0.0058604116 -0.01933417 -0.0036202006 0.011593882 0.02208666 -0.0010233202 -0.011763051 -0.011869288 -0.0035608837 -0.009035524 0.0074945823 0.003764224 -0.005460191 -0.021613758 0.0072655813 0.0077099665 0.0014679374 -0.00900686 0.0062805135 -0.032446664 0.006825909 -0.0031897903 0.008936872 -0.012361705 0.029121434 -0.010733816 0.00083682296 0.028072312 0.0012941557 0.017317574 -0.0011337956 -0.0028964002 -0.0032333727 -0.026404442 0.011581415 -0.008586041 -0.0074375346 -0.02064086 0.033663165 -0.008213432 -0.005446089 0.009638608 0.013946857 0.018396657 0.0038230647 0.020583848 0.014580774 -0.005824838 -0.0046969424 0.022443948 0.014688152 0.0040937206 -0.033015434 0.012269076 0.012025218
산업 -0.015023581 0.0030349405 0.0042260773 -0.008105958 0.010294575 -0.019642597 5.7658115e-05 0.037251167 -0.01897514 -0.009878889 -0.009963223 -0.029445995 -0.0007415968 0.015520712 0.006885776 -0.02093406 0.010345829 -0.026711553 -0.0037375144 -0.038683794 0.008960245 0.005293108 0.0016992769 -0.0043543386 0.0036423781 0.012335251 -0.011346666 -0.0006143183 -0.01322236 -0.0016985437 0.012945069 0.010250276 -0.008158575 -0.018380499 0.0021784683 0.018486433 0.010184682 -0.023246596 -0.009328219 -0.025026763 -0.008503157 -0.02311542 -0.000604521 0.003276389 0.020731531 -0.0077952044 -0.023743173 0.011892798 0.0075350003 0.0071767834 0.011493779 -0.010981732 -0.010301019 0.0036499728 -0.014455912 0.0058278805 0.01431986 -0.0006930211 -0.005153943 0.0014777955 0.0024733336 0.003179303 -0.002266636 0.012225515 -0.023183567 0.012213035 0.0017458736 0.012760432 -0.028109722 0.025891291 -0.010164928 0.019128017 0.014501634 -0.0087761665 0.0105850175 0.00019134488 0.0020695073 0.0026504074 -0.016596196 0.01217465 -0.018205535 -0.0003260693 -0.020098083 0.029457103 -0.002779517 0.008725407 -0.00027564212 0.020703131 0.024688803 0.010022584 0.020669028 0.017041126 0.0035415043 0.008870409 0.02986725 0.023587389 0.01757131 -0.029139154 -0.0005751589 0.0048931204
교육 -0.009352921 0.014351105 0.006448128 0.0047116727 -0.0039160484 -0.019635791 0.012296589 0.038095213 -0.0038328867 -0.005480565 -0.00595394 -0.034173902 -0.0026538805 -0.00233876 0.000657821 -0.021854486 0.0020504012 -0.023901591 0.011019413 -0.032443196 0.020284556 -0.005054165 0.0017702888 -0.0045046895 -0.007622561 0.0059460565 -0.013107873 -0.010905778 -0.018788535 -0.010501958 0.023797864 0.0029697833 0.0075062537 -0.022897163 -0.0021165807 0.008943059 0.015112752 -0.008260013 -0.01889224 -0.02135078 -0.00421182 -0.027633093 -0.0058634556 0.00295032 0.009448202 -0.016483307 -0.0024638004 0.0039324746 0.0097548915 0.012381718 0.004024116 -0.008456592 -0.00094309036 0.008160101 -0.016506149 0.013832947 0.011640732 -0.013060318 -0.022691846 0.008370007 0.009666148 0.005068808 0.00047605042 0.0035186377 -0.024634875 0.01048316 -0.0005647131 0.017905919 -0.016825967 0.008663641 -0.011115353 0.006052817 0.025927993 -0.003772278 0.023260085 0.007527423 -0.004971927 0.006180829 -0.012522453 0.00377338 -0.014015049 -0.0032779817 -0.015057977 0.026884783 -0.0097490195 -0.0067784893 0.0068617095 0.0128904665 0.023891704 0.0041489857 0.018570842 0.011769104 0.005896401 0.001693138 0.033337016 0.020567415 0.004144855 -0.019239958 -0.005396575 -0.001723283
대 -0.012693085 0.0025454646 0.016094208 -0.0021337273 -0.00022041208 -0.026557637 -0.0034999894 0.027015995 0.0008977473 -0.013755095 -0.00066465925 -0.0299665 0.005956275 0.010889449 0.0036283336 -0.016705185 0.0033596908 -0.01783442 0.009929506 -0.023435386 0.011394733 0.007983917 0.00929594 -0.012255997 0.0034295402 0.0066471305 -0.015190205 -6.942135e-05 -0.015537849 0.0076406333 0.016200697 0.009699088 0.004221169 -0.018555053 -0.010159172 0.029930899 0.010000416 -0.020783376 -0.012472891 -0.031163856 0.0032104168 -0.026380945 -0.0006060366 0.00072998053 0.028179785 -0.0031400525 -0.017462783 0.005478206 0.009276886 0.0005337699 0.016234547 -0.0015003318 0.0071901125 -0.0062560453 -0.01943186 0.016674494 -0.0017494818 0.0015801846 -0.010058498 0.005035163 0.0073915916 0.010826292 -0.008394381 0.0024180864 -0.010427369 0.004257384 0.0038342057 0.010604547 -0.014637386 0.025366638 -0.014282527 0.012993478 0.015605665 -0.00036786607 0.024815114 0.011858926 -0.0051630307 -0.0058375956 -0.009109556 0.018622942 -0.0017278374 -0.0036487763 -0.0123416865 0.017950658 -0.0048274086 0.0037161598 -0.004432615 0.0060526794 0.027342202 0.019224215 0.026979666 0.010295268 -0.0077287736 -0.0074355644 0.026648585 0.0075769047 0.0045258244 -0.017365815 0.001061688 -0.0056774644
대하 -0.0048196437 0.0056003937 -0.00046898963 -0.0067395056 0.0025181335 -0.027260268 0.0019838838 0.050910752 -0.0014545887 -0.021753611 0.0040838816 -0.023940964 -0.015007921 0.006308055 0.00763205 -0.0075301086 0.00060315337 -0.027685342 0.0086290585 -0.04442 0.0063021006 0.0050818245 0.012639369 -0.012246448 -0.0026293776 0.005669328 -0.007864084 -0.004474389 -0.01539674 0.0091019105 0.023435261 -0.00485416 0.01149013 -0.021999681 -0.0009378194 0.020048711 0.0033416853 -0.025258532 -0.011888009 -0.03751509 0.0022870512 -0.031450637 -0.014973588 -0.006482795 0.03232399 -0.018558366 -0.008784777 0.0025333958 0.012948894 0.021920415 0.006005495 -0.020523863 -0.0030724367 0.0050704503 -0.004188499 0.010228437 0.009320759 -0.0028323603 -0.021588111 0.005753838 -0.0049779606 0.015005052 -0.0042141434 0.0065904274 -0.029968943 0.018408094 0.0131681375 0.025598977 -0.034257863 0.028957454 -0.008757808 0.009370571 0.034453187 -0.00823764 0.017901862 0.0022117642 -0.006164837 -0.0033257653 -0.023919985 0.0049167364 -0.0032535999 -0.004902345 -0.019391347 0.03775141 0.009788858 0.0038880168 0.0025297229 0.015570158 0.02111501 0.017728463 0.016942302 0.011594383 0.0053839623 -0.00040813573 0.030808562 0.023848837 0.023757918 -0.021355826 0.016314983 -0.0025387942
조성 -0.0036706899 0.006470135 0.00059494213 -0.0026449752 -0.00310976 -0.024160035 0.008087018 0.041978296 -0.014386077 -0.018081289 -0.009047228 -0.015042926 -0.015358236 0.016608875 0.001742981 -0.008784677 -0.00031382407 -0.019859554 0.005522485 -0.01920642 0.0021972272 0.003767256 0.0071262834 -0.0007724728 0.0029218043 0.0004682694 -0.0012887312 -0.013189407 -0.014421101 0.009327021 0.02193006 -0.00588392 -0.00049508864 -0.021807835 -0.0068116924 0.0233902 -0.00044772073 -0.008591179 -0.005436314 -0.03149868 -0.009299354 -0.018999936 -0.008746321 0.0035626257 0.026489018 -0.00525552 -0.013468481 0.004962501 0.0010847778 0.008758542 0.0054249526 0.00064378267 -0.009399544 -0.009545405 -0.008104593 0.012202203 -0.0018468273 -0.011764895 -0.0136604635 -0.0038279388 -0.006598806 0.0043883184 -0.008465062 0.008984634 -0.017559916 0.012699053 0.00550457 0.0073382608 -0.014603871 0.017651314 -0.004235116 0.007219026 0.009552664 -0.0027511506 0.025459599 0.0008579584 -0.0056967293 -0.0056011216 -0.0053441417 0.006581667 0.001777213 -0.008514598 -0.001918599 0.013281769 0.009830727 0.0022022433 0.004787765 0.004973852 0.02540454 0.013489718 0.011096202 -0.0023262082 0.00824376 -0.006426275 0.011485243 0.017986624 0.00589948 -0.024625482 0.01394165 0.0008098505
씨 -0.012660265 0.00969826 0.0035647748 -0.009502674 -0.0049173753 -0.030650405 -0.0016144251 0.052895717 -0.0026450513 -0.0164604 -0.002968839 -0.037167113 0.0015492388 0.016581085 0.0052124388 -0.02090228 -0.00084086385 -0.013585549 0.0007275992 -0.029679283 0.021872882 0.010708456 0.0017940981 -0.0018497725 -0.010266266 -0.0011184129 -0.0038616904 -0.02010841 -0.016853172 -0.0017220475 0.012184316 0.0030957072 0.0071807196 -0.021590546 -0.014279746 0.029063318 0.006673802 -0.026060455 -0.016009342 -0.033856157 0.00947299 -0.020193072 -0.001496978 -0.01030666 0.027231019 -0.0019770327 -0.013236805 -0.00074194995 0.012164479 0.011876168 0.00073355564 -0.020475382 -0.0019162161 -0.0046916124 -0.0027925672 0.011696994 0.012797292 -0.0044845254 -0.0067020846 -0.009465811 0.004104427 0.010515947 -0.0059170104 0.001911347 -0.030798672 0.023159126 0.002551904 0.01647265 -0.029777579 0.026156329 -0.003373983 0.008118786 0.03026694 -0.0042571053 0.027043749 0.018885488 -0.0021186112 -0.0050422964 -0.029065963 0.020207375 -0.012012982 0.0019054835 -0.015428545 0.037169658 0.008234977 0.0010581962 0.005749142 0.020388495 0.025085296 0.017085051 0.022684028 0.007153757 0.0061835265 -0.002587928 0.02611952 0.029496377 0.0038092134 -0.025059288 0.0023476167 0.009454477
어 -0.0036181319 0.008380433 0.014095935 -0.0046375236 -0.009631841 -0.029388657 0.0061582634 0.04064528 -0.010979538 -0.020117098 0.0022004922 -0.019857863 -0.009347598 0.012455708 0.0017509563 -0.01654329 -0.0054649645 -0.017717272 0.008545836 -0.028116453 0.020200795 0.0106248185 0.014506246 -0.015102983 -0.010203075 -0.0014424764 -0.0027758726 -0.003511869 -0.02182478 0.002118201 0.02853815 0.0069570793 0.003512721 -0.024422735 0.006360666 0.015986295 0.0030304058 -0.024955846 -0.024362909 -0.041798513 -0.009141776 -0.022472465 -0.015422827 -0.0032327687 0.030828834 -0.0054433323 -0.01370515 0.0021777477 0.022830425 0.013311288 0.016008941 -0.005290876 -0.015582435 -0.011391697 -0.0014419494 0.017349118 0.0056466656 -0.0023845502 -0.019789552 -0.007964253 -0.0070028016 0.020299746 -0.012087085 -0.0066414312 -0.03292165 0.023838537 0.0034030417 0.0096926205 -0.02606407 0.02089755 -0.016410142 0.007798015 0.030134372 -0.0011198922 0.015393171 0.011904109 0.0053427313 -0.014847819 -0.029075457 0.017539829 -0.018008605 0.0008254293 -0.024487061 0.04029458 -0.0036611347 -0.007453657 0.0015769606 0.011593023 0.032133855 0.021259947 0.023211515 0.0127868075 0.005900012 0.000117806085 0.024477871 0.019454915 0.015339219 -0.0141981 0.003030725 -0.00816336
않 -0.0037580242 0.022663476 -0.00057730515 -0.005192065 -0.0047584944 -0.015279866 0.015089673 0.03636085 -0.003752755 -0.0042377003 0.0002984134 -0.034367755 -0.0025478813 0.00518231 0.00086014724 -0.0069237296 0.00043521202 -0.0062038037 0.0029651872 -0.029354416 0.0075596864 -0.0038563868 -0.0039402894 -0.00095525966 -0.013470314 0.008243195 -0.0055322754 -0.01685403 -0.017222976 -0.005773069 0.0095732855 0.003102437 0.012356692 -0.021110905 -0.010554699 0.028772831 0.017520528 -0.0047824755 -0.023261603 -0.025101248 -0.005021012 -0.0111075975 -0.0022410117 -0.0037711465 0.026824111 -0.016379647 -0.0070215026 0.0071019293 0.01618646 0.016269052 0.0042343005 -0.0065947627 -0.009170578 -0.009363075 -0.007462537 0.0018088819 0.0048905686 -0.005209225 -0.0046632374 -0.0076046446 -0.00045943834 0.0051941434 -0.012595389 0.001396896 -0.015935818 0.006990073 0.004077633 0.021825466 -0.020566491 0.015368521 -0.004042668 0.009729275 0.019717606 0.007385662 0.024921 0.011744233 0.0026492265 -0.0058268947 -0.0076527507 0.013273205 -0.012397705 -0.0063402583 -0.012057089 0.016985465 0.0038043375 -0.010205938 0.0003040868 0.016129972 0.021829892 0.011943926 0.008764489 0.01207936 0.0063452134 0.0038256391 0.032489646 0.01910176 0.018144835 -0.009506918 0.003972424 0.0022836155
공사 -0.00987778 0.006660548 0.012357247 -0.011114798 -0.0025937497 -0.026575 0.014690174 0.04609856 -0.010802481 -0.015989562 -0.0087391175 -0.031603273 -0.01232197 0.0037595166 0.0031446118 -0.008733974 0.0053698365 -0.011249284 0.0040993374 -0.03654191 0.0038637405 0.011358237 0.014298068 -0.012630461 -0.00053982995 0.015584212 -0.0175581 -0.013676671 -0.026425939 0.0023679216 0.016944943 0.0047244555 0.01204854 -0.025281373 -0.017062956 0.024710927 0.0006282455 -0.027467579 -0.025465809 -0.035211854 0.00021656156 -0.020702329 -0.010409395 0.009920852 0.031861365 -0.016321085 -0.005107503 -0.0073296907 0.010225959 0.015188379 0.008536213 -0.016204312 -0.0023560694 -0.0018305711 -0.02249041 0.008430258 -0.00036468016 -0.0030220193 -0.016735071 -0.009161349 0.009011474 0.012378023 -0.0045866254 0.009042751 -0.028237462 0.022390526 -0.0026887162 0.01122814 -0.03040165 0.022579992 -0.02076907 0.020073103 0.02880236 -0.011111362 0.026223185 0.015694363 -0.008138624 0.002152103 -0.027121905 0.019147852 -0.004198566 -1.5090013e-05 -0.021968523 0.028503845 -0.00079259503 0.0014658006 0.0124927005 0.011287232 0.01286307 0.00041207386 0.020274328 0.011666287 0.001040832 -0.0010667278 0.037667498 0.019833058 0.020929223 -0.017658556 -0.0028515465 0.0015041367
차 -0.019764856 0.008420792 0.0050435564 0.0025361949 -0.00022422227 -0.018092839 0.004874768 0.040376794 -0.006914314 -0.010499697 -0.0072759683 -0.034333058 -0.013979786 0.012794585 -0.0047441446 -0.024781216 -0.006787713 -0.010423803 0.00752773 -0.027571052 0.023432793 -0.0009619205 0.012760366 -0.0042783963 -0.00038769687 0.0021482517 -0.0017081471 -0.018552395 -0.010280177 0.0077841887 0.023083748 0.008498496 0.008931913 -0.016397815 -0.0002814164 0.027592111 0.009739431 -0.0106547875 -0.012244698 -0.041441422 0.004154031 -0.023331039 -0.004615324 -0.006064264 0.019291388 -0.0111265825 -0.011065256 -0.004279397 0.019725887 0.010033613 0.015773462 -0.011423539 0.003554302 -0.0073691146 -0.017382564 0.017823292 0.0042884937 -0.002809549 -0.022093365 0.0014155606 0.0013200514 0.012158582 -0.005617911 0.0011562381 -0.029418688 0.0063006408 0.009269073 0.02245086 -0.03019273 0.033093754 -0.011040679 0.005278757 0.024159256 -0.000115531686 0.012223247 0.011380853 0.0032877936 0.0029951667 -0.015212487 0.013838117 -0.012249745 -0.006683606 -0.0045160945 0.022629932 -0.0015182345 -0.003967907 0.00995986 0.00888352 0.027461255 0.013415551 0.019636218 0.002154066 -0.008054072 0.003585997 0.020214235 0.027800838 0.011514996 -0.03376397 0.0007753368 0.010838533
지난해 -0.012043454 0.01933115 -0.0032494953 -0.014148971 -0.005242198 -0.02074253 -0.0014039753 0.029112956 -0.01750412 -0.011535745 0.0025390664 -0.03532876 -0.0123779 0.008306474 0.0066218944 -0.021314206 0.010578453 -0.026493909 0.0078083593 -0.02093169 0.017034972 0.011868123 0.015255025 -0.0029515708 -0.013995749 0.010783055 -0.01786779 -0.015851239 -0.008996798 -0.008176054 0.013957375 -0.0006232508 0.004907325 -0.009985599 -0.0044809226 0.02601763 0.00605244 -0.011665605 -0.023315122 -0.03399126 -0.0063694404 -0.019409446 -0.003891253 0.004855924 0.016327411 -0.0067750025 -0.0041761375 -0.0042455443 0.0055172304 0.0102050435 0.0031735052 -0.00262889 0.005294824 0.006974079 -0.0018771931 0.0031516284 0.0050879563 -0.015103379 -0.017970877 -0.010394093 0.006955535 0.011057392 -0.013849083 0.010400885 -0.020981947 0.013860247 0.0011624752 0.010210739 -0.023607206 0.027445365 -0.009935372 0.004083879 0.025588248 -0.0025645436 0.013923463 0.016188703 -0.005067261 0.0049845316 -0.021827506 0.0008842552 -0.013171437 -0.003969016 -0.011840522 0.024554836 0.0053012343 0.005298167 0.0008575579 0.017213741 0.017380089 0.008752043 0.017689953 0.006912346 -0.0036338337 -0.0037923222 0.026543679 0.020105831 0.003130997 -0.013391659 0.0023214784 0.00073895074
안전 -0.01524199 0.0068964893 0.00096402556 -0.014368169 -0.00067675265 -0.030544117 0.00070528744 0.031162819 0.00088748714 -0.012198146 -0.014016308 -0.020871133 -0.013947596 0.005130561 0.0060398057 -0.020339383 -0.006078524 -0.023711035 0.010986849 -0.021224888 0.015595594 0.007950354 0.010701195 -0.01139157 0.0033404627 0.011806012 -0.0059942813 -0.00088819227 -0.022885608 0.00048349763 0.02930198 0.0018997532 -0.0046862774 -0.01716961 -0.008764181 0.018223692 0.007270497 -0.008102752 -0.014654892 -0.027381523 -0.0026518756 -0.011594975 -0.014503343 -0.009280542 0.016033988 -0.01574867 -0.018232891 0.0027608993 0.01217615 0.013517484 0.013028342 -0.012643499 -0.00090340903 -0.0019853106 -0.003469271 0.020142833 0.0032397893 -0.005711932 -0.020138392 -0.0047507808 -0.0036500585 0.010675788 -0.012212695 -0.0014913705 -0.020058649 0.015336321 -0.0033749244 0.015483415 -0.015269167 0.023423942 -0.015001548 0.018647928 0.030506702 -0.0040187165 0.018748557 -0.0014429329 -0.0055291355 -0.0033973109 -0.012348553 0.009446626 -0.01738944 0.0059847524 -0.020348532 0.035884354 0.0059312913 -0.007233743 0.0053138467 0.021815311 0.013434591 0.0021645823 0.029916395 0.010450075 0.010632247 -0.008903863 0.024331845 0.025589319 0.010661185 -0.022360101 -0.0030650808 -0.002802456
활동 -0.013921048 0.01838171 0.0033715528 -0.011722707 0.008712527 -0.019665174 0.0028787297 0.027740017 -0.0041125226 -0.0130918315 -0.0038487236 -0.022748554 0.0049479543 0.012451446 0.0021537764 -0.015615565 0.0052706306 -0.010814471 -0.0044102445 -0.028978467 0.0038219476 0.0059732064 -0.00466843 -0.010192365 0.0033704704 -9.537774e-05 0.0012704625 -0.0072779525 -0.017221594 -0.005379369 0.014147334 0.007650915 -0.0057540447 -0.01696648 -0.012707312 0.022209283 0.0043533123 -0.00817961 -0.012517185 -0.032170933 -0.0008081259 -0.014263095 -0.0017907235 -0.009717231 0.006936833 -0.012121723 -0.007067281 -0.0025397844 0.0070926915 0.012021354 0.010295811 -0.0067978427 -0.0057187295 -0.0005771607 -0.01557697 0.0016841238 0.013681359 -0.0088308565 -0.01961932 0.0038017347 0.011172846 0.006075837 -0.002038196 -0.002755513 -0.019030083 0.00021011982 -0.0034998136 -0.00040781207 -0.020769889 0.022221971 0.00012283356 0.006204034 0.015658297 0.0045088 0.014601034 0.0014544929 0.000743268 0.0002947441 -0.016049718 -0.00043133186 0.0032885596 0.007344921 -0.01743764 0.012985314 0.001065517 0.0015060161 -0.0070930384 0.020122556 0.008642853 0.010258018 0.02472629 0.007951798 0.0051693115 -0.0031675904 0.008333197 0.014323411 0.007954235 -0.024352664 0.011323926 -0.006017524
참여 -0.0044227615 0.0078129675 -0.0051602814 -0.01374004 0.006055956 -0.027893199 0.011880398 0.035194922 0.001578586 -0.0031332097 0.005054293 -0.016918316 -0.014350084 -0.0030557497 -0.0031451052 -0.013986614 0.007454414 -0.012746935 0.0013328006 -0.024551695 0.006753936 -0.0038427364 0.011645999 -0.015745582 -0.0051071816 -0.00040569634 -0.0015136077 -0.014051599 -0.010565542 -0.0061576306 0.02875173 -0.0034024443 0.00535022 -0.011183481 0.0030176807 0.013911361 0.0032448971 -0.02137274 -0.00701037 -0.03541784 0.006440075 -0.020474654 0.00021421177 -0.006021492 0.019083215 -0.008651936 -0.02163714 0.011389103 0.007866017 0.017508753 0.0076164356 -0.005684737 -0.0012326821 0.006705821 -0.020878322 0.020095894 0.014203836 -0.0062208897 -0.009320084 0.003950611 0.007598082 0.0059353667 -0.002813635 0.0026313069 -0.015859243 0.021233814 -0.0026532426 0.014096868 -0.029370204 0.017821113 -0.020703241 0.013044342 0.018839963 -0.0045262077 0.024011195 0.00035215236 -0.0015506158 -0.0051406845 -0.02087177 -0.00090344326 -0.015430382 0.008059078 -0.0186367 0.030078283 -0.003604001 -0.00024185961 0.0056279553 0.004477467 0.012713157 -0.00043224817 0.009002221 0.003707372 -0.0028370877 0.00095728296 0.023494715 0.009202362 0.0076312195 -0.022716861 -0.002194764 -0.004232775
의원 -0.011660936 0.002960531 -0.0035321042 -0.011779282 0.0037751927 -0.027569003 0.0025496054 0.041547496 0.00012396526 -0.017467687 0.0019653356 -0.03160211 -0.004387653 0.013183794 -8.557556e-05 -0.0020512508 0.0023004592 -0.01031621 0.010235842 -0.03497874 0.0038958862 -0.0040457277 0.0035243696 -0.013369205 -0.00471331 -0.00405179 -0.007974402 -0.0083530415 -0.006485987 -0.009403923 0.014402037 0.008690785 0.010821997 -0.014056774 -0.003340778 0.012003531 0.008697615 -0.021608243 -0.01991268 -0.027352571 0.0013112535 -0.0114462 -0.018536529 0.0026261269 0.019510768 -0.013024096 -0.010932458 0.008494426 0.002081027 0.010126627 0.011301798 -0.008817612 0.0004931192 0.0057570827 -0.0031258124 0.015528678 0.0139519125 -0.013124259 -0.003650871 0.004486723 -0.0045139324 0.0059024445 0.0014706332 0.0073826555 -0.030522987 0.012705424 0.0038643375 0.013309451 -0.010409996 0.010310188 -5.5591423e-05 -0.0015075682 0.02529161 0.008006275 0.011105408 -0.002792719 0.006069369 -0.01210799 -0.024756894 0.007114368 -0.01446021 0.01013735 -0.0017917324 0.023087597 0.007786632 0.010315869 0.008160629 0.016025469 0.024358269 0.015558202 0.02279636 0.014767315 -0.006348985 0.010062996 0.031752832 0.025325656 0.001014952 -0.021274148 0.0041330005 0.00740457
남도 -0.017601714 0.011539524 0.010681306 0.0071402625 -0.0026552586 -0.016228179 0.011693293 0.031661622 -0.0044070124 -0.019757938 -0.003230375 -0.017444588 0.0001606632 -0.0041742413 -0.0031427299 -0.008582023 0.0049734637 -0.017956913 0.008652294 -0.02090583 0.0018124717 0.013018861 -0.0032555973 -0.009576265 0.0058564018 0.004254389 -0.012760428 -0.008322043 -0.017555922 -0.00794831 0.008704477 0.0075677796 -0.008448009 -0.0075468086 -0.011214448 0.022405384 0.0022726126 -0.018393053 -0.0046189176 -0.03619046 0.004652745 -0.018496398 -0.01622247 -0.007906729 0.024500333 -0.012021305 -0.005685664 -0.008941626 0.010221017 0.008159937 0.0011493501 -0.013206026 -0.012996597 -0.0060886987 -0.011985455 0.009377297 0.00062516803 -0.014996533 -0.0054562273 -0.002536327 0.00816532 0.012260214 0.0043904292 -0.001949056 -0.028926922 0.013398196 -0.0042125094 0.017990632 -0.008844941 0.017102059 -0.000528406 0.016785368 0.021737916 0.004251234 0.023009544 0.008388856 -0.0078520235 -0.012024895 -0.017288534 0.007170549 0.0019154567 -0.010630151 -0.012034754 0.032965012 -0.0019414434 -0.010694079 0.0046604713 0.004373616 0.009746054 0.0019309055 0.015867947 0.015535038 0.005166011 0.009479493 0.030968832 0.020030022 0.0039324816 -0.0090392055 -0.0082574785 -0.00078650913
광주시 -0.0026872752 0.02288692 0.0016024802 -0.012739686 0.009011142 -0.029053748 0.002459482 0.050537102 -0.0034352168 -0.008560344 -0.008299683 -0.019811274 0.0016086972 0.015605607 0.012651733 -0.020033086 0.003912626 -0.02055716 0.010092148 -0.024129719 0.017143868 0.009676997 0.013867796 -0.0005409159 -0.007094704 -0.0041675023 -0.013225152 -0.0015773979 -0.02010682 0.0024181926 0.026369568 -0.0034299258 0.01008868 -0.016111396 -0.0033141403 0.030860566 0.009763487 -0.01724345 -0.024550138 -0.02597505 -0.00832863 -0.013364347 -0.0041995053 0.0003985844 0.013664338 0.00061591703 -0.015865864 0.0070293928 0.0074836495 0.0076044775 0.010177486 -0.022031283 -0.010720005 -0.012379367 -0.0072336323 0.013622352 0.0062397798 -0.0017826625 -0.017570302 -0.007785042 0.0051683034 0.0053685633 -0.006730006 0.01293583 -0.0248661 0.021216437 0.010493248 0.01160484 -0.02842617 0.030665077 -0.011101524 0.009747108 0.023565318 -0.009095009 0.023216227 0.0047872216 0.0038193676 -0.006873897 -0.019523881 0.013451743 -0.017134879 -0.0032267892 -0.022703713 0.029730663 0.0018000905 0.001209952 0.0034375915 0.014090978 0.023976136 0.0083424635 0.02858796 0.007164958 -0.0044132657 -0.004825784 0.017107738 0.0119784335 0.016026052 -0.01801216 -0.0012133819 -0.005811172
개발 -0.0171921 0.017614745 -0.0036033883 0.0013289676 0.008589032 -0.014216615 -0.0024665212 0.040439785 -0.014646687 -0.0023592964 -0.009540242 -0.028928215 -0.0009015017 0.006628336 0.007731875 -0.016960874 0.008576312 -0.02677618 0.009377103 -0.03049824 0.005030185 0.005274038 0.004534815 -0.006886153 -0.008154817 -0.004787379 -0.017862754 -0.016425155 -0.023231303 -0.0049408227 0.029166654 0.0015331806 -0.0069294735 -0.021126708 -0.0020004064 0.017121142 0.0067913258 -0.019736629 -0.007395603 -0.038883846 -0.0073993304 -0.0111709125 -0.015560019 0.0015548345 0.020870913 0.00083617173 -0.0069237542 0.005221518 0.012806003 0.013910544 0.010394509 -0.014864078 0.0015114371 0.003591445 -0.0024606343 0.010152188 0.005912489 -0.00032492177 -0.021818543 -5.3937845e-05 -0.00386232 0.015350436 -0.014720976 0.005869723 -0.012555238 0.010463488 -0.0037613986 0.0061348407 -0.016803257 0.01358401 -0.0048851483 0.0078843655 0.028900035 -0.0039409674 0.009916738 0.0017829061 0.00097428646 -0.007091869 -0.00946753 0.003973859 -0.014679853 0.0009409139 -0.016561832 0.016660726 -0.005718374 -0.002099244 0.0029216732 0.016433643 0.026169037 0.015301263 0.025771067 0.008949429 -0.005609936 0.010656091 0.024341019 0.022352353 0.010566539 -0.013826508 0.009833638 -0.0042088125
일자리 -0.01232367 0.011394789 0.006554525 -0.013450003 0.005252514 -0.016080497 0.005466934 0.029662943 -0.015118635 -0.0016929911 -0.01442739 -0.030880744 -0.00070358015 -0.004899033 -0.0020520778 -0.014479586 0.00033134926 -0.023032894 0.007400962 -0.02458197 0.01388956 0.0025630216 0.013308089 -0.016715532 0.001296595 -0.0018874712 -0.007236369 -0.017872758 -0.014534492 -0.008225201 0.0120708775 0.012820106 0.0045896126 -0.011931571 -0.012732491 0.024158984 -0.0017630423 -0.016196955 -0.020280704 -0.035129067 0.0038717974 -0.0200127 -0.0052492297 0.004413384 0.011179564 -0.008843883 -0.014726736 -0.009362719 -0.003476883 0.012408818 0.012244192 -0.009925243 -0.008449054 0.002325689 -0.008981148 -0.00052480586 0.013000776 0.0023177895 -0.021496786 -0.00067127746 0.010593414 0.004805823 -0.005615265 -0.0038055882 -0.01235795 0.018679637 0.0064880676 0.006382353 -0.019966139 0.011564219 -0.021296814 0.01742612 0.017392252 -0.0029115689 0.02088752 -0.0029659362 0.006170186 -0.01050806 -0.020106746 0.012012447 -0.01148757 -0.005625614 -0.017791888 0.018944213 -0.002615633 -0.004552327 0.012829013 0.022628903 0.015782615 0.0062280367 0.010610439 0.015798898 -0.004502295 0.008778379 0.031048313 0.021935118 0.009897808 -0.010264466 0.011807278 -0.002350387
만원 -0.008257162 0.018283645 0.0115285795 -0.0038861078 0.0025306682 -0.02654634 -0.0039356244 0.029099029 -0.013831762 -0.009756614 -0.008414147 -0.024546355 0.0021617163 0.015809184 0.010031849 -0.009000714 0.00015628836 -0.012306245 7.578562e-05 -0.0357073 0.017007744 -0.0053747953 0.010492577 -0.009333328 -0.01176088 0.0031626243 -0.014662654 -0.00067303376 -0.019588813 -0.008339845 0.022755556 0.006747715 0.006150583 -0.010710907 -0.00934879 0.013353656 0.008836107 -0.00535369 -0.018397862 -0.030996025 0.0036948787 -0.00982451 -0.013604784 -0.0043042316 0.015240363 -0.005852269 -0.006183904 0.0074018543 -0.0005059113 0.017370822 0.004036513 -0.013379179 -0.011876807 -0.007817745 -0.000591019 0.014379756 -0.0028961848 -0.0031381182 -0.018853536 -0.009442558 0.0055048657 0.011163437 -0.0045650047 0.010479841 -0.013037356 0.0059200716 0.00835451 0.015227512 -0.0156105375 0.02513651 -0.017444082 0.00591645 0.019738032 0.003022608 0.014235107 0.015448694 -0.0059623113 -0.011720274 -0.02354718 0.0031278727 0.003409766 -0.0046659224 -0.0141012855 0.031114964 -0.0077919727 0.0015623483 0.008233868 0.003950145 0.016937857 0.005143774 0.023287807 0.0033792416 -0.0060922587 0.011448055 0.01887172 0.02334079 0.0016676418 -0.009658557 0.00046863197 -0.0057837213
경제 -0.007818826 0.0073436517 0.0018354959 -0.0040402357 -0.0055079707 -0.020221114 0.00047627045 0.034815922 0.00014155023 -0.009247015 -0.008459354 -0.012240423 -0.014042854 0.0076123863 0.0069490448 -0.011022814 -0.0027297295 -0.019833846 -0.0066637066 -0.0134669095 0.011420306 0.0031554182 0.013918076 -0.013251107 -0.0043288623 0.0023562673 -0.015511422 -0.015976887 -0.0016010833 -0.003022158 0.005483459 0.01112183 -0.005141493 -0.014869729 -0.0018623054 0.01054582 -0.002538384 -0.01472925 -0.018711457 -0.021092545 -0.003808668 -0.0141434595 -0.0030820896 -0.002458864 0.023043541 0.001646862 -0.0097398665 0.00046599397 0.007646579 0.01548976 0.015227466 -0.010343209 -0.0046092593 -0.0044860914 -0.0075966916 0.00080443564 0.002298783 -0.013798339 -0.008425981 0.0016437316 0.0054161116 0.0035038358 0.0016257371 -0.005159858 -0.0046967305 0.010963217 0.006818024 0.014817714 -0.013397098 0.016879972 -0.0070454534 -0.0038975163 0.010633712 -0.004792098 0.0029506076 0.008290303 0.0042136856 -0.003407502 -0.0042060497 0.003957845 -0.0061682514 0.0047792 -0.017739268 0.010521976 0.008427904 -0.007721184 0.0115095815 0.014030251 0.0049140337 0.014838131 0.02054565 -0.0016062147 -0.00912896 -0.00898775 0.021835962 0.019717736 0.006588755 -0.012700093 -0.005615417 -0.0031487194
당 -0.0025783991 0.0012240446 -0.0054138023 -0.0027082872 -0.008338291 -0.025899256 0.010379634 0.03778088 -0.0147315655 8.3961764e-05 0.006483717 -0.015595271 -0.009691104 0.016011715 -0.0050433003 -0.013542193 0.004360048 -0.021247726 -0.0078116637 -0.021632435 0.01752741 -0.0009618086 0.00047535836 -0.0001671637 -0.005055752 -0.0053782756 0.00031986114 -0.011090651 -0.007063249 0.0041251695 0.024854291 0.012403346 0.00889803 -0.019576952 -0.0015026091 0.015150038 0.0073473165 -0.0028027524 -0.006069862 -0.03424479 0.012426817 -0.016917935 -0.006497064 0.0065529565 0.0077701965 -0.0071580973 -0.0085578775 0.0091025075 0.011943934 0.0059809024 -0.0026400632 -0.01406231 0.006448807 -0.012047233 0.00081526785 0.008401766 0.0029994897 0.0049792686 0.00037729865 0.008641742 0.010675317 -0.0024814876 0.002080249 -0.008041007 -0.025609653 0.0015070443 0.0070269885 0.018926725 -0.023068042 0.013052451 -0.012054779 0.0021660295 0.014479377 0.003907494 0.01675337 0.0019783813 -0.005052769 -0.0049955808 -0.017414117 0.010352199 0.0041057155 0.008441642 -0.01583645 0.012283531 -0.00933608 -0.006198554 0.006541524 0.003962324 0.01653102 0.01651608 0.019613534 0.008714003 0.009202856 0.008048515 0.018640539 0.007388126 0.0074576247 -0.007639146 0.011286536 -0.0019419398
관광 0.00025168768 0.01343437 0.010368086 -0.008419293 0.004539555 -0.019375673 -0.0040530306 0.041206766 -0.017824871 -0.016017098 -0.0020046365 -0.013503018 -0.008458063 0.014451017 0.0067642336 -0.0076999846 -0.0040035853 -0.009422354 -0.005203681 -0.03055353 0.014522698 -0.004602333 0.0110591175 -0.009907636 -0.0049727582 -0.0037510705 -0.014747826 -0.012119217 -0.003931377 0.0050421674 0.0074818754 -0.0041376646 0.0047665853 -0.023243012 0.0022534623 0.024188627 -0.0027042585 -0.004909453 -0.0033222104 -0.030503534 0.003102095 -0.023105033 -0.0017218722 0.008964394 0.022720512 -0.016568216 -0.0067977137 -0.0006500232 0.006382442 0.015832905 0.009321872 -0.0051124766 -0.009541292 0.0034673866 -0.014557937 0.009791806 0.011849976 -0.0021096517 -0.0043928586 -0.0040123365 0.0052320645 0.01573622 -0.0088738175 0.008344371 -0.029509973 0.021484632 0.008250289 0.017366963 -0.014210693 0.021975776 -0.01383328 0.00208227 0.016839849 -0.0015208236 0.012303362 -0.0019645628 -0.007841403 0.0065660384 -0.0053896653 0.013265479 -0.0124283405 0.000586404 -0.018741522 0.029206164 0.0010532001 0.0074421577 -0.002056274 0.008428073 0.019452402 0.011440156 0.010273027 0.00043178626 0.0030814419 -0.009149466 0.027463881 0.021664985 0.0067227 -0.023253141 -0.005351623 0.00026975718
주 -0.0029826134 0.012381581 -0.002243095 0.0052658054 -0.007904524 -0.017375145 0.012263312 0.040327955 -0.01845448 -0.005336722 -0.013429273 -0.031388313 0.0031482382 -0.00089077436 -0.004529143 -0.01790278 0.0057071024 -0.015341533 -0.0027014485 -0.03401019 0.019745972 0.0151210865 0.016813252 -0.005641006 -0.0019156355 0.0060238987 -0.008381983 -0.0048832055 -0.012383389 0.0016523298 0.016411537 -0.0036738557 0.0095530385 -0.021786246 -0.0027049233 0.019491352 0.00436052 -0.021049771 -0.011379939 -0.038371015 -0.006166123 -0.022481056 -0.002999656 0.0059941276 0.019079974 -0.0009689095 -0.02013489 -0.0022663062 0.0019826156 0.005507388 0.016538428 -0.021347543 -0.012581759 -0.012956321 -0.001861461 0.009229686 0.0070336154 -0.012506994 -0.016992738 -0.00014142603 -0.0009107252 0.0029749328 -0.01294511 0.0046972004 -0.031792626 0.014411441 0.004656475 0.021675909 -0.02126761 0.025793355 -0.01942178 0.0015435632 0.026648711 -0.0021984393 0.012715481 0.0050249035 0.008220882 -0.012152662 -0.021574961 0.009901978 -0.0079046795 0.009263456 -0.013021018 0.019263312 -0.008491945 -0.010915201 -0.005069438 0.0063589355 0.013133361 0.0076963315 0.019040342 0.004298884 0.0030535103 0.004959679 0.03503639 0.012716432 0.017745197 -0.012297385 0.0001679695 -0.0040303045
청년 -0.01314524 0.004052836 0.012306105 0.006579264 0.008766912 -0.02925944 0.011343525 0.040329292 -0.0021419488 -0.020329205 -0.003966239 -0.031360887 -0.014810199 0.00857448 0.012736402 -0.0044906773 -0.005286417 -0.012937312 -0.0018421416 -0.017343218 0.00038805028 0.014464047 -0.00020459748 -0.013533119 -0.0034835679 0.0037444013 -0.01795525 -0.010923241 -0.013680818 -0.0062649385 0.023709182 0.0053108367 0.009855629 -0.00561551 -0.012027489 0.024125515 0.014622798 -0.00781817 -0.007134765 -0.034326196 0.005736583 -0.01582155 -0.0071185227 -0.0064329566 0.019567966 -0.0018969906 -0.021145066 0.012015894 0.011546773 0.01107871 0.0040472504 -0.010480312 0.0036868763 0.0033771137 -0.01694767 0.019127246 0.0057208315 -0.014412514 -0.0041857 0.0050636427 0.0048791617 0.017199216 -0.013533452 -0.0047082095 -0.021356862 0.0068243733 0.0031928192 0.011130096 -0.02765688 0.018315025 -0.0079675 0.008447125 0.024648458 -0.0019963372 0.022700515 0.0037237613 0.008732859 -0.0055098147 -0.012514502 0.0030321823 -0.0005873558 0.0032433243 -0.008879456 0.032582205 -0.008308546 0.010641358 0.0021390107 0.009591081 0.013245891 -0.0003818862 0.015050411 0.010824392 0.008380185 0.009932924 0.014686348 0.025454296 0.0012977335 -0.0144446 0.013820916 -0.0003525893
소 -0.017634103 0.0016555049 0.0073409667 -0.0043951888 -0.009841595 -0.01584324 0.008191016 0.03707588 -0.0015109794 -0.0068813604 -0.015500613 -0.015750026 1.34134025e-05 -0.002725208 0.0009974567 -0.0104664555 0.0010940881 -0.015191091 -0.0029346137 -0.025441788 0.013892684 0.0033567732 0.0056894836 -0.0030821534 -0.008645613 -0.0037593376 0.0015102092 -0.0190189 -0.014020649 -0.002955668 0.00806173 0.004524509 0.00987606 -0.013869594 0.0029135467 0.018018737 0.001261069 -0.0154506415 -0.013093816 -0.019682586 0.009563947 -0.0105725685 -0.013879744 -0.007706313 0.023072885 -0.00414531 -0.0051952847 0.0018244812 0.016712174 0.0002801725 0.01834748 -0.019242851 -0.004619416 0.0045161215 -0.019836135 0.014590841 -0.0021407658 -0.013004986 -0.009055148 0.0011550933 -0.0016623664 0.017158046 -0.012845711 0.0023831949 -0.009060894 0.01269402 -0.0023958245 0.015273328 -0.022950714 0.016638668 -0.0063644513 0.017904432 0.026007991 -0.00832761 0.024681343 0.0013778609 0.0071162176 -0.011229982 -0.023401912 0.006028859 -0.015975911 -0.003989604 -0.010212943 0.022045355 -0.010244652 -0.0067717573 -0.0057915417 0.010593477 0.022201138 0.007510166 0.027002018 0.0033880428 0.009250167 0.008072931 0.030345941 0.01452615 0.009384048 -0.014460938 -0.006671154 0.012517241
교육청 -0.009947395 0.017888851 0.006868156 -0.00069054705 0.00026133092 -0.027505714 0.0066668587 0.03364288 -0.016636776 -0.012793949 -0.00670889 -0.027073523 -0.0010852467 0.007021169 0.0075251386 -0.01682857 -0.004038189 -0.0089739 0.009242685 -0.017663723 0.013891288 -0.0043073166 0.014603868 -0.012125769 -0.012110931 0.012137092 -0.010515881 -0.016700724 -0.014668647 0.006193231 0.013105396 0.00625296 0.0015058549 -0.007688963 -0.0032016833 0.005985972 0.002951765 -0.003247461 -0.008852885 -0.030659154 0.0087270755 -0.006979751 0.0005560722 -0.00039841747 0.006157309 -0.011155563 -0.0039394232 -0.004860786 0.018057346 -0.00081740634 -0.0012708657 -0.015120328 0.003460244 -0.010201251 -0.000601423 -0.00016866549 0.009669214 -0.0017685947 -0.011259841 0.009108551 0.0074171294 0.00823723 0.00052598707 0.008606208 -0.015036224 0.020054478 0.0026222623 0.0024983278 -0.020502118 0.014172734 -0.016246425 0.006235253 0.024234101 -0.00786561 0.018066425 0.010349802 -0.0016965308 -0.0007751905 -0.008673514 -0.00010951579 -0.002569962 0.008251169 -0.012771056 0.012314679 -0.009532169 -0.009326826 0.0061474442 0.015954072 0.022055415 0.005241733 0.016147232 0.010432969 -0.009195671 -0.009351671 0.025214242 0.0057463218 0.0064734267 -0.020192966 0.008314758 -0.0012528289
단체 0.0007700597 0.0115412455 0.00020957734 -0.007145488 0.002155505 -0.025220998 0.01329622 0.042541374 -0.0043112515 -0.017259393 -0.011350298 -0.022542346 -0.006434267 0.0010048028 0.010491309 -0.0048551313 -0.0021450913 -0.012229587 0.008117534 -0.023380049 0.017710086 0.0035603796 -0.0011616081 -0.0064827455 -0.01428915 0.015083195 -0.017066369 -0.010671412 -0.0155922575 0.0034721047 0.022473617 -0.00617721 -0.0036099532 -0.0129629215 -0.0009843609 0.022823375 0.006288852 -0.013844229 -0.019943014 -0.023162922 -0.0069106356 -0.013377015 -0.010341152 -0.00803903 0.024648339 -0.0074705994 -0.02118054 -0.007296069 0.008950854 0.0011973181 0.00941789 -0.006776197 0.00021736189 -0.0072673615 -0.002311616 0.00074869965 0.0126625765 -0.0068887426 -0.013190528 0.004663675 -0.0005727719 0.003474568 -0.008650313 -0.004592383 -0.018440548 0.0052701305 0.009618087 0.0022499627 -0.022182144 0.007268625 -0.019345513 0.0065508955 0.009384299 -0.009703204 0.017986367 0.004910209 0.0020085073 0.0067178328 -0.024745245 0.013770671 -0.014887129 0.006956252 -0.0024560534 0.030489026 -0.0070033944 0.004011023 -0.005922744 0.010653907 0.011030869 -0.0014304344 0.022761585 0.0111771 -0.0034060334 -0.0070858113 0.025238335 0.011990251 0.0014140231 -0.022267444 0.0018548539 0.011234789
한국 -0.013745733 0.015611482 0.010050993 -0.007837181 -0.0013127705 -0.018196886 0.0076671205 0.025688017 -0.008982154 -0.01685201 0.0022356915 -0.027401702 -0.013218178 0.0066880914 0.005111439 -0.009142258 0.0027420616 -0.008750845 0.00349774 -0.012796567 0.0042462503 -0.0038133906 -0.004480257 0.0038534703 -0.002377185 -0.0026672797 0.00032030125 0.002096546 -0.00060697616 -0.0063747386 0.007991395 -0.00019763052 -0.006176715 -0.005086062 0.0022823443 0.0072627678 0.013032822 -0.01840786 -0.0031671524 -0.026814073 0.0028906153 -0.017129473 -0.0022458213 0.008207783 0.0118927285 -0.009734793 -0.017462954 0.00549292 0.010502777 0.014609585 0.0012556228 -0.018766217 0.00496893 -0.005824175 -0.0035198196 0.016788926 -0.0004273664 -0.0024538478 -0.012674607 -0.0068299733 -0.004529898 0.0069367206 -0.011862579 -0.0005488566 -0.01741382 0.015872288 0.0046633244 0.015664216 -0.010448394 0.0092441 -0.012594978 0.015753673 0.02167035 -0.011993139 0.017239042 0.012907241 0.008647867 -0.009239597 -0.014108168 0.0066664214 -0.003313452 -0.001375336 -0.012899022 0.023824172 0.007948309 -0.0003674596 -0.004588155 0.0040516066 0.00819378 0.010046514 0.01427549 0.0028750887 -0.008640858 -0.000555598 0.02371142 0.018346598 0.012783604 -0.01611453 0.012826079 0.0023161354
형 -0.008504603 0.017378338 -0.002058066 0.0032388968 0.010498605 -0.014451017 0.009197636 0.035830446 -0.008644676 -0.018304449 -0.003291233 -0.021273548 -0.01172772 0.006495559 0.007561955 -0.018883528 0.0042487495 -0.0059366114 -0.0055537266 -0.020507084 0.00041957336 -0.0046738293 0.012819979 -0.013173678 -0.006432224 -0.005219668 -0.016255923 -0.017332783 -0.012285473 0.0003499786 0.008493813 -0.005501508 -0.002206015 -0.014621031 -0.011689604 0.012612667 0.010746241 -0.009883818 -0.004684918 -0.023212552 0.000118397176 -0.014053979 0.0025248963 0.0024407129 0.017799037 -0.005723423 -0.0211426 0.0075906203 0.012846309 0.009716314 0.018043682 -0.016004743 0.00030121385 -0.008220513 -0.020810233 0.012725723 0.011179758 0.0011038836 -0.021923095 0.0048512775 0.0045977347 0.014233749 -0.005933732 0.0064797984 -0.009867502 0.0011144242 -0.0067953486 0.018469663 -0.018006839 0.004877298 -0.01494984 0.010481417 0.026775924 -0.004971715 0.013662225 -0.0014692496 -0.008837034 -0.000965362 -0.014910826 -0.0007482769 -0.00621521 -0.0100598745 -0.012554068 0.025936425 0.0009795085 0.007555759 0.008414901 0.010916031 0.02166748 0.013866384 0.026173068 0.018351095 0.0050057573 0.004657506 0.029166581 0.014179194 0.003971769 -0.0060299966 0.006405306 -0.0026010058
르 -0.012692514 0.005126087 0.016768113 -0.0009124367 0.008201405 -0.012731589 0.014157694 0.032326512 -0.015459287 -0.015522042 -0.01026295 -0.037647706 -0.0058636544 -0.0019521826 0.017588181 -0.0151875075 -0.007034285 -0.0264975 -0.0016377986 -0.04159932 0.013406798 0.013651274 0.0044303196 0.0035875863 -0.009007506 -0.003591865 -0.013410505 -0.008990348 -0.024328375 -0.01380054 0.012610941 0.0037096494 0.0072979685 -0.024214081 -0.014291066 0.02287176 0.0056821257 -0.01511509 -0.018828299 -0.023431767 0.010104636 -0.029124677 -0.0035871877 0.004670012 0.020567575 0.0006685908 -0.02126144 -0.00425517 0.0009888302 0.022567518 -0.00067977776 -0.014179327 -0.002678675 -0.00878297 -0.0009075843 0.005228619 -0.005029004 0.0053718863 -0.022694161 0.010910483 -0.0016982653 0.018308653 -0.008724236 -0.0014402615 -0.029053865 0.005726372 0.013329647 0.020739624 -0.020479234 0.029180799 -0.009553212 0.012144469 0.022202052 -0.016886882 0.027748765 -0.0029112436 -0.0049432013 -0.0020086444 -0.010030229 -0.000524543 -0.0071044816 0.009696334 -0.025209881 0.03580164 -0.005606204 0.009612026 -0.003788122 0.019831894 0.0345499 -0.003149539 0.02300948 -0.00040110882 0.00817051 0.013304989 0.021701649 0.01984804 0.0100794025 -0.0317136 0.007842512 -0.008035341
교통 -0.005193023 0.0020360895 0.010659448 0.0039187893 -0.0028495057 -0.021214811 -0.005511646 0.033177096 -0.0035796734 0.0010310737 -0.0006209124 -0.022450255 -0.0015879374 0.014148217 0.0118139405 -0.00092961895 -0.006902309 -0.020983357 0.010517774 -0.030599413 0.011088848 0.012384726 0.0013056332 0.0021273324 -0.0134810405 0.009447565 -0.001755019 -0.002869401 -0.01837026 0.010046136 0.024011815 0.00045612542 0.005529059 -0.004682051 -0.005456997 0.020836094 0.0025089162 -0.013481925 -0.011516283 -0.028015306 0.00015886649 -0.022050193 -0.0016326602 0.008587971 0.020454267 0.0009831785 -0.014133828 0.0073039667 0.0006501996 0.0034738611 0.015485031 -0.0010625855 -0.0068568294 -0.008230774 -0.0014527878 0.011873231 0.010679893 -0.011619566 -0.010462755 -0.0009090231 0.0017707677 0.009377012 -0.011998718 0.00673928 -0.019045489 0.017628873 0.0039323573 0.01987647 -0.016146272 0.01965511 -0.017576879 -0.0030783322 0.015507567 -0.0055260337 0.022536729 0.010859531 -0.0074581034 0.0057627256 -0.011733324 -0.0035931666 -0.00075370516 -0.0023702502 -0.01844169 0.028030049 0.008241372 0.008878121 0.0023308473 0.017482359 0.019928847 -0.0014128227 0.024758331 0.002117266 -0.009102708 0.008931977 0.012667886 0.02208717 0.001875467 -0.00542367 -0.0027280487 0.0050948537
마을 0.0022492607 0.014910324 0.003116277 -0.00880904 -0.0099853575 -0.014730375 0.013529973 0.026664311 -0.0005605205 -0.0015821243 -0.01336545 -0.01949018 -0.011624982 0.0012029789 0.0044574225 -0.016980598 -0.0024664565 -0.022072898 -0.005065058 -0.031010337 0.019374773 0.012344623 0.0057859477 -0.008360973 0.0009587567 0.0050038886 -0.017266588 -0.015998168 -0.009614563 0.0074766497 0.019250171 0.012307004 0.00791292 -0.012300498 0.003411415 0.025625523 0.015242414 -0.0029619995 -0.0206705 -0.02223073 -0.0062407297 -0.022929752 -0.015245199 0.0031006965 0.015336759 -0.012764507 -0.0049990783 0.009409436 0.0124274595 0.016328437 0.0025697602 -0.016256727 0.0020284196 -0.0048763985 -0.016452415 0.012849705 0.001830133 -0.010664103 -0.008257908 0.0071435394 0.00809652 0.008079119 0.0033896188 0.0049459958 -0.010516857 0.01048182 0.0074395896 0.017622855 -0.02625975 0.021620085 -0.009007791 0.01376836 0.014836753 -0.005016247 0.008250999 0.0032685883 -0.003343904 -0.0073014963 -0.013463149 0.014858264 -0.001928622 -0.008048562 -0.017008707 0.017374922 0.004460611 -0.01009023 0.009146324 0.013873623 0.012760639 0.01609272 0.024278276 0.008346175 0.0049633724 -0.009139652 0.011289388 0.011396438 0.019192379 -0.012180914 0.009477038 -0.00479191
건 -0.0028848383 0.008959063 0.0025629944 -0.0065109734 0.004394747 -0.02577773 0.009263755 0.033600543 -0.009063488 -0.01229087 -0.011072461 -0.02478079 -0.009278738 0.00882318 -0.0029346594 -0.011006303 -0.0065428615 -0.015461725 0.0009967522 -0.030182853 0.010698426 0.013659385 0.009189285 -0.0025735768 -0.0094128 0.0019542852 -0.0038048632 -0.0058515696 -0.0012744495 -0.00041898948 0.021647662 0.007914372 0.0041147927 -0.003370506 -0.009300741 0.010925794 0.013451381 -0.0027069433 -0.0066046063 -0.027031787 0.008882766 -0.011358722 -0.0058429088 0.008959212 0.019346373 -0.0018579594 -0.008307417 -0.0078004464 0.0043035448 0.010804156 0.0001723817 -0.0008505135 0.0052341577 -0.010072033 -0.013705498 0.0030428737 0.003653661 -0.0070753745 -0.011988031 -0.0030390099 0.0050590425 0.017236907 -0.009962448 -0.0072900867 -0.011244592 0.0033251632 0.010677214 0.0126011865 -0.02299474 0.005650508 -0.01799246 0.008922374 0.0176088 0.0004040747 0.012261532 0.006677584 0.0025338116 -0.0036179754 -0.020968707 0.0058126575 -0.0023742358 -0.002881961 -0.010106133 0.016431162 0.007608923 -0.0030386075 0.011370147 0.0056857974 0.0038784614 -0.00042708573 0.009562349 0.0076867924 0.006083129 0.002171879 0.027846076 0.013978607 0.014559793 -0.013860019 0.0016880815 0.00878566
받 -0.0046965024 0.017948307 -0.0037983176 -0.0125994915 -0.0005992187 -0.018681446 0.0016281161 0.027213395 -0.011790444 -0.016681472 0.0043203766 -0.022248564 -0.007049952 0.0037800968 0.0011955088 -0.018656585 -0.00014904956 -0.014182089 0.011948687 -0.029756213 0.0034796053 0.0019068784 0.007809547 -0.011599211 -0.01018455 -0.0045726085 -0.0010257321 -0.017314848 -0.01356306 8.981658e-05 0.015294091 -0.007957163 0.010617078 -0.012419386 -0.0040285457 0.0054873037 -0.0022868447 -0.007664555 -0.006414105 -0.020259954 0.007821431 -0.02063987 -0.0073433537 -0.003256645 0.013008849 -0.0020492072 -0.007957543 -0.0057087946 0.0105751995 0.013707095 -0.0007835715 -0.005366517 -0.007252955 0.0067525646 -0.0038547153 0.010426531 0.004138773 -0.013921992 -0.00074851705 -0.0030158916 0.00911455 0.011611332 -0.0135189835 0.0005909327 -0.013843405 0.006661403 0.0140014645 0.005496 -0.022508157 0.017872868 -0.012584042 -0.00042771138 0.01697286 0.004120777 0.006614556 0.0006518418 -0.008022438 9.838514e-05 -0.018339122 0.014645558 -0.00456495 0.0013916865 -0.011078777 0.027412217 -0.0005174027 -0.0090066325 -0.0051286346 0.010652958 0.02162312 0.01058964 0.008226196 2.0214866e-05 -0.009672557 0.0044808886 0.008231495 0.01611802 0.010335525 -0.015468364 -0.006050759 0.008973586
올해 -0.00600027 -0.0008273769 -0.0030764393 0.0062465323 0.0021039757 -0.024780944 0.0036225237 0.032496523 -0.015236512 -0.015097729 -0.004482222 -0.027858056 -0.0034219793 0.007253605 0.010182778 -0.008132074 0.002386649 -0.0064650155 -0.0018049956 -0.01370527 0.007708165 0.0024584637 -0.005096522 -0.0034140726 0.0018384974 0.005625618 -0.014792519 -0.010245766 -0.015612641 0.0066489126 0.0060509304 0.007168681 -0.004584188 -0.01749489 -0.011035171 0.01856595 -0.0030006499 -0.016430046 -0.016266022 -0.026052078 -0.0035257838 -0.011913944 0.0016587022 -0.0011862783 0.007873011 -0.00348925 -0.00277028 -0.0037823254 0.0013113464 0.013253857 0.01206317 -0.015144073 0.006115183 -0.011183048 -0.015758254 0.0020000185 0.006407756 -0.004392539 -0.0059929183 0.00691962 0.006277516 0.003706394 -0.011359705 -0.0068359356 -0.0155363325 0.018251233 -0.003730642 0.013538112 -0.009840015 0.009051771 -0.014876387 0.0005812696 0.009226384 -0.0089943735 0.017235942 -0.0023820102 -0.00470706 0.003701941 -0.011570035 -0.0022248134 -0.010619823 0.003042279 -0.005211616 0.01463448 -0.00026012896 0.0021504746 0.0031604483 0.0057480033 0.01886946 -0.002036292 0.019696802 -0.005027751 -0.0015764224 0.0072167115 0.013431923 0.018642072 0.013590443 -0.021212019 0.0030580463 -0.0028841512
설치 -0.016888402 0.009647519 0.011521241 0.0052770274 -0.0048901914 -0.020850684 -0.0012035121 0.03317051 -0.0047733667 -0.019475324 -0.0019147068 -0.03136174 -0.0048911553 0.010177638 -0.0030089347 -0.009736218 -0.0005846049 -0.022730228 0.00022375348 -0.020526594 0.00048605585 -0.0016608536 0.005368982 0.002653797 -0.0044418313 0.013908331 -0.01582958 0.0012805967 -0.016579904 -0.006529026 0.007814434 0.004299618 -0.0010586285 -0.004998376 -0.005589844 0.019861111 0.012366414 -0.021636548 -0.01425611 -0.030843455 -0.0075942483 -0.01179464 -0.0029452594 -0.002561537 0.015074546 -0.0139053315 -0.013116778 0.003415965 0.016432364 0.015709065 0.002781455 -0.005587468 -0.00516301 -0.007838217 -0.013601494 0.0037265772 0.008599929 -0.012650892 -0.019559383 -0.0053845453 0.009526029 0.010563022 -0.00023339648 0.010109364 -0.02364599 0.0059840432 0.011574388 0.016509768 -0.012322228 0.025286758 -0.00049568556 0.0044721216 0.018389005 0.002783386 0.023520038 0.017261408 -0.009098492 -0.007414242 -0.008989095 0.008104852 -0.007305173 0.0071114935 -0.002937474 0.0141799515 -0.0023783983 -0.009111481 0.009369873 0.013632479 0.013962959 0.009465032 0.023477586 0.015326332 0.0073344344 0.0034494253 0.022608126 0.024033537 0.011780468 -0.016132122 -0.005912853 0.0055210725
선정 -0.016156284 0.016340274 -0.0017921625 -0.0040744524 0.00066044065 -0.018441744 -0.0052826623 0.03238254 -0.013208459 -0.017652882 -3.7532634e-05 -0.019727768 0.0024593961 -0.0019320023 0.0025122873 -0.010534359 0.008339523 -0.022351373 0.008203761 -0.031715672 1.1130998e-05 0.0029231163 0.0016014283 -0.009020628 -0.010421881 0.006728058 -0.017296787 -0.00632551 -0.0064015766 0.00017864241 0.013347017 0.00973483 -0.0090922145 -0.019946527 0.00038638862 0.023925086 -0.0022086268 -0.020546604 -0.010775892 -0.03302307 0.0038990257 -0.005403749 -0.012152225 -0.0061348844 0.02356038 -0.0061277365 -0.013965031 -0.0013860401 -0.0018719124 0.0038912706 0.002408573 -0.0079087 -0.0013825013 0.005278297 -0.0015248936 0.007349654 -0.0055246945 -0.0023823509 -0.015909463 0.00900531 0.00511585 0.006464986 0.0028391604 -0.0019966376 -0.019504456 0.00901944 0.012405402 0.016149558 -0.012650019 0.017037308 -0.01130663 0.016187485 0.008124621 -0.0055102943 0.007568684 0.014786296 -0.003735879 -0.0038343738 -0.0058043483 -0.0038601812 -0.009546378 0.0030882875 -0.014582085 0.028076226 0.0011380096 -0.004933052 0.008121034 0.018328702 0.015239109 0.013105686 0.0073216916 0.002666138 0.010938017 0.0065869647 0.020365868 0.009193874 0.013445245 -0.011685056 0.011762733 0.0029817254
후보 0.003600337 0.0014711568 -0.0040423945 -0.0048808847 0.003187973 -0.016849026 0.010096542 0.015909081 -0.013943145 0.0007036237 0.0041260165 -0.020243844 -0.0075542317 0.0008626418 0.0014363129 0.0017502214 0.0025975085 -0.0130059235 -0.0013264751 -0.020874169 -0.0030383402 0.010622184 -0.005931861 -0.0065606534 -0.011656401 0.012634795 0.00046449405 -0.006682036 -0.004485039 -0.0023764716 0.022558467 -0.0009159663 0.0060851 -0.012893285 0.0065614153 0.022522913 0.0127384 -0.009636328 -0.01031069 -0.028748417 0.011196632 -0.02088483 -0.0129740145 0.0066003515 0.009456948 0.0035467125 -0.016085843 0.010518188 0.008452601 -0.001987257 0.009066876 -0.012081789 0.005082281 0.005301856 -0.016917659 0.013360972 0.010105522 0.0030912338 -0.015144373 -0.0067333654 -0.008302671 0.011636792 -0.00908514 0.0061255833 -0.009353949 0.01670218 0.0057267067 0.007337094 -0.011683809 0.016126517 -0.016578186 -0.0011027969 0.01179094 0.0040543834 0.010115969 -0.006343908 -0.0015399426 0.005058069 -0.0048668524 0.0086579835 -0.009948782 -0.0028220625 -0.009561749 0.009359056 -0.009480211 -0.0005151946 0.0038340064 0.013191578 0.015580211 0.01597565 0.005327641 0.015447037 -0.0029992338 0.0017084327 0.01187059 0.0065783933 0.0053806654 -0.019897569 0.012761976 0.006796968
ㄹ -0.00976801 0.012005579 0.012512486 -0.009068751 0.005079626 -0.01566896 0.007788425 0.02696958 -0.017947396 -0.0016926392 -0.0056635533 -0.028041491 -0.004064878 -1.6632399e-05 0.0108355675 -0.016695622 -8.055389e-05 -0.0133122355 -0.0014251777 -0.027018214 0.015994973 0.00444479 -0.0036338177 -0.004361005 -0.015239135 0.00038369108 -0.0012627479 -0.003192752 -0.017702185 0.0024565847 0.021342384 -0.0063171824 -0.0031023044 -0.014529535 -0.013275232 0.017942179 0.013110723 -0.009415409 -0.007901687 -0.024545811 4.8166185e-06 -0.022574732 -0.007380942 0.008441359 0.017184665 -0.005901777 -0.0015140083 0.004504821 -0.00032128725 0.015914511 0.016049113 -0.018670367 0.0063018273 -0.009857119 -0.008814381 0.01446757 -0.0024715876 -0.01349324 -0.017644973 -0.011449889 -0.0045788526 0.017753817 -0.0021140927 -0.007832596 -0.007174294 0.016933773 0.012143092 0.020818884 -0.024023002 0.011401421 -0.005775382 0.009960204 0.021888508 -0.011551033 0.019161515 0.017595064 -0.01068965 0.007841567 -0.008995433 0.0012708814 -0.0072264 -0.009391901 -0.015852066 0.024199754 -0.0028968574 0.010260191 -0.005234601 0.0021553775 0.022460068 0.014897326 0.01966179 0.013437347 0.0071860016 -0.006747077 0.028368479 0.007204747 0.0065042195 -0.021086337 0.009849802 -0.0024539758
기관 -0.0048390683 0.007466073 0.0034341486 -0.009260065 -0.005283179 -0.021584695 0.005270172 0.031045182 -0.009579757 -0.006437807 -0.009911329 -0.009557624 -0.0051440536 -0.0017878643 0.00014563827 -0.0024057808 0.0012336576 -0.018280946 -0.0056702397 -0.028624337 0.0051175337 0.010703023 -0.0024631086 -0.0031655808 -0.004597505 0.0077790054 -0.015175517 0.00015870898 -0.014770685 0.00507745 0.0048590656 0.007140336 -0.007970628 -0.014887052 -0.0057968153 0.011869879 0.0054918895 -0.011835727 -0.005905419 -0.02658502 -0.0023921237 -0.021785466 0.0026049102 0.0034651216 0.024278034 -0.0005621745 -0.014990751 0.010340349 0.00045836958 0.012608573 0.0031142798 -0.00909243 0.00081087765 -0.0044797496 -0.014173019 0.007282219 0.005328111 0.0009920538 -0.016273154 0.005224982 -0.0018929617 0.00034392963 -0.009886136 0.003943301 -0.006918995 0.017551336 0.014097082 0.017286504 -0.018381363 0.011433524 0.0006759619 0.01468837 0.022627981 0.004396268 0.0147002945 0.008363233 -0.009634957 0.006402572 -0.0040311664 -0.0010436459 -0.0062047695 0.008198518 -0.005728581 0.027295088 0.008236838 -0.0033408995 0.011655867 0.01640214 0.012985792 0.0066917143 0.025761075 0.012814198 -0.006657178 -0.0030606727 0.01584149 0.016806325 0.01030565 -0.024775933 0.005249952 0.012020495
기자 -0.005452126 0.012394955 0.005914676 0.005665604 0.009294925 -0.013086822 0.0017067055 0.030075185 -0.014507565 -4.2226377e-05 -0.008495841 -0.008132899 -0.014098159 0.0026482276 0.010501607 -0.012954127 -7.752104e-05 -0.0069866176 0.011608284 -0.021350179 0.0009849037 0.01273099 -0.0043928493 -0.003240569 0.0012964524 -0.0045694257 -0.0122786965 -0.016605025 -0.010033351 0.005077534 0.0053942376 -0.0011466313 0.009706737 -0.015100043 -0.0010153963 0.018158343 0.0019503271 -0.01709407 -0.0019020123 -0.025194392 0.009805768 -0.016506093 -0.0034919714 0.0065894937 0.0141727375 -0.0016027531 -0.015233777 0.009775733 0.0052179345 0.0030892328 0.011113949 0.001915477 -0.008465206 -0.0006363042 -0.0036293173 0.005930443 0.004822615 0.0045107873 -0.0020021282 -0.006804528 -0.0014626208 0.016272195 -0.004606173 -0.008426964 -0.015817871 0.0018343797 0.004544119 0.010469855 -0.018349502 0.008429777 -0.00019901362 0.011342129 0.016242214 -0.00081432774 0.021039639 0.0004077647 0.0051496625 -0.0022137982 -0.020014832 -0.004627068 -0.007886536 0.007994955 -0.0057215854 0.009015219 0.0015926644 -0.0038343915 -0.0012314463 0.018416591 0.019715577 0.006186698 0.016946297 0.0072004925 -0.009700794 0.003987743 0.024805296 0.01690705 0.010523174 -0.017365087 0.0057370057 -0.0059289695
나 -0.0020594883 0.0104447855 0.0041121272 -0.0043597436 0.0030032266 -0.011989611 0.0058380803 0.034241553 -0.002113177 -0.005766556 -0.0060781776 -0.023698589 -0.013094773 0.0012774256 0.006623958 0.00019262884 0.0019742146 -0.016570633 0.0057891724 -0.023757974 0.00595403 0.0122938035 0.013179139 -0.0039300504 -0.011700139 0.006482421 0.004167092 0.0032800224 -0.011489163 0.007470519 0.02162224 -0.007914651 0.010846319 -0.009216346 -0.010100572 0.01773286 0.014272149 -0.017893435 -0.0023857055 -0.026025886 -0.0069211675 -0.007303474 -0.009970454 0.004834538 0.020120649 0.0054171975 -0.0018196272 -0.0076156994 0.009586955 -0.001996154 0.004575018 0.0022731035 -0.0066935103 0.0025728585 -0.013506556 -0.0007377223 0.01185023 -0.00030789012 -0.0013059496 0.0025398985 0.002729532 0.010561593 -0.013887189 0.00794941 -0.018123094 0.013511042 -0.00096200727 0.010162578 -0.009972794 0.010687225 -0.015292179 -0.0008387551 0.0032048784 0.0076102726 0.006597677 0.0042440062 -0.010463946 -0.0065259836 -0.01567097 0.008931735 0.0003961135 0.0041114413 0.0015806699 0.018641653 0.009171519 0.0070062387 0.0043551293 0.010516239 0.0062658773 0.0031563584 0.01887442 -0.003268644 0.0024804168 -0.0067919465 0.027145382 0.011704684 0.008558711 -0.018339744 0.010121915 -0.0055150506
주택 -0.016292825 0.016399316 0.0009637605 -0.004051443 0.0054566544 -0.012282064 0.011148025 0.036560535 -0.0015787475 -0.018901046 0.00097434287 -0.011570067 -0.009047263 0.0061584753 -0.00040184782 -0.013678716 0.010472617 -0.013014935 0.0055894265 -0.029719979 0.014079594 0.0007508962 -8.125656e-05 -0.002510694 0.0049604867 -0.002457374 -0.003778965 -0.008431811 -0.018950297 -0.005047029 0.0067785406 0.008180109 -0.0015903525 -0.017250294 -0.0041963435 0.020987997 0.016437626 -0.022917585 -0.012604717 -0.026174244 -0.0012978452 -0.016414655 0.0017921787 -0.003294796 0.025767127 -0.006252074 -0.011481121 0.008653962 0.014730175 0.008709989 0.006605628 -0.0018581952 -0.006517629 0.0028874336 -0.008956578 0.0034411277 0.010565501 -0.009694963 -0.0083408775 -0.0072806906 0.0053519793 0.013823496 0.0010710045 -0.006648692 -0.022162806 0.017494658 0.007555544 0.011595641 -0.021976713 0.014450578 -0.01915373 0.008274404 0.011554896 -0.0020616672 0.018240375 0.008740877 -0.007892313 -0.00074842665 -0.02032084 0.0022426248 -0.0049856477 0.008175883 -0.01639388 0.022900965 0.008357749 0.009461181 0.0090764975 0.0036181242 0.01931276 0.015653428 0.020295488 0.010231837 -0.001600036 0.004654129 0.024959002 0.02305415 0.0060429783 -0.024997957 0.010407254 -0.003949718
정책 -0.0072413967 0.009045317 0.002245545 -0.007243689 0.0013573007 -0.023873404 0.005501463 0.019227711 -0.011356186 -0.0030944077 -0.0014555199 -0.012497748 -0.0029753428 -0.0058986153 0.011858487 -0.011424935 -0.00032822357 -0.0031701848 0.0024809889 -0.01544738 0.008148084 0.0064077354 0.011172303 0.005628965 -0.0054025766 -0.0004458765 -0.0013592108 -0.015443032 -0.00018895918 0.0029354268 0.018749513 0.0052058403 8.818827e-05 -0.007828755 -0.008314 0.021666478 0.009707846 -0.00633543 -0.014322508 -0.028694749 0.00887717 -0.009362169 -0.008504444 -0.009314047 0.008506262 -0.00384605 -0.01793017 0.0009216951 0.009452933 -0.0028387944 0.0040133907 -0.0134429205 -0.0064796023 -0.0031085357 -0.017463112 0.0033268563 -0.0032509686 -0.012448783 -0.007155569 0.0014111942 0.011535251 0.015135224 -0.010490308 -0.0084939785 -0.004282311 0.013435381 0.010560316 0.004612906 -0.01828048 0.006880657 -0.016014906 0.012137143 0.0091424 0.006615572 0.004929748 0.014953819 -0.0046370598 0.006818147 -0.016229745 -0.0022454723 0.0027654003 -0.010493273 -0.016544865 0.02186508 -0.010301871 0.0050054784 0.005271095 0.0011312509 0.014882019 0.006715771 0.02144048 0.009034114 -0.004740765 -0.0014033443 0.022625417 0.003891424 0.016912123 -0.015580228 -0.0023357307 -0.0030702746
학교 -0.004734163 -0.00017447412 0.0082737645 -0.007790176 0.0103827985 -0.022943204 -0.0035516054 0.033684183 0.0022132238 -0.0060074264 -0.006528813 -0.017671043 -0.013572436 0.0014777669 -0.0017278221 -0.008154918 -0.004300592 -0.021011347 -0.002967686 -0.017654933 0.011515411 0.012946609 0.008403227 0.00040431236 -0.00066018815 0.008527571 -0.012529588 -0.0060130307 -0.011417043 0.0058648917 0.008577401 0.00071962486 0.0055732215 -0.016899547 -0.013186103 0.020991681 0.005926572 -0.012279126 -0.016381556 -0.016392237 0.0018518864 -0.013325415 -0.0074170427 0.00047536014 0.021263978 -0.016187353 -0.007366743 -0.00438033 0.01775838 0.013241896 0.0005593553 -0.010562439 -0.008447511 0.00674947 0.00046098043 0.011156546 0.01512042 -0.009619594 -0.009201894 -0.005415133 -0.0072098956 0.0044013592 -0.006844706 -0.0040463805 -0.021277878 0.010800698 0.003980669 0.002235309 -0.009218007 0.01704294 -0.01918744 0.005599557 0.009011218 0.0050023925 0.012391268 0.014099303 0.0034929402 -0.0063659977 -0.022660915 1.9289448e-05 0.0024793367 -0.003002193 -0.009856693 0.020522967 -0.008919811 0.00386445 -0.0067644343 0.020053653 0.007288538 0.015203001 0.013766081 0.0051065274 -0.0018911684 0.0016045908 0.022895552 0.016213441 0.008792767 -0.0076779835 -0.0032685357 -0.0058121895
기술 -0.015123614 0.01561484 0.0026445428 -0.007971663 0.0045558996 -0.024849217 0.008334073 0.03779827 0.00071281474 -0.011652055 -0.001985987 -0.014991051 0.006459035 0.0023912312 0.00338967 -0.0139974505 -0.0019152357 -0.011688113 0.0046897307 -0.026975814 0.013603343 -0.0015975256 -0.0004018993 -0.014355382 0.004401841 0.008555229 -0.009378171 0.0007141983 -0.008259536 -0.01006009 0.0064538172 -0.0020503253 -0.006450825 -0.0042460863 0.001411164 0.016823156 0.006327964 -0.01797346 -0.0037275197 -0.028637696 -0.002053789 -0.020279186 -0.008169503 -0.01012616 0.018079456 -0.013445367 -0.0032309236 -0.0057252212 0.00060197455 0.008589795 -0.0020507402 -0.0030255 -0.0067773354 -0.0015181632 -0.0007221806 0.011077161 0.0039051832 0.0024441571 -0.010543607 0.0061731357 0.007089833 -0.0014534795 -0.0018377673 -0.0077286367 -0.01736417 0.01865441 0.0018843124 0.0057938197 -0.011563221 0.021579776 -0.0016208062 0.00046116713 0.022612782 0.00501626 0.0067283516 0.003281012 -0.0013805261 -0.011738371 -0.015471787 0.0151941255 -0.008916577 -0.008199748 -0.012714329 0.0085472325 0.0020534662 0.0058489763 0.0025221165 0.0064723743 0.02352208 -0.0030674087 0.010109119 -0.0032290595 0.010223248 -0.00077263877 0.012895774 0.0051188353 0.017308712 -0.018480081 -0.0016434619 0.0055989283
대회 -0.015418486 0.02084915 0.011815422 -0.0088740615 -0.0025860744 -0.016219776 -0.006032137 0.034745768 -0.0034124735 -0.002629786 -0.014927858 -0.021160888 -0.009599964 0.010940319 0.013591385 -0.01147214 -0.005467361 -0.007954285 0.0018507944 -0.02058601 0.0026038203 0.0027223749 0.0016451187 0.0034815043 -0.013185829 -0.0023291388 -0.008945016 -0.010207638 -0.005638932 -0.00043713138 0.012979202 -0.007805973 -0.010919289 -0.011194233 -0.005691709 0.005641473 0.013208475 -0.0054044137 -0.003089417 -0.029201249 0.0012342939 -0.0051738936 -0.01466225 -0.0072364938 0.006388833 -0.0017407127 -0.020153929 0.0024558213 0.017568951 0.0100052105 -0.0034932604 -0.00012327821 0.0031620972 -0.011428496 -0.0037053698 0.019266786 0.011848328 -0.009507324 -0.0037984364 -0.0048288656 -0.006881329 0.011635171 -0.010464309 0.000572686 -0.023022775 0.0018099691 0.0040422273 0.0121443225 -0.014173918 0.024511596 -0.0052889013 -0.0055096257 0.0059687374 -0.0045454823 0.010009207 -0.00028145345 0.010020788 0.002034543 -0.021411413 0.012565036 -0.008743432 -0.006625794 -0.008695648 0.028364819 -0.0066081206 -0.0044369563 -0.0003993433 0.014731701 0.021537663 -0.0016694792 0.005582768 0.0066183778 0.0045498167 0.0029103837 0.02267163 0.014185265 0.008300234 -0.011899313 0.002962991 0.008287017
학생 -0.00725292 0.019786453 0.00091854954 -0.00041925872 0.0035452717 -0.025089677 0.0134668965 0.0374123 -0.0020204696 -0.010990117 0.005482307 -0.017974623 -0.006778124 0.009446063 0.008990009 -0.0028109911 0.004286241 -0.012183274 -0.00037486735 -0.030207274 0.00032990117 0.0016918167 0.0027784698 -0.003114964 -0.0058845174 0.005754934 -0.0028446962 -0.014075426 -0.00451755 0.006264464 0.022119446 0.0048210165 0.0011906624 -0.01053068 -0.012206486 0.010714055 0.00898193 -0.013094263 -0.0072831307 -0.03008133 0.007241739 -0.018517522 -0.000411081 -0.00390519 0.0114083355 -0.004854461 -0.010814246 -0.0013996689 0.004562806 0.017798042 -0.002504782 -0.004834921 -0.005322685 0.007821269 -0.005651827 0.011641034 0.0018597045 -0.006964041 -0.016880626 -0.0029507594 0.00861805 -0.0011354041 -0.002623661 0.0058510476 -0.010387685 0.006660073 0.009939773 0.0008363625 -0.016890887 0.0241008 -0.006238385 0.0017880106 0.014154162 -0.011149549 0.014548004 0.012050256 -0.008094441 0.0036869363 -0.018953277 0.012365861 -0.0018510601 0.0018751912 -0.011616141 0.012503588 -0.0062187 0.0009325087 -0.00843451 0.019988624 0.01870669 0.005869956 0.026033359 0.0030553062 0.0022150825 0.001478428 0.028630057 0.018093843 0.0065637967 -0.019276774 -0.0048209056 0.009077739
